{"learner":{"attributes":{"scikit_learn":"{\"_estimator_type\": \"regressor\"}"},"feature_names":["grafton_level","hermann_level","daily_precip","daily_temp_avg","daily_snowfall","daily_humidity","daily_wind","precip_7d","precip_14d","precip_30d","soil_deep_30d","heavy_rain_48h","hermann_lag1d","grafton_lag1d","target_lag1d","hermann_lag2d","grafton_lag2d","target_lag2d","hermann_lag3d","grafton_lag3d","target_lag3d","hermann_lag5d","grafton_lag5d","hermann_lag7d","grafton_lag7d","precip_7d_lag1d","precip_14d_lag1d","precip_30d_lag1d","soil_deep_30d_lag1d","daily_precip_lag1d","hermann_ma3d","grafton_ma3d","hermann_ma7d","grafton_ma7d","hermann_ma14d","grafton_ma14d"],"feature_types":["float","float","float","float","float","float","float","float","float","float","float","int","float","float","float","float","float","float","float","float","float","float","float","float","float","float","float","float","float","float","float","float","float","float","float","float"],"gradient_booster":{"model":{"gbtree_model_param":{"num_parallel_tree":"1","num_trees":"300"},"iteration_indptr":[0,1,2,3,4,5,6,7,8,9,10,11,12,13,14,15,16,17,18,19,20,21,22,23,24,25,26,27,28,29,30,31,32,33,34,35,36,37,38,39,40,41,42,43,44,45,46,47,48,49,50,51,52,53,54,55,56,57,58,59,60,61,62,63,64,65,66,67,68,69,70,71,72,73,74,75,76,77,78,79,80,81,82,83,84,85,86,87,88,89,90,91,92,93,94,95,96,97,98,99,100,101,102,103,104,105,106,107,108,109,110,111,112,113,114,115,116,117,118,119,120,121,122,123,124,125,126,127,128,129,130,131,132,133,134,135,136,137,138,139,140,141,142,143,144,145,146,147,148,149,150,151,152,153,154,155,156,157,158,159,160,161,162,163,164,165,166,167,168,169,170,171,172,173,174,175,176,177,178,179,180,181,182,183,184,185,186,187,188,189,190,191,192,193,194,195,196,197,198,199,200,201,202,203,204,205,206,207,208,209,210,211,212,213,214,215,216,217,218,219,220,221,222,223,224,225,226,227,228,229,230,231,232,233,234,235,236,237,238,239,240,241,242,243,244,245,246,247,248,249,250,251,252,253,254,255,256,257,258,259,260,261,262,263,264,265,266,267,268,269,270,271,272,273,274,275,276,277,278,279,280,281,282,283,284,285,286,287,288,289,290,291,292,293,294,295,296,297,298,299,300],"tree_info":[0,0,0,0,0,0,0,0,0,0,0,0,0,0,0,0,0,0,0,0,0,0,0,0,0,0,0,0,0,0,0,0,0,0,0,0,0,0,0,0,0,0,0,0,0,0,0,0,0,0,0,0,0,0,0,0,0,0,0,0,0,0,0,0,0,0,0,0,0,0,0,0,0,0,0,0,0,0,0,0,0,0,0,0,0,0,0,0,0,0,0,0,0,0,0,0,0,0,0,0,0,0,0,0,0,0,0,0,0,0,0,0,0,0,0,0,0,0,0,0,0,0,0,0,0,0,0,0,0,0,0,0,0,0,0,0,0,0,0,0,0,0,0,0,0,0,0,0,0,0,0,0,0,0,0,0,0,0,0,0,0,0,0,0,0,0,0,0,0,0,0,0,0,0,0,0,0,0,0,0,0,0,0,0,0,0,0,0,0,0,0,0,0,0,0,0,0,0,0,0,0,0,0,0,0,0,0,0,0,0,0,0,0,0,0,0,0,0,0,0,0,0,0,0,0,0,0,0,0,0,0,0,0,0,0,0,0,0,0,0,0,0,0,0,0,0,0,0,0,0,0,0,0,0,0,0,0,0,0,0,0,0,0,0,0,0,0,0,0,0,0,0,0,0,0,0,0,0,0,0,0,0,0,0,0,0,0,0,0,0,0,0,0,0,0,0,0,0,0,0],"trees":[{"base_weights":[-2.3835943E-8,-8.929063E-2,8.5564303E-1,-9.7430125E-2,1.7117114E-1,6.385965E-1,8.910769E-1,-9.884019E-2,6.285714E-1,4.3555552E-1,-8.955248E-3,7.22222E-2,4.3875E-2,-2.5000006E-3,4.4706788E-2,-4.9561416E-3,2.2499999E-2,-2.5000006E-3,3.75E-2,-4.6428586E-3,3.265625E-2,-3.92157E-3,9.999999E-3,3E-2,-1.5625012E-3],"categories":[],"categories_nodes":[],"categories_segments":[],"categories_sizes":[],"default_left":[0,0,0,0,0,0,0,0,0,0,0,0,0,0,0,0,0,0,0,0,0,0,0,0,0],"id":0,"left_children":[1,3,5,7,9,11,13,15,17,19,21,23,-1,-1,-1,-1,-1,-1,-1,-1,-1,-1,-1,-1,-1],"loss_changes":[3.0804837E2,7.756901E0,2.3611755E0,3.6870804E0,5.2900095E0,7.649225E0,9.802551E-1,5.929642E-1,6.142857E-1,5.2341375E0,9.8835236E-1,1.001736E0,0E0,0E0,0E0,0E0,0E0,0E0,0E0,0E0,0E0,0E0,0E0,0E0,0E0],"parents":[2147483647,0,0,1,1,2,2,3,3,4,4,5,5,6,6,7,7,8,8,9,9,10,10,11,11],"right_children":[2,4,6,8,10,12,14,16,18,20,22,24,-1,-1,-1,-1,-1,-1,-1,-1,-1,-1,-1,-1,-1],"split_conditions":[2.696E1,2.522E1,1.709E1,2.325E1,2.594E1,2.075E1,1.56E1,2.075E1,1.587E1,1.72E1,1.9E1,5.4791668E1,1.9610012E-1,-2.7399922E-2,4.332001E-1,-3.191E-1,1.236001E-1,-5.0399877E-2,1.4510012E-1,-1.7399885E-2,1.054001E-1,-2.0899868E-2,5.9450086E-2,7.710009E-2,8.500107E-3],"split_indices":[14,14,1,1,20,0,0,0,0,0,1,5,0,0,0,0,0,0,0,0,0,0,0,0,0],"split_type":[0,0,0,0,0,0,0,0,0,0,0,0,0,0,0,0,0,0,0,0,0,0,0,0,0],"sum_hessian":[4.03E3,3.65E3,3.8E2,3.54E3,1.1E2,5.6E1,3.24E2,3.534E3,6E0,4.4E1,6.6E1,1.7E1,3.9E1,1E0,3.23E2,3.533E3,1E0,1E0,5E0,1.3E1,3.1E1,5E1,1.6E1,2E0,1.5E1],"tree_param":{"num_deleted":"0","num_feature":"36","num_nodes":"25","size_leaf_vector":"1"}},{"base_weights":[-3.7211848E-3,-8.929063E-2,8.162729E-1,-9.226962E-2,5.5294114E-1,4.2291665E-1,8.7035924E-1,-9.940156E-2,1.05511785E-1,-4.166668E-3,4.125E-2,5.7941175E-1,3.9999977E-2,2.8749996E-1,8.819572E-1,-4.998559E-3,-2.5581408E-3,-2.0388362E-3,3.52E-2,1.7187499E-2,3.736842E-2,3E-2,-4.615386E-3,-4.000001E-3,3.3749998E-2,-2.5000006E-3,4.4248465E-2],"categories":[],"categories_nodes":[],"categories_segments":[],"categories_sizes":[],"default_left":[0,0,0,0,0,0,0,0,0,0,0,0,0,0,0,0,0,0,0,0,0,0,0,0,0,0,0],"id":1,"left_children":[1,3,5,7,9,11,13,15,17,-1,-1,19,21,23,25,-1,-1,-1,-1,-1,-1,-1,-1,-1,-1,-1,-1],"loss_changes":[2.8291382E2,7.036133E0,7.7377625E0,5.137888E0,3.01152E0,2.8532028E0,2.0042572E0,9.130478E-2,1.1147804E1,0E0,0E0,1.0888453E0,1.1667693E0,1.1932501E0,9.62204E-1,0E0,0E0,0E0,0E0,0E0,0E0,0E0,0E0,0E0,0E0,0E0,0E0],"parents":[2147483647,0,0,1,1,2,2,3,3,4,4,5,5,6,6,7,7,8,8,11,11,12,12,13,13,14,14],"right_children":[2,4,6,8,10,12,14,16,18,-1,-1,20,22,24,26,-1,-1,-1,-1,-1,-1,-1,-1,-1,-1,-1,-1],"split_conditions":[2.696E1,2.325E1,2.78E1,1.876E1,1.602E1,2.78E1,1.648E1,1.838E1,1.824E1,-1.8029882E-2,2.738331E-1,1.839E1,1.5755714E1,2.165E1,1.342E1,-3.3694488E-1,-6.0144898E-2,-1.0269894E-2,1.0427383E-1,3.1553097E-2,1.12040035E-1,1.3295079E-2,-8.113767E-4,-2.6029969E-2,6.8940066E-2,-5.8824923E-2,4.1034004E-1],"split_indices":[14,1,14,0,0,17,0,0,1,0,0,1,32,1,1,0,0,0,0,0,0,0,0,0,0,0,0],"split_type":[0,0,0,0,0,0,0,0,0,0,0,0,0,0,0,0,0,0,0,0,0,0,0,0,0,0,0],"sum_hessian":[4.03E3,3.65E3,3.8E2,3.634E3,1.6E1,4.7E1,3.33E2,3.508E3,1.26E2,5E0,1.1E1,3.3E1,1.4E1,7E0,3.26E2,3.466E3,4.2E1,1.02E2,2.4E1,1.5E1,1.8E1,2E0,1.2E1,4E0,3E0,1E0,3.25E2],"tree_param":{"num_deleted":"0","num_feature":"36","num_nodes":"27","size_leaf_vector":"1"}},{"base_weights":[-3.9692624E-3,-8.422056E-2,8.402857E-1,-9.60181E-2,2.1056336E-1,4.4848484E-1,8.7830186E-1,-9.742577E-2,6.285714E-1,4.6545452E-1,4.8863612E-2,7.8823525E-1,8.235292E-2,-3.3333343E-3,8.8449365E-1,-4.899463E-3,1.6E-2,-2.5000006E-3,3.75E-2,-4.545456E-3,2.9555554E-2,-1.746033E-3,1.2499998E-2,-2.5000006E-3,4.21875E-2,-4.500001E-3,1.4374998E-2,2.875E-2,4.4688523E-2],"categories":[],"categories_nodes":[],"categories_segments":[],"categories_sizes":[],"default_left":[0,0,0,0,0,0,0,0,0,0,0,0,0,0,0,0,0,0,0,0,0,0,0,0,0,0,0,0,0],"id":2,"left_children":[1,3,5,7,9,11,13,15,17,19,21,23,25,-1,27,-1,-1,-1,-1,-1,-1,-1,-1,-1,-1,-1,-1,-1,-1],"loss_changes":[2.731813E2,1.2825203E1,4.8192596E0,3.6729965E0,5.8299046E0,4.0400715E0,1.9196014E0,8.628502E-1,6.142857E-1,3.8988285E0,1.4917119E0,8.33272E-1,6.2695587E-1,0E0,3.9337158E-1,0E0,0E0,0E0,0E0,0E0,0E0,0E0,0E0,0E0,0E0,0E0,0E0,0E0,0E0],"parents":[2147483647,0,0,1,1,2,2,3,3,4,4,5,5,6,6,7,7,8,8,9,9,10,10,11,11,12,12,14,14],"right_children":[2,4,6,8,10,12,14,16,18,20,22,24,26,-1,28,-1,-1,-1,-1,-1,-1,-1,-1,-1,-1,-1,-1,-1,-1],"split_conditions":[2.734E1,2.522E1,2.823E1,2.325E1,2.594E1,2.78E1,1.59E1,2.052E1,1.587E1,1.659E1,1.876E1,1.597E1,2.075E1,-2.472849E-2,1.755E1,-2.8814772E-1,1.1220636E-1,-4.697838E-2,1.2415352E-1,-1.7233802E-2,8.46385E-2,-2.9480974E-3,4.8938073E-2,-1.0068894E-3,1.16389096E-1,-6.78444E-3,1.2630368E-2,7.712309E-2,4.10923E-1],"split_indices":[14,14,14,1,20,20,0,0,0,0,1,0,0,0,0,0,0,0,0,0,0,0,0,0,0,0,0,0,0],"split_type":[0,0,0,0,0,0,0,0,0,0,0,0,0,0,0,0,0,0,0,0,0,0,0,0,0,0,0,0,0],"sum_hessian":[4.03E3,3.681E3,3.49E2,3.54E3,1.41E2,3.2E1,3.17E2,3.534E3,6E0,5.4E1,8.7E1,1.6E1,1.6E1,2E0,3.15E2,3.53E3,4E0,1E0,5E0,1E1,4.4E1,6.2E1,2.5E1,1E0,1.5E1,9E0,7E0,1.1E1,3.04E2],"tree_param":{"num_deleted":"0","num_feature":"36","num_nodes":"29","size_leaf_vector":"1"}},{"base_weights":[-4.465417E-3,-8.3677374E-2,8.288571E-1,-9.626677E-2,1.7068963E-1,5.4218745E-1,8.8989544E-1,-9.939831E-2,4.5499998E-1,-4.786327E-2,6.0862064E-1,7.78125E-1,2.9696968E-1,-2.5000006E-3,8.933566E-1,-4.998565E-3,6.6666654E-3,-4.285715E-3,3.4642857E-2,-4.4761915E-3,1.4615384E-2,1.6041666E-2,3.9428573E-2,-3.3333343E-3,4.1833334E-2,1.999999E-3,2.4210526E-2,-2.5000006E-3,4.4842105E-2],"categories":[],"categories_nodes":[],"categories_segments":[],"categories_sizes":[],"default_left":[0,0,0,0,0,0,0,0,0,0,0,0,0,0,0,0,0,0,0,0,0,0,0,0,0,0,0,0,0],"id":3,"left_children":[1,3,5,7,9,11,13,15,17,19,21,23,25,-1,27,-1,-1,-1,-1,-1,-1,-1,-1,-1,-1,-1,-1,-1,-1],"loss_changes":[2.6615207E2,1.1807396E1,5.641754E0,6.1028557E0,1.6682861E1,3.4717102E0,9.7831726E-1,4.787407E-1,2.6316433E0,1.6842588E0,2.750679E0,1.6383553E0,1.5684338E0,0E0,9.8521423E-1,0E0,0E0,0E0,0E0,0E0,0E0,0E0,0E0,0E0,0E0,0E0,0E0,0E0,0E0],"parents":[2147483647,0,0,1,1,2,2,3,3,4,4,5,5,6,6,7,7,8,8,9,9,10,10,11,11,12,12,14,14],"right_children":[2,4,6,8,10,12,14,16,18,20,22,24,26,-1,28,-1,-1,-1,-1,-1,-1,-1,-1,-1,-1,-1,-1,-1,-1],"split_conditions":[2.734E1,1.876E1,2.888E1,2.075E1,1.72E1,2.823E1,1.59E1,2.052E1,1.215E1,3.7870834E1,6E-1,1.597E1,2.823E1,-8.278704E-2,1.458E1,-2.844905E-1,4.6061515E-3,-4.6351436E-3,6.317529E-2,-2.1116497E-2,5.9367236E-2,6.1791707E-2,1.12270966E-1,-9.5653534E-4,1.4337692E-1,6.146622E-3,8.012698E-2,-1.7680168E-3,4.1687694E-1],"split_indices":[14,1,14,0,0,20,0,0,1,7,29,0,14,0,1,0,0,0,0,0,0,0,0,0,0,0,0,0,0],"split_type":[0,0,0,0,0,0,0,0,0,0,0,0,0,0,0,0,0,0,0,0,0,0,0,0,0,0,0,0,0],"sum_hessian":[4.03E3,3.681E3,3.49E2,3.508E3,1.73E2,6.3E1,2.86E2,3.489E3,1.9E1,1.16E2,5.7E1,3.1E1,3.2E1,1E0,2.85E2,3.481E3,8E0,6E0,1.3E1,1.04E2,1.2E1,2.3E1,3.4E1,2E0,2.9E1,1.4E1,1.8E1,1E0,2.84E2],"tree_param":{"num_deleted":"0","num_feature":"36","num_nodes":"29","size_leaf_vector":"1"}},{"base_weights":[-4.7134943E-3,-8.709945E-2,7.8477687E-1,-9.247851E-2,3.1020406E-1,4.8E-1,8.829268E-1,-9.910459E-2,6.971829E-2,6.64E-1,-5.6000024E-2,7.3142856E-1,3.2786882E-1,-2.5000006E-3,8.863636E-1,-4.969619E-3,2.857142E-3,-2.8750012E-3,3.652174E-2,-3.3333343E-3,3.652174E-2,-4.78261E-3,1.3333333E-2,-3.3333343E-3,3.909091E-2,8.289473E-3,2.8541667E-2,-2.5000006E-3,4.4491228E-2],"categories":[],"categories_nodes":[],"categories_segments":[],"categories_sizes":[],"default_left":[0,0,0,0,0,0,0,0,0,0,0,0,0,0,0,0,0,0,0,0,0,0,0,0,0,0,0,0,0],"id":4,"left_children":[1,3,5,7,9,11,13,15,17,19,21,23,25,-1,27,-1,-1,-1,-1,-1,-1,-1,-1,-1,-1,-1,-1,-1,-1],"loss_changes":[2.6225632E2,7.831318E0,1.0973373E1,3.879156E0,6.3856974E0,3.3939495E0,9.645233E-1,1.6135788E-1,1.1977844E1,1.2622385E0,3.4536815E-1,1.459671E0,2.3075132E0,0E0,9.71344E-1,0E0,0E0,0E0,0E0,0E0,0E0,0E0,0E0,0E0,0E0,0E0,0E0,0E0,0E0],"parents":[2147483647,0,0,1,1,2,2,3,3,4,4,5,5,6,6,7,7,8,8,9,9,10,10,11,11,12,12,14,14],"right_children":[2,4,6,8,10,12,14,16,18,20,22,24,26,-1,28,-1,-1,-1,-1,-1,-1,-1,-1,-1,-1,-1,-1,-1,-1],"split_conditions":[2.696E1,2.618E1,2.888E1,1.876E1,2.666E1,2.713E1,1.59E1,2.052E1,1.801E1,1.627E1,2.28E1,4.26E1,2.075E1,-7.864771E-2,1.458E1,-2.867659E-1,4.000759E-3,-1.5210918E-2,1.0892741E-1,-1.7416287E-2,6.578923E-2,-8.769399E-3,1.9875526E-2,-5.983448E-3,1.3040057E-1,5.9084028E-2,6.3745454E-2,-1.6796113E-3,3.9603302E-1],"split_indices":[14,14,14,1,17,17,0,0,0,0,1,9,0,0,1,0,0,0,0,0,0,0,0,0,0,0,0,0,0],"split_type":[0,0,0,0,0,0,0,0,0,0,0,0,0,0,0,0,0,0,0,0,0,0,0,0,0,0,0,0,0],"sum_hessian":[4.03E3,3.65E3,3.8E2,3.602E3,4.8E1,9.4E1,2.86E2,3.461E3,1.41E2,2.4E1,2.4E1,3.4E1,6E1,1E0,2.85E2,3.455E3,6E0,1.19E2,2.2E1,2E0,2.2E1,2.2E1,2E0,2E0,3.2E1,3.7E1,2.3E1,1E0,2.84E2],"tree_param":{"num_deleted":"0","num_feature":"36","num_nodes":"29","size_leaf_vector":"1"}},{"base_weights":[-7.1942685E-3,-8.442871E-2,7.687671E-1,-9.486527E-2,1.7342655E-1,5.110169E-1,8.8830644E-1,-9.90904E-2,2.7966078E-2,-1.3559345E-2,3.0117646E-1,1.0285712E-1,6.7499995E-1,-2.5000006E-3,8.9230764E-1,-4.9985084E-3,-2.3728826E-3,-2.1226427E-3,3E-2,1.7777776E-2,-3.92157E-3,2.3958322E-3,3.0657893E-2,3.3749998E-2,1.4062489E-3,1.9354839E-2,4.1388888E-2,1.3333333E-2,4.4816326E-2],"categories":[],"categories_nodes":[],"categories_segments":[],"categories_sizes":[],"default_left":[0,0,0,0,0,0,0,0,0,0,0,0,0,0,0,0,0,0,0,0,0,0,0,0,0,0,0,0,0],"id":5,"left_children":[1,3,5,7,9,11,13,15,17,19,21,23,25,-1,27,-1,-1,-1,-1,-1,-1,-1,-1,-1,-1,-1,-1,-1,-1],"loss_changes":[2.4164653E2,9.884798E0,1.0792175E1,1.8321724E0,3.4199862E0,7.8284664E0,9.75708E-1,1.5006256E-1,4.77875E0,1.440656E0,6.68667E0,1.4775268E0,3.3743248E0,0E0,3.820343E-1,0E0,0E0,0E0,0E0,0E0,0E0,0E0,0E0,0E0,0E0,0E0,0E0,0E0,0E0],"parents":[2147483647,0,0,1,1,2,2,3,3,4,4,5,5,6,6,7,7,8,8,9,9,10,10,11,11,12,12,14,14],"right_children":[2,4,6,8,10,12,14,16,18,20,22,24,26,-1,28,-1,-1,-1,-1,-1,-1,-1,-1,-1,-1,-1,-1,-1,-1],"split_conditions":[2.713E1,2.503E1,2.142E1,1.858E1,1.748E1,1.769E1,1.153E1,1.733E1,1.823E1,1.2929167E1,1.851E1,2.554E1,1.916E1,-7.5906753E-3,1.5243333E1,-3.241275E-1,-9.283634E-3,-5.539329E-3,1.4629798E-1,1.5163327E-2,-6.443082E-3,8.411717E-3,6.481827E-2,1.3541889E-2,4.475859E-3,6.1217066E-2,1.3653146E-1,1.8623142E-1,3.9448136E-1],"split_indices":[14,14,0,1,1,1,1,1,0,8,0,20,0,0,30,0,0,0,0,0,0,0,0,0,0,0,0,0,0],"split_type":[0,0,0,0,0,0,0,0,0,0,0,0,0,0,0,0,0,0,0,0,0,0,0,0,0,0,0,0,0],"sum_hessian":[4.03E3,3.666E3,3.64E2,3.524E3,1.42E2,1.17E2,2.47E2,3.407E3,1.17E2,5.8E1,8.4E1,3.4E1,8.3E1,1E0,2.46E2,3.349E3,5.8E1,1.05E2,1.2E1,8E0,5E1,4.7E1,3.7E1,3E0,3.1E1,3E1,5.3E1,2E0,2.44E2],"tree_param":{"num_deleted":"0","num_feature":"36","num_nodes":"29","size_leaf_vector":"1"}},{"base_weights":[-1.2651972E-2,-8.193325E-2,7.9654086E-1,-9.5716335E-2,1.742105E-1,4.3720928E-1,8.496376E-1,-9.7677775E-2,8.684208E-2,6.999998E-2,3.934426E-1,-4.545477E-3,4.2954545E-2,4.7619045E-1,8.769531E-1,-4.8981947E-3,2.2499999E-2,-4.82143E-3,2.7272725E-2,2.2307692E-2,1.3983039E-3,-4.78261E-3,3.3589743E-2,-4.7368435E-3,2.125E-2,4.5454535E-3,4.0909093E-2,4.403543E-2,1.3333333E-2],"categories":[],"categories_nodes":[],"categories_segments":[],"categories_sizes":[],"default_left":[0,0,0,0,0,0,0,0,0,0,0,0,0,0,0,0,0,0,0,0,0,0,0,0,0,0,0,0,0],"id":6,"left_children":[1,3,5,7,9,11,13,15,17,19,21,23,-1,25,27,-1,-1,-1,-1,-1,-1,-1,-1,-1,-1,-1,-1,-1,-1],"loss_changes":[2.2605084E2,1.3128769E1,5.695755E0,1.2707062E0,4.3132544E0,8.017738E0,2.3978424E0,5.9064484E-1,3.2465055E0,2.0429804E0,8.368836E0,8.925718E-1,0E0,2.6926403E0,3.5188293E-1,0E0,0E0,0E0,0E0,0E0,0E0,0E0,0E0,0E0,0E0,0E0,0E0,0E0,0E0],"parents":[2147483647,0,0,1,1,2,2,3,3,4,4,5,5,6,6,7,7,8,8,9,9,10,10,11,11,13,13,14,14],"right_children":[2,4,6,8,10,12,14,16,18,20,22,24,-1,26,28,-1,-1,-1,-1,-1,-1,-1,-1,-1,-1,-1,-1,-1,-1],"split_conditions":[2.823E1,2.503E1,1.769E1,2.184E1,1.977E1,2.276E1,1.916E1,9.7E1,1.637E1,2.489E1,1.685E1,2.505E1,1.5686245E-1,2.494E1,8.9416664E1,-2.562712E-1,2.5378799E-2,-1.6196998E-2,1.5024367E-1,4.0796403E-2,3.0440274E-3,-9.214654E-3,7.824237E-2,-2.5989346E-3,1.3314533E-2,3.4358095E-2,5.8156252E-2,3.709073E-1,1.6650735E-1],"split_indices":[14,14,1,1,1,13,0,2,0,17,0,24,0,12,5,0,0,0,0,0,0,0,0,0,0,0,0,0,0],"split_type":[0,0,0,0,0,0,0,0,0,0,0,0,0,0,0,0,0,0,0,0,0,0,0,0,0,0,0,0,0],"sum_hessian":[4.03E3,3.713E3,3.17E2,3.524E3,1.89E2,4.2E1,2.75E2,3.487E3,3.7E1,1.29E2,6E1,2.1E1,2.1E1,2E1,2.55E2,3.486E3,1E0,2.7E1,1E1,1.2E1,1.17E2,2.2E1,3.8E1,1.8E1,3E0,1E1,1E1,2.53E2,2E0],"tree_param":{"num_deleted":"0","num_feature":"36","num_nodes":"29","size_leaf_vector":"1"}},{"base_weights":[-1.2403894E-2,-7.950999E-2,7.7138364E-1,-9.264584E-2,2.018072E-1,4.3281248E-1,8.533333E-1,-9.48769E-2,3.7647057E-1,3.4821406E-2,5.381818E-1,1.8809521E-1,4.3043476E-2,8.333331E-2,8.684E-1,-4.9984576E-3,-1.9322046E-3,-4.375001E-3,3.55E-2,-1.7721531E-3,9.85294E-3,3.4871794E-2,7.0588225E-3,2.0208333E-2,-4.7368435E-3,2.2499999E-2,-4.000001E-3,-2.5000006E-3,4.361446E-2],"categories":[],"categories_nodes":[],"categories_segments":[],"categories_sizes":[],"default_left":[0,0,0,0,0,0,0,0,0,0,0,0,0,0,0,0,0,0,0,0,0,0,0,0,0,0,0,0,0],"id":7,"left_children":[1,3,5,7,9,11,13,15,17,19,21,23,-1,25,27,-1,-1,-1,-1,-1,-1,-1,-1,-1,-1,-1,-1,-1,-1],"loss_changes":[2.1207951E2,1.3743195E1,8.453827E0,3.7501945E0,9.305445E0,6.542263E0,2.8859863E0,1.0078182E0,2.6928382E0,1.2837311E0,3.3788977E0,2.6049905E0,0E0,3.9533332E-1,9.3655396E-1,0E0,0E0,0E0,0E0,0E0,0E0,0E0,0E0,0E0,0E0,0E0,0E0,0E0,0E0],"parents":[2147483647,0,0,1,1,2,2,3,3,4,4,5,5,6,6,7,7,8,8,9,9,10,10,11,11,13,13,14,14],"right_children":[2,4,6,8,10,12,14,16,18,20,22,24,-1,26,28,-1,-1,-1,-1,-1,-1,-1,-1,-1,-1,-1,-1,-1,-1],"split_conditions":[2.823E1,1.893E1,2.949E1,2.371E1,1.748E1,2.28E1,1.876E1,1.613E1,1.685E1,1.584E1,2E1,2.028E1,1.2443789E-1,1.766E1,5E-2,-3.5505763E-1,-5.0603445E-3,-1.7518997E-4,7.505894E-2,-4.39334E-3,1.00451475E-2,9.281215E-2,1.9893585E-2,3.143313E-2,-8.23647E-3,3.5952665E-2,-6.8623545E-3,-1.1362362E-2,3.5441193E-1],"split_indices":[14,0,14,1,1,1,0,1,0,1,19,18,0,0,25,0,0,0,0,0,0,0,0,0,0,0,0,0,0],"split_type":[0,0,0,0,0,0,0,0,0,0,0,0,0,0,0,0,0,0,0,0,0,0,0,0,0,0,0,0,0],"sum_hessian":[4.03E3,3.713E3,3.17E2,3.548E3,1.65E2,6.3E1,2.54E2,3.532E3,1.6E1,1.11E2,5.4E1,4.1E1,2.2E1,5E0,2.49E2,3.238E3,2.94E2,7E0,9E0,7.8E1,3.3E1,3.8E1,1.6E1,2.3E1,1.8E1,1E0,4E0,1E0,2.48E2],"tree_param":{"num_deleted":"0","num_feature":"36","num_nodes":"29","size_leaf_vector":"1"}},{"base_weights":[-1.6373131E-2,-8.058699E-2,7.3364776E-1,-9.733453E-2,1.09634526E-1,4.1684207E-1,8.6473215E-1,-9.937465E-2,2.4561381E-2,7.765955E-2,5.5499995E-1,6.0923076E-1,-2.3072765E-8,4.0999997E-1,8.8186044E-1,-4.9836175E-3,2.2499999E-2,-2.9807703E-3,3.75E-2,-1.1986314E-3,9.270072E-3,-4.285715E-3,4.1785713E-2,1.2749999E-2,3.75E-2,-4.7500012E-3,7.916666E-3,-4.000001E-3,3.75E-2,-2.5000006E-3,4.4322427E-2],"categories":[],"categories_nodes":[],"categories_segments":[],"categories_sizes":[],"default_left":[0,0,0,0,0,0,0,0,0,0,0,0,0,0,0,0,0,0,0,0,0,0,0,0,0,0,0,0,0,0,0],"id":8,"left_children":[1,3,5,7,9,11,13,15,17,19,21,23,25,27,29,-1,-1,-1,-1,-1,-1,-1,-1,-1,-1,-1,-1,-1,-1,-1,-1],"loss_changes":[1.9419908E2,1.1842516E1,1.2845535E1,8.514404E-1,4.2433047E0,7.618593E0,1.3831177E0,5.9404755E-1,3.5254216E0,3.0923567E0,3.668786E0,3.0499592E0,4.8133335E-1,1.7260001E0,9.635773E-1,0E0,0E0,0E0,0E0,0E0,0E0,0E0,0E0,0E0,0E0,0E0,0E0,0E0,0E0,0E0,0E0],"parents":[2147483647,0,0,1,1,2,2,3,3,4,4,5,5,6,6,7,7,8,8,9,9,10,10,11,11,12,12,13,13,14,14],"right_children":[2,4,6,8,10,12,14,16,18,20,22,24,26,28,30,-1,-1,-1,-1,-1,-1,-1,-1,-1,-1,-1,-1,-1,-1,-1,-1],"split_conditions":[2.823E1,2.358E1,3.009E1,2.028E1,2.371E1,2.976E1,1.98E1,9.7E1,3.8582477E-1,1.893E1,1.685E1,1.977E1,1.2E0,2.258E1,1.508E1,-2.952048E-1,2.4362851E-2,-1.6823037E-2,7.6068595E-2,-1.3449494E-3,1.5327555E-2,-1.6641617E-4,1.9950612E-1,1.9298648E-2,1.0307919E-1,-2.7012827E-3,1.6408538E-2,-6.519222E-3,7.1138956E-2,-2.9023742E-2,3.5554138E-1],"split_indices":[14,14,14,1,1,17,0,2,10,0,0,1,2,15,1,0,0,0,0,0,0,0,0,0,0,0,0,0,0,0,0],"split_type":[0,0,0,0,0,0,0,0,0,0,0,0,0,0,0,0,0,0,0,0,0,0,0,0,0,0,0,0,0,0,0],"sum_hessian":[4.03E3,3.713E3,3.17E2,3.413E3,3E2,9.4E1,2.23E2,3.357E3,5.6E1,2.81E2,1.9E1,6.4E1,3E1,9E0,2.14E2,3.356E3,1E0,5.1E1,5E0,1.45E2,1.36E2,6E0,1.3E1,1.9E1,4.5E1,1.9E1,1.1E1,4E0,5E0,1E0,2.13E2],"tree_param":{"num_deleted":"0","num_feature":"36","num_nodes":"31","size_leaf_vector":"1"}},{"base_weights":[-1.8605828E-2,-7.852549E-2,7.2152317E-1,-9.6202925E-2,1.3879001E-1,4.117021E-1,8.574163E-1,-9.678077E-2,3E-2,6.024588E-2,6.394737E-1,2.080645E-1,7.8181815E-1,-2.5000006E-3,8.620192E-1,-4.983335E-3,-1.6107395E-3,-2.4275375E-3,9.999999E-3,-4.000001E-3,3.632353E-2,5.9999987E-3,3.9375E-2,-2.5000006E-3,4.046875E-2,-2.5000006E-3,4.3333333E-2],"categories":[],"categories_nodes":[],"categories_segments":[],"categories_sizes":[],"default_left":[0,0,0,0,0,0,0,0,0,0,0,0,0,0,0,0,0,0,0,0,0,0,0,0,0,0,0],"id":9,"left_children":[1,3,5,7,9,11,13,15,-1,17,19,21,23,-1,25,-1,-1,-1,-1,-1,-1,-1,-1,-1,-1,-1,-1],"loss_changes":[1.7882458E2,1.4342443E1,1.2361969E1,1.4459896E0,1.10120125E1,6.9220676E0,9.160614E-1,6.3926697E-1,0E0,3.7196755E0,2.436614E0,3.0692182E0,7.969017E-1,0E0,9.24942E-1,0E0,0E0,0E0,0E0,0E0,0E0,0E0,0E0,0E0,0E0,0E0,0E0],"parents":[2147483647,0,0,1,1,2,2,3,3,4,4,5,5,6,6,7,7,9,9,10,10,11,11,12,12,14,14],"right_children":[2,4,6,8,10,12,14,16,-1,18,20,22,24,-1,26,-1,-1,-1,-1,-1,-1,-1,-1,-1,-1,-1,-1],"split_conditions":[2.852E1,1.801E1,3.043E1,2.576E1,1.996E1,2.165E1,1.535E1,1.858E1,4.2916488E-2,1.584E1,5.3779167E1,2.311E1,5.366667E0,-1.197834E-2,5E-2,-3.098367E-1,-3.1847123E-3,-1.08321775E-2,1.2974597E-2,-1.0786057E-3,1.04815744E-1,9.674168E-3,6.746435E-2,-4.9230577E-3,9.836676E-2,-1.0468292E-2,3.4226435E-1],"split_indices":[14,0,14,1,1,1,1,1,0,1,9,0,7,0,25,0,0,0,0,0,0,0,0,0,0,0,0],"split_type":[0,0,0,0,0,0,0,0,0,0,0,0,0,0,0,0,0,0,0,0,0,0,0,0,0,0,0],"sum_hessian":[4.03E3,3.729E3,3.01E2,3.449E3,2.8E2,9.3E1,2.08E2,3.447E3,2E0,2.43E2,3.7E1,6.1E1,3.2E1,1E0,2.07E2,3.299E3,1.48E2,1.37E2,1.06E2,4E0,3.3E1,5.4E1,7E0,1E0,3.1E1,1E0,2.06E2],"tree_param":{"num_deleted":"0","num_feature":"36","num_nodes":"27","size_leaf_vector":"1"}},{"base_weights":[-2.0094294E-2,-7.79893E-2,6.950331E-1,-9.789195E-2,1.0688703E-1,4.3253967E-1,8.779661E-1,-9.848397E-2,3.2E-1,7.521863E-2,6.190476E-1,6.683333E-1,2.1492535E-1,-2.5000006E-3,8.835227E-1,-4.939044E-3,2.2499999E-2,-3.3333343E-3,3E-2,-1.60429E-4,8.407642E-3,-4.000001E-3,3.9411765E-2,3.6938775E-2,1.625E-2,1.0294106E-3,2.014706E-2,2.125E-2,4.4450868E-2],"categories":[],"categories_nodes":[],"categories_segments":[],"categories_sizes":[],"default_left":[0,0,0,0,0,0,0,0,0,0,0,0,0,0,0,0,0,0,0,0,0,0,0,0,0,0,0,0,0],"id":10,"left_children":[1,3,5,7,9,11,13,15,17,19,21,23,25,-1,27,-1,-1,-1,-1,-1,-1,-1,-1,-1,-1,-1,-1,-1,-1],"loss_changes":[1.6694688E2,1.37351055E1,1.4121902E1,8.6476517E-1,5.8410425E0,6.32168E0,9.5684814E-1,5.922661E-1,5.813333E-1,2.500519E0,2.5467339E0,1.2110062E0,2.4397805E0,0E0,6.5597534E-2,0E0,0E0,0E0,0E0,0E0,0E0,0E0,0E0,0E0,0E0,0E0,0E0,0E0,0E0],"parents":[2147483647,0,0,1,1,2,2,3,3,4,4,5,5,6,6,7,7,8,8,9,9,10,10,11,11,12,12,14,14],"right_children":[2,4,6,8,10,12,14,16,18,20,22,24,26,-1,28,-1,-1,-1,-1,-1,-1,-1,-1,-1,-1,-1,-1,-1,-1],"split_conditions":[2.852E1,2.297E1,3.089E1,2.3E1,2.403E1,2.976E1,1.535E1,9.7E1,1.1E0,1.893E1,1.587E1,3.971931E-1,1.9E1,-1.1379433E-2,1.839E1,-2.740569E-1,2.3303986E-2,-1.50877E-2,6.226177E-2,4.8617323E-5,1.6557E-2,-1.4233875E-2,1.551595E-1,8.8476285E-2,7.0487104E-2,3.5717764E-3,2.9251134E-2,5.840845E-2,3.350511E-1],"split_indices":[14,14,14,1,1,20,1,2,2,0,0,10,1,0,15,0,0,0,0,0,0,0,0,0,0,0,0,0,0],"split_type":[0,0,0,0,0,0,0,0,0,0,0,0,0,0,0,0,0,0,0,0,0,0,0,0,0,0,0,0,0],"sum_hessian":[4.03E3,3.729E3,3.01E2,3.367E3,3.62E2,1.25E2,1.76E2,3.363E3,4E0,3.42E2,2E1,5.9E1,6.6E1,1E0,1.75E2,3.362E3,1E0,2E0,2E0,1.86E2,1.56E2,4E0,1.6E1,4.8E1,1.1E1,3.3E1,3.3E1,3E0,1.72E2],"tree_param":{"num_deleted":"0","num_feature":"36","num_nodes":"29","size_leaf_vector":"1"}},{"base_weights":[-2.3567377E-2,-7.852549E-2,6.55298E-1,-9.560538E-2,1.2067794E-1,2.9670328E-1,8.061321E-1,-9.618523E-2,3E-2,6.642064E-2,7.04E-1,6.85185E-2,6.1315787E-1,5.6226414E-1,8.81875E-1,-4.9529746E-3,-1.3669076E-3,-2.2260286E-3,9.722221E-3,-2.5000006E-3,3.6875E-2,2.4285713E-2,3.1249886E-4,1.5333332E-2,3.8958333E-2,3.2888886E-2,1.1111101E-3,-2.5000006E-3,4.4402517E-2],"categories":[],"categories_nodes":[],"categories_segments":[],"categories_sizes":[],"default_left":[0,0,0,0,0,0,0,0,0,0,0,0,0,0,0,0,0,0,0,0,0,0,0,0,0,0,0,0,0],"id":11,"left_children":[1,3,5,7,9,11,13,15,-1,17,19,21,23,25,27,-1,-1,-1,-1,-1,-1,-1,-1,-1,-1,-1,-1,-1,-1],"loss_changes":[1.5044469E2,1.2702387E1,1.6095474E1,1.443615E0,9.289836E0,6.529109E0,3.4200592E0,6.768303E-1,0E0,3.8577008E0,6.683502E-1,1.3997852E0,1.6945038E0,2.7191944E0,9.651413E-1,0E0,0E0,0E0,0E0,0E0,0E0,0E0,0E0,0E0,0E0,0E0,0E0,0E0,0E0],"parents":[2147483647,0,0,1,1,2,2,3,3,4,4,5,5,6,6,7,7,9,9,10,10,11,11,12,12,13,13,14,14],"right_children":[2,4,6,8,10,12,14,16,-1,18,20,22,24,26,28,-1,-1,-1,-1,-1,-1,-1,-1,-1,-1,-1,-1,-1,-1],"split_conditions":[2.852E1,1.779E1,2.07E1,1.7512917E2,2.239E1,2.295E1,2.169E1,1.693E1,1.5459919E-2,1.584E1,1.801E1,1.709E1,1.4491667E1,3.971931E-1,4.8516666E1,-2.8495845E-1,-2.921101E-3,-1.07395975E-2,1.4930779E-2,-2.1652794E-2,9.1816984E-2,2.2800827E-2,5.5808894E-4,4.5098577E-2,1.292986E-1,8.5869834E-2,7.8042224E-2,-1.0943127E-2,3.2034868E-1],"split_indices":[14,0,12,26,1,0,0,0,0,1,0,23,7,10,27,0,0,0,0,0,0,0,0,0,0,0,0,0,0],"split_type":[0,0,0,0,0,0,0,0,0,0,0,0,0,0,0,0,0,0,0,0,0,0,0,0,0,0,0,0,0],"sum_hessian":[4.03E3,3.729E3,3.01E2,3.435E3,2.94E2,9E1,2.11E2,3.433E3,2E0,2.7E2,2.4E1,5.3E1,3.7E1,5.2E1,1.59E2,3.295E3,1.38E2,1.45E2,1.25E2,1E0,2.3E1,6E0,4.7E1,1.4E1,2.3E1,4.4E1,8E0,1E0,1.58E2],"tree_param":{"num_deleted":"0","num_feature":"36","num_nodes":"29","size_leaf_vector":"1"}},{"base_weights":[-2.6792383E-2,-6.4435825E-2,7.9322034E-1,-9.416717E-2,1.8560973E-1,4.837209E-1,8.859259E-1,-9.56041E-2,3.25E-1,1.23415954E-1,6.5208334E-1,1.0526293E-2,8.24E-1,4.465909E-2,4.2499998E-1,-4.9088476E-3,5.5554377E-5,3.142857E-2,-4.166668E-3,1.6923065E-3,1.1301774E-2,1.1111101E-3,3.8875E-2,-4.7058836E-3,3E-2,4.3125E-2,-2.5000006E-3,-2.5000006E-3,3E-2],"categories":[],"categories_nodes":[],"categories_segments":[],"categories_sizes":[],"default_left":[0,0,0,0,0,0,0,0,0,0,0,0,0,0,0,0,0,0,0,0,0,0,0,0,0,0,0,0,0],"id":12,"left_children":[1,3,5,7,9,11,13,15,17,19,21,23,25,-1,27,-1,-1,-1,-1,-1,-1,-1,-1,-1,-1,-1,-1,-1,-1],"loss_changes":[1.24480415E2,2.8676292E1,4.6500015E0,2.106638E0,1.18143425E1,6.9151106E0,7.1899414E-2,8.548527E-1,1.5398811E0,3.328905E0,3.7744846E0,1.228483E0,8.843498E-1,0E0,3.6249995E-1,0E0,0E0,0E0,0E0,0E0,0E0,0E0,0E0,0E0,0E0,0E0,0E0,0E0,0E0],"parents":[2147483647,0,0,1,1,2,2,3,3,4,4,5,5,6,6,7,7,8,8,9,9,10,10,11,11,12,12,14,14],"right_children":[2,4,6,8,10,12,14,16,18,20,22,24,26,-1,28,-1,-1,-1,-1,-1,-1,-1,-1,-1,-1,-1,-1,-1,-1],"split_conditions":[3.089E1,2.397E1,2.096E1,2.28E1,2.371E1,2.349E1,4.0459427E-1,2.269E1,1.946E1,1.798E1,1.3708333E1,7.925E1,2.94625E1,3.0848125E-1,2.169E1,-2.5671306E-1,1.1680567E-3,6.160555E-2,-2.0570183E-2,2.7626038E-3,3.1588268E-2,3.2253267E-4,8.78046E-2,-1.8663415E-3,3.058119E-2,1.866811E-1,-1.5656376E-2,-1.0303497E-2,1.9581223E-2],"split_indices":[14,14,1,1,1,13,10,14,12,1,7,5,3,0,0,0,0,0,0,0,0,0,0,0,0,0,0,0,0],"split_type":[0,0,0,0,0,0,0,0,0,0,0,0,0,0,0,0,0,0,0,0,0,0,0,0,0,0,0,0,0],"sum_hessian":[4.03E3,3.854E3,1.76E2,3.445E3,4.09E2,4.2E1,1.34E2,3.434E3,1.1E1,3.62E2,4.7E1,1.8E1,2.4E1,1.31E2,3E0,3.345E3,8.9E1,6E0,5E0,1.94E2,1.68E2,8E0,3.9E1,1.6E1,2E0,2.3E1,1E0,1E0,2E0],"tree_param":{"num_deleted":"0","num_feature":"36","num_nodes":"29","size_leaf_vector":"1"}},{"base_weights":[-2.8777001E-2,-6.380782E-2,8.1366456E-1,-8.158466E-2,3.143678E-1,4.6999997E-1,4.42803E-2,-9.5813565E-2,6.3444085E-2,8.725488E-2,6.2739724E-1,-4.545456E-3,7.55E-1,-4.8202625E-3,3E-2,-2.820514E-3,6.418604E-3,1.36842E-3,3.9375E-2,-4.285715E-3,3.4626868E-2,-2.5000006E-3,4E-2],"categories":[],"categories_nodes":[],"categories_segments":[],"categories_sizes":[],"default_left":[0,0,0,0,0,0,0,0,0,0,0,0,0,0,0,0,0,0,0,0,0,0,0],"id":13,"left_children":[1,3,5,7,9,11,-1,13,15,17,19,-1,21,-1,-1,-1,-1,-1,-1,-1,-1,-1,-1],"loss_changes":[1.1901245E2,2.604948E1,3.564293E0,7.637268E0,1.2315443E1,4.864409E0,0E0,1.4444656E0,2.5830512E0,4.2558393E0,3.450369E0,0E0,7.645006E-1,0E0,0E0,0E0,0E0,0E0,0E0,0E0,0E0,0E0,0E0],"parents":[2147483647,0,0,1,1,2,2,3,3,4,4,5,5,7,7,8,8,9,9,10,10,12,12],"right_children":[2,4,6,8,10,12,-1,14,16,18,20,-1,22,-1,-1,-1,-1,-1,-1,-1,-1,-1,-1],"split_conditions":[3.129E1,2.096E1,2.276E1,1.801E1,2.9716667E1,2.204E1,2.9305717E-1,1.7512917E2,1.499E1,2.217E1,1.609E1,-2.3633006E-3,2.052E1,-2.2661622E-1,1.6420936E-2,-9.876994E-3,8.830882E-3,1.6585814E-3,4.683056E-2,-1.9116784E-2,8.0644734E-2,-1.0721493E-2,1.16228335E-1],"split_indices":[14,1,0,0,7,12,0,26,1,0,0,0,0,0,0,0,0,0,0,0,0,0,0],"split_type":[0,0,0,0,0,0,0,0,0,0,0,0,0,0,0,0,0,0,0,0,0,0,0],"sum_hessian":[4.03E3,3.87E3,1.6E2,3.697E3,1.73E2,2.9E1,1.31E2,3.367E3,3.3E2,1.01E2,7.2E1,1E1,1.9E1,3.365E3,2E0,1.16E2,2.14E2,9.4E1,7E0,6E0,6.6E1,1E0,1.8E1],"tree_param":{"num_deleted":"0","num_feature":"36","num_nodes":"23","size_leaf_vector":"1"}},{"base_weights":[-2.8777001E-2,-6.251617E-2,7.826087E-1,-9.3233764E-2,1.6659386E-1,3.333333E-1,8.439716E-1,-9.813515E-2,1.8749977E-2,1.154034E-1,5.8199996E-1,-1.5384638E-2,4E-2,-3.3333343E-3,8.5755396E-1,-4.92202E-3,2.2499999E-2,-4.485983E-3,1.6184209E-2,4.8611104E-3,3.1071428E-2,9.523808E-3,4.1833334E-2,-4.5833346E-3,2.2499999E-2,-2.5000006E-3,4.3224636E-2],"categories":[],"categories_nodes":[],"categories_segments":[],"categories_sizes":[],"default_left":[0,0,0,0,0,0,0,0,0,0,0,0,0,0,0,0,0,0,0,0,0,0,0,0,0,0,0],"id":14,"left_children":[1,3,5,7,9,11,13,15,17,19,21,23,-1,-1,25,-1,-1,-1,-1,-1,-1,-1,-1,-1,-1,-1,-1],"loss_changes":[1.10399475E2,2.725851E1,4.1572647E0,1.8756981E0,9.67213E0,3.4297438E0,1.8011475E0,5.9158134E-1,4.7919993E0,3.7024422E0,4.8260365E0,5.027565E-1,0E0,0E0,9.185486E-1,0E0,0E0,0E0,0E0,0E0,0E0,0E0,0E0,0E0,0E0,0E0,0E0],"parents":[2147483647,0,0,1,1,2,2,3,3,4,4,5,5,6,6,7,7,8,8,9,9,10,10,11,11,14,14],"right_children":[2,4,6,8,10,12,14,16,18,20,22,24,-1,-1,26,-1,-1,-1,-1,-1,-1,-1,-1,-1,-1,-1,-1],"split_conditions":[3.129E1,2.358E1,2.096E1,1.72E1,2.371E1,2.505E1,2.052E1,9.7E1,2.8470833E1,2.349E1,5.48125E1,7.7E1,1.07704066E-1,-7.585907E-3,7.2083336E-1,-2.6698524E-1,6.055317E-2,-2.2920469E-2,4.0619347E-2,9.583645E-3,4.635004E-2,1.4127119E-2,9.203071E-2,-2.231045E-3,1.4399338E-2,-1.615429E-2,2.7810428E-1],"split_indices":[14,14,12,0,1,16,0,2,7,0,8,5,0,0,25,0,0,0,0,0,0,0,0,0,0,0,0],"split_type":[0,0,0,0,0,0,0,0,0,0,0,0,0,0,0,0,0,0,0,0,0,0,0,0,0,0,0],"sum_hessian":[4.03E3,3.87E3,1.6E2,3.413E3,4.57E2,2E1,1.4E2,3.27E3,1.43E2,4.08E2,4.9E1,1.2E1,8E0,2E0,1.38E2,3.269E3,1E0,1.06E2,3.7E1,3.95E2,1.3E1,2E1,2.9E1,1.1E1,1E0,1E0,1.37E2],"tree_param":{"num_deleted":"0","num_feature":"36","num_nodes":"27","size_leaf_vector":"1"}},{"base_weights":[-3.1257775E-2,-6.164139E-2,7.834483E-1,-9.5751755E-2,1.3743407E-1,4.34375E-1,8.7456137E-1,-9.874042E-2,5.538459E-2,5.334926E-2,3.6776313E-1,4.1785713E-2,1.1578945E-1,-2.5000006E-3,8.831858E-1,-4.952309E-3,4.166666E-3,2.9166667E-2,8.333216E-5,-4.2808233E-3,6.3736252E-3,1.2663933E-2,4.0322583E-2,1.1764695E-3,3E-2,1.3333333E-2,4.4594597E-2],"categories":[],"categories_nodes":[],"categories_segments":[],"categories_sizes":[],"default_left":[0,0,0,0,0,0,0,0,0,0,0,0,0,0,0,0,0,0,0,0,0,0,0,0,0,0,0],"id":15,"left_children":[1,3,5,7,9,11,13,15,17,19,21,-1,23,-1,25,-1,-1,-1,-1,-1,-1,-1,-1,-1,-1,-1,-1],"loss_changes":[9.983051E1,2.6407974E1,4.231865E0,1.5046482E0,1.1000304E1,3.994782E0,9.5316315E-1,1.8945694E-1,1.8424487E0,4.3165607E0,7.42964E0,0E0,8.3467484E-1,0E0,3.6868286E-1,0E0,0E0,0E0,0E0,0E0,0E0,0E0,0E0,0E0,0E0,0E0,0E0],"parents":[2147483647,0,0,1,1,2,2,3,3,4,4,5,5,6,6,7,7,8,8,9,9,10,10,12,12,14,14],"right_children":[2,4,6,8,10,12,14,16,18,20,22,-1,24,-1,26,-1,-1,-1,-1,-1,-1,-1,-1,-1,-1,-1,-1],"split_conditions":[3.161E1,1.597E1,3.229E1,1.942E1,4.0375E1,3.215E1,1.766E1,4.0688196E-1,2.297E1,1.617E1,2.403E1,7.9599105E-2,2.349E1,-2.9725076E-3,1.839E1,-2.2213624E-1,1.743126E-3,1.219368E-2,2.0665528E-4,-3.3730894E-2,9.735412E-3,3.953596E-2,8.6250685E-2,6.597133E-3,1.9650936E-2,5.3318884E-2,2.7239913E-1],"split_indices":[14,1,14,0,7,20,0,10,17,13,1,0,0,0,12,0,0,0,0,0,0,0,0,0,0,0,0],"split_type":[0,0,0,0,0,0,0,0,0,0,0,0,0,0,0,0,0,0,0,0,0,0,0,0,0,0,0],"sum_hessian":[4.03E3,3.886E3,1.44E2,3.318E3,5.68E2,3.1E1,1.13E2,3.254E3,6.4E1,4.17E2,1.51E2,1.3E1,1.8E1,1E0,1.12E2,3.249E3,5E0,5E0,5.9E1,1.45E2,2.72E2,1.21E2,3E1,1.6E1,2E0,2E0,1.1E2],"tree_param":{"num_deleted":"0","num_feature":"36","num_nodes":"27","size_leaf_vector":"1"}},{"base_weights":[-3.274624E-2,-5.811641E-2,8.3947366E-1,-7.159596E-2,6.064102E-1,-2.5000006E-3,8.4778756E-1,-9.8100305E-2,6.339142E-2,1.3181816E-1,7.7894735E-1,-2.5000006E-3,8.5625E-1,-4.9205623E-3,2.2499999E-2,-4.7619166E-4,9.399141E-3,3.3749998E-2,5.2631466E-4,4.0545456E-2,-3.3333343E-3,4.324324E-2,-2.5000006E-3],"categories":[],"categories_nodes":[],"categories_segments":[],"categories_sizes":[],"default_left":[0,0,0,0,0,0,0,0,0,0,0,0,0,0,0,0,0,0,0,0,0,0,0],"id":16,"left_children":[1,3,5,7,9,-1,11,13,15,17,19,-1,21,-1,-1,-1,-1,-1,-1,-1,-1,-1,-1],"loss_changes":[8.924822E1,3.513899E1,8.8542175E-1,1.37483635E1,6.2843304E0,0E0,9.013214E-1,5.915146E-1,5.7341814E0,1.4423325E0,1.5946121E0,0E0,9.176407E-1,0E0,0E0,0E0,0E0,0E0,0E0,0E0,0E0,0E0,0E0],"parents":[2147483647,0,0,1,1,2,2,3,3,4,4,6,6,7,7,8,8,9,9,10,10,12,12],"right_children":[2,4,6,8,10,-1,12,14,16,18,20,-1,22,-1,-1,-1,-1,-1,-1,-1,-1,-1,-1],"split_conditions":[2.349E1,2.371E1,1.499E1,2.073E1,5.48125E1,-5.1903725E-3,4.9875E0,9.7E1,2.9716667E1,1.0561667E2,2.376E1,-1.6937256E-4,3.1183332E1,-2.8052947E-1,5.5548765E-2,-5.898574E-4,1.5475266E-2,1.3447094E-2,4.8575955E-3,8.2149886E-2,-1.4248848E-3,2.5877914E-1,-1.811943E-2],"split_indices":[0,1,1,14,8,0,3,2,7,27,24,0,3,0,0,0,0,0,0,0,0,0,0],"split_type":[0,0,0,0,0,0,0,0,0,0,0,0,0,0,0,0,0,0,0,0,0,0,0],"sum_hessian":[4.03E3,3.917E3,1.13E2,3.84E3,7.7E1,1E0,1.12E2,3.21E3,6.3E2,2.1E1,5.6E1,1E0,1.11E2,3.209E3,1E0,3.98E2,2.32E2,3E0,1.8E1,5.4E1,2E0,1.1E2,1E0],"tree_param":{"num_deleted":"0","num_feature":"36","num_nodes":"23","size_leaf_vector":"1"}},{"base_weights":[-3.6715478E-2,-6.0923964E-2,7.95614E-1,-9.1987014E-2,1.3482307E-1,5.0399995E-1,8.6777776E-1,-9.932845E-2,-1.9531487E-3,9.3812354E-2,6.864865E-1,-4.500001E-3,4.21875E-2,-2.5000006E-3,4.3932583E-2,-4.98239E-3,5.999999E-3,-2.813854E-3,2.4038462E-2,2.7647058E-2,3.8762875E-3,6.6666654E-3,4.1724138E-2],"categories":[],"categories_nodes":[],"categories_segments":[],"categories_sizes":[],"default_left":[0,0,0,0,0,0,0,0,0,0,0,0,0,0,0,0,0,0,0,0,0,0,0],"id":17,"left_children":[1,3,5,7,9,11,13,15,17,19,21,-1,-1,-1,-1,-1,-1,-1,-1,-1,-1,-1,-1],"loss_changes":[8.127085E1,2.38358E1,1.9616547E0,2.2352352E0,1.2084747E1,5.1212254E0,9.4210815E-1,2.309761E-1,6.7402406E0,3.7034345E0,2.9177246E0,0E0,0E0,0E0,0E0,0E0,0E0,0E0,0E0,0E0,0E0,0E0,0E0],"parents":[2147483647,0,0,1,1,2,2,3,3,4,4,5,5,6,6,7,7,8,8,9,9,10,10],"right_children":[2,4,6,8,10,12,14,16,18,20,22,-1,-1,-1,-1,-1,-1,-1,-1,-1,-1,-1,-1],"split_conditions":[3.229E1,2.324E1,2.204E1,1.648E1,2.494E1,2.399E1,8E-1,2.28E1,1.716E1,2.242E1,2.0775E1,-2.7944564E-3,1.6269416E-1,-2.991295E-3,2.4819033E-1,-2.84003E-1,1.1566639E-2,-2.362178E-2,6.069627E-2,4.7072496E-2,8.226629E-3,1.0027123E-2,8.1127726E-2],"split_indices":[14,14,12,0,1,0,7,1,1,17,7,0,0,0,0,0,0,0,0,0,0,0,0],"split_type":[0,0,0,0,0,0,0,0,0,0,0,0,0,0,0,0,0,0,0,0,0,0,0],"sum_hessian":[4.03E3,3.917E3,1.13E2,3.381E3,5.36E2,2.4E1,8.9E1,3.126E3,2.55E2,5E2,3.6E1,9E0,1.5E1,1E0,8.8E1,3.122E3,4E0,2.3E2,2.5E1,1.6E1,4.84E2,8E0,2.8E1],"tree_param":{"num_deleted":"0","num_feature":"36","num_nodes":"23","size_leaf_vector":"1"}},{"base_weights":[-3.944433E-2,-6.245536E-2,7.5175434E-1,-9.173289E-2,1.2903844E-1,5.069767E-1,4.4375E-2,-9.900929E-2,-7.3800976E-3,7.461366E-2,4.8970586E-1,-3.8888913E-2,4.326923E-2,-4.9664224E-3,1.3333333E-2,-4.5669302E-3,3.3103437E-3,-3.6241622E-3,7.3114745E-3,8.965516E-3,3.5125E-2,-4.7058836E-3,2.2499999E-2],"categories":[],"categories_nodes":[],"categories_segments":[],"categories_sizes":[],"default_left":[0,0,0,0,0,0,0,0,0,0,0,0,0,0,0,0,0,0,0,0,0,0,0],"id":18,"left_children":[1,3,5,7,9,11,-1,13,15,17,19,21,-1,-1,-1,-1,-1,-1,-1,-1,-1,-1,-1],"loss_changes":[7.343652E1,2.1977966E1,3.3379898E0,2.0855255E0,1.017067E1,8.446282E0,0E0,3.9167213E-1,1.6803536E0,4.782712E0,4.3654556E0,5.2836597E-1,0E0,0E0,0E0,0E0,0E0,0E0,0E0,0E0,0E0,0E0,0E0],"parents":[2147483647,0,0,1,1,2,2,3,3,4,4,5,5,7,7,8,8,9,9,10,10,11,11],"right_children":[2,4,6,8,10,12,-1,14,16,18,20,22,-1,-1,-1,-1,-1,-1,-1,-1,-1,-1,-1],"split_conditions":[3.229E1,1.685E1,2.399E1,2.102E1,2.371E1,2.403E1,2.509307E-1,2.403E1,1.0438333E2,1.64E1,3.4891666E1,7.6875E1,1.0553067E-1,-2.8565288E-1,6.277714E-2,-1.0257343E-2,6.822917E-3,-1.8081972E-2,1.6390178E-2,1.2653979E-2,7.0623964E-2,-1.6297055E-3,8.384857E-2],"split_indices":[14,1,0,14,1,12,0,23,27,0,7,5,0,0,0,0,0,0,0,0,0,0,0],"split_type":[0,0,0,0,0,0,0,0,0,0,0,0,0,0,0,0,0,0,0,0,0,0,0],"sum_hessian":[4.03E3,3.917E3,1.13E2,3.398E3,5.19E2,4.2E1,7.1E1,3.128E3,2.7E2,4.52E2,6.7E1,1.7E1,2.5E1,3.126E3,2E0,1.26E2,1.44E2,1.48E2,3.04E2,2.8E1,3.9E1,1.6E1,1E0],"tree_param":{"num_deleted":"0","num_feature":"36","num_nodes":"23","size_leaf_vector":"1"}},{"base_weights":[-4.118087E-2,-6.859442E-2,5.5965906E-1,-7.5385846E-2,6.970588E-1,1.4693876E-1,7.132812E-1,-9.807997E-2,3.61669E-2,3.25E-1,4.3043476E-2,-2.758623E-2,3.8095236E-1,1.3333331E-1,7.5083333E-1,-4.9353736E-3,1.2499999E-2,2.5333334E-2,1.2480242E-3,3.142857E-2,-4.166668E-3,3E-2,-4.814816E-3,2.3055555E-2,-3.7500008E-3,-4.285715E-3,3E-2,2.9711539E-2,4.289855E-2],"categories":[],"categories_nodes":[],"categories_segments":[],"categories_sizes":[],"default_left":[0,0,0,0,0,0,0,0,0,0,0,0,0,0,0,0,0,0,0,0,0,0,0,0,0,0,0,0,0],"id":19,"left_children":[1,3,5,7,9,11,13,15,17,19,-1,21,23,25,27,-1,-1,-1,-1,-1,-1,-1,-1,-1,-1,-1,-1,-1,-1],"loss_changes":[6.643362E1,2.0103268E1,1.1054119E1,9.681824E0,1.7924232E0,2.0117288E0,2.6875076E0,7.1858597E-1,3.3987365E0,1.5398811E0,0E0,1.3083014E0,8.021033E-1,9.714285E-1,1.5035324E0,0E0,0E0,0E0,0E0,0E0,0E0,0E0,0E0,0E0,0E0,0E0,0E0,0E0,0E0],"parents":[2147483647,0,0,1,1,2,2,3,3,4,4,5,5,6,6,7,7,8,8,9,9,11,11,12,12,13,13,14,14],"right_children":[2,4,6,8,10,12,14,16,18,20,-1,22,24,26,28,-1,-1,-1,-1,-1,-1,-1,-1,-1,-1,-1,-1,-1,-1],"split_conditions":[2.28E1,2.399E1,1.893E1,2.02E1,2.428E1,2.4025E1,5.8E0,1.811E1,1.883E1,2.165E1,2.061842E-1,5.1458332E1,1.459E2,2.371E1,3.229E1,-2.6212025E-1,1.3759422E-2,4.7523342E-2,3.2923154E-3,4.902134E-2,-2.915764E-3,8.893109E-3,-2.76125E-3,1.9685607E-2,-1.1558533E-3,-2.760315E-3,1.01084135E-1,6.2452026E-2,2.4083415E-1],"split_indices":[1,0,0,14,0,7,7,0,17,12,0,5,9,1,14,0,0,0,0,0,0,0,0,0,0,0,0,0,0],"split_type":[0,0,0,0,0,0,0,0,0,0,0,0,0,0,0,0,0,0,0,0,0,0,0,0,0,0,0,0,0],"sum_hessian":[4.03E3,3.855E3,1.75E2,3.822E3,3.3E1,4.8E1,1.27E2,3.176E3,6.46E2,1.1E1,2.2E1,2.8E1,2E1,8E0,1.19E2,3.171E3,5E0,1.4E1,6.32E2,6E0,5E0,2E0,2.6E1,1.7E1,3E0,6E0,2E0,5.1E1,6.8E1],"tree_param":{"num_deleted":"0","num_feature":"36","num_nodes":"29","size_leaf_vector":"1"}},{"base_weights":[-4.341357E-2,-6.794941E-2,5.5062497E-1,-9.775603E-2,6.5162174E-2,3.7264147E-1,4.418182E-2,-4.9983636E-3,-3.6607165E-2,4.4862494E-2,7.9999995E-1,9.782606E-2,5.7377046E-1,2.0833334E-2,-3.0841134E-3,-4.7544655E-3,5.5876058E-3,-2.5000006E-3,4.25E-2,3.3125E-2,-1.0256422E-3,1.9428572E-2,3.962963E-2],"categories":[],"categories_nodes":[],"categories_segments":[],"categories_sizes":[],"default_left":[0,0,0,0,0,0,0,0,0,0,0,0,0,0,0,0,0,0,0,0,0,0,0],"id":20,"left_children":[1,3,5,7,9,11,-1,-1,13,15,17,19,21,-1,-1,-1,-1,-1,-1,-1,-1,-1,-1],"loss_changes":[5.879018E1,1.5368946E1,9.154003E0,4.241581E-1,1.0540245E1,5.802845E0,0E0,0E0,1.2986802E0,6.4793005E0,8.499994E-1,3.0874429E0,2.1640854E0,0E0,0E0,0E0,0E0,0E0,0E0,0E0,0E0,0E0,0E0],"parents":[2147483647,0,0,1,1,2,2,3,3,4,4,5,5,8,8,9,9,10,10,11,11,12,12],"right_children":[2,4,6,8,10,12,-1,-1,14,16,18,20,22,-1,-1,-1,-1,-1,-1,-1,-1,-1,-1],"split_conditions":[2.3E1,1.477E1,3.315E1,2.222E1,3.365E1,3.525E1,2.4479245E-1,-2.6451442E-1,2.17E1,1.611E1,9.7E0,9.59E1,2.533E1,8.63409E-3,-7.6749623E-3,-5.3649884E-2,9.82557E-3,-3.8600923E-3,2.1302998E-1,2.6861954E-2,-2.1519685E-4,3.3189055E-2,9.8283164E-2],"split_indices":[1,1,14,14,14,7,0,0,20,0,8,27,1,0,0,0,0,0,0,0,0,0,0],"split_type":[0,0,0,0,0,0,0,0,0,0,0,0,0,0,0,0,0,0,0,0,0,0,0],"sum_hessian":[4.03E3,3.871E3,1.59E2,3.163E3,7.08E2,1.05E2,5.4E1,3.052E3,1.11E2,6.9E2,1.8E1,4.5E1,6E1,5E0,1.06E2,2.23E2,4.67E2,1E0,1.7E1,7E0,3.8E1,3.4E1,2.6E1],"tree_param":{"num_deleted":"0","num_feature":"36","num_nodes":"23","size_leaf_vector":"1"}},{"base_weights":[-4.5646265E-2,-6.2506355E-2,7.6707315E-1,-9.277797E-2,1.0211724E-1,3.7647057E-1,8.5606056E-1,-9.931375E-2,-2.0503622E-2,5.3745296E-2,4.1975307E-1,9.090907E-2,3.857143E-2,-2.5000006E-3,8.707692E-1,-4.9819862E-3,1.874999E-3,-3.8797825E-3,4.4270824E-3,-1.2006591E-3,7.792207E-3,2.8425926E-2,5.892856E-3,-4.444446E-3,3E-2,1.3333333E-2,4.428571E-2],"categories":[],"categories_nodes":[],"categories_segments":[],"categories_sizes":[],"default_left":[0,0,0,0,0,0,0,0,0,0,0,0,0,0,0,0,0,0,0,0,0,0,0,0,0,0,0],"id":21,"left_children":[1,3,5,7,9,11,13,15,17,19,21,23,-1,-1,25,-1,-1,-1,-1,-1,-1,-1,-1,-1,-1,-1,-1],"loss_changes":[5.5282803E1,1.9693993E1,2.527935E0,1.5742607E0,9.411343E0,1.8472114E0,9.231148E-1,1.4020348E-1,1.7375916E0,4.2431946E0,3.5708418E0,1.0602021E0,0E0,0E0,3.506546E-1,0E0,0E0,0E0,0E0,0E0,0E0,0E0,0E0,0E0,0E0,0E0,0E0],"parents":[2147483647,0,0,1,1,2,2,3,3,4,4,5,5,6,6,7,7,8,8,9,9,10,10,11,11,14,14],"right_children":[2,4,6,8,10,12,14,16,18,20,22,24,-1,-1,26,-1,-1,-1,-1,-1,-1,-1,-1,-1,-1,-1,-1],"split_conditions":[3.315E1,1.613E1,3.365E1,1.677E1,2.371E1,2.325E1,9.7E0,6.24E1,1.402E1,1.12020836E2,2.403E1,2.505E1,3.6904335E-2,-3.6670684E-3,2.246E1,-2.6283854E-1,4.5575526E-2,-1.8714644E-2,6.756875E-3,-3.6295552E-3,1.7074486E-2,5.8026608E-2,1.7802734E-2,-2.948761E-3,3.855858E-2,6.884003E-2,2.2405283E-1],"split_indices":[14,1,14,13,1,1,8,2,1,9,18,0,0,0,0,0,0,0,0,0,0,0,0,0,0,0,0],"split_type":[0,0,0,0,0,0,0,0,0,0,0,0,0,0,0,0,0,0,0,0,0,0,0,0,0,0,0],"sum_hessian":[4.03E3,3.949E3,8.1E1,3.336E3,6.13E2,1.6E1,6.5E1,3.059E3,2.77E2,5.33E2,8E1,1E1,6E0,1E0,6.4E1,3.052E3,7E0,1.82E2,9.5E1,3.03E2,2.3E2,5.3E1,2.7E1,8E0,2E0,2E0,6.2E1],"tree_param":{"num_deleted":"0","num_feature":"36","num_nodes":"27","size_leaf_vector":"1"}},{"base_weights":[-4.7630884E-2,-6.377218E-2,7.3048776E-1,-9.775603E-2,7.293517E-2,4.516129E-1,4.4134613E-2,-4.9983636E-3,-3.6607165E-2,-9.106386E-2,1.4249545E-1,7.142857E-1,-4.545456E-3,2.0833334E-2,-3.0841134E-3,-4.9779746E-3,6.6666654E-3,5.46351E-3,2.4893617E-2,4.2E-2,1.7142856E-2],"categories":[],"categories_nodes":[],"categories_segments":[],"categories_sizes":[],"default_left":[0,0,0,0,0,0,0,0,0,0,0,0,0,0,0,0,0,0,0,0,0],"id":22,"left_children":[1,3,5,7,9,11,-1,-1,13,15,17,19,-1,-1,-1,-1,-1,-1,-1,-1,-1],"loss_changes":[5.06753E1,1.8358208E1,3.081932E0,4.241581E-1,8.99093E0,4.4826136E0,0E0,0E0,1.2986802E0,4.6127796E-1,6.4751387E0,6.9257164E-1,0E0,0E0,0E0,0E0,0E0,0E0,0E0,0E0,0E0],"parents":[2147483647,0,0,1,1,2,2,3,3,4,4,5,5,8,8,9,9,10,10,11,11],"right_children":[2,4,6,8,10,12,-1,-1,14,16,18,20,-1,-1,-1,-1,-1,-1,-1,-1,-1],"split_conditions":[3.315E1,1.477E1,3.423E1,2.222E1,1.611E1,2.3488571E1,2.2420016E-1,-2.3949109E-1,2.17E1,3.8859844E-1,2.494E1,3.8297018E-1,-2.3820116E-3,9.138107E-3,-6.902277E-3,-4.305287E-2,1.6477872E-2,9.9886935E-3,5.9731703E-2,6.0985267E-2,6.910019E-2],"split_indices":[14,1,14,14,0,33,0,0,20,10,1,10,0,0,0,0,0,0,0,0,0],"split_type":[0,0,0,0,0,0,0,0,0,0,0,0,0,0,0,0,0,0,0,0,0],"sum_hessian":[4.03E3,3.949E3,8.1E1,3.163E3,7.86E2,3E1,5.1E1,3.052E3,1.11E2,2.34E2,5.52E2,2E1,1E1,5E0,1.06E2,2.26E2,8E0,5.06E2,4.6E1,1.4E1,6E0],"tree_param":{"num_deleted":"0","num_feature":"36","num_nodes":"21","size_leaf_vector":"1"}},{"base_weights":[-4.6390496E-2,-6.0388323E-2,7.954545E-1,-9.71093E-2,8.083025E-2,-3.3333343E-3,8.2343745E-1,-9.868465E-2,5.9374977E-2,5.1566556E-2,4.9444443E-1,5.4999995E-1,4.4117644E-2,-4.966065E-3,-6.2500115E-4,-3.0357155E-3,3.6E-2,-4.7269027E-4,7.5601363E-3,1.736111E-2,3.736842E-2,4.05E-2,-4.000001E-3],"categories":[],"categories_nodes":[],"categories_segments":[],"categories_sizes":[],"default_left":[0,0,0,0,0,0,0,0,0,0,0,0,0,0,0,0,0,0,0,0,0,0,0],"id":23,"left_children":[1,3,5,7,9,-1,11,13,15,17,19,21,-1,-1,-1,-1,-1,-1,-1,-1,-1,-1,-1],"loss_changes":[4.7549343E1,2.0574276E1,1.6471252E0,7.818985E-1,9.887582E0,0E0,5.457268E-1,1.6978264E-1,2.5824015E0,4.6585836E0,1.7512417E0,2.3579998E0,0E0,0E0,0E0,0E0,0E0,0E0,0E0,0E0,0E0,0E0,0E0],"parents":[2147483647,0,0,1,1,2,2,3,3,4,4,6,6,7,7,8,8,9,9,10,10,11,11],"right_children":[2,4,6,8,10,-1,12,14,16,18,20,22,-1,-1,-1,-1,-1,-1,-1,-1,-1,-1,-1],"split_conditions":[3.365E1,1.985E1,1.2604167E1,3.24E1,2.494E1,-7.892609E-4,3.423E1,1.946E1,1.64E1,2.9716667E1,1.511E2,2.3488571E1,2.139401E-1,-2.3387031E-1,-1.0095129E-3,-1.9027217E-1,1.1325979E-1,-1.172638E-3,1.184204E-2,2.3341935E-2,1.1707842E-1,7.455101E-2,-2.1852495E-3],"split_indices":[14,14,8,2,1,0,14,1,0,7,9,33,0,0,0,0,0,0,0,0,0,0,0],"split_type":[0,0,0,0,0,0,0,0,0,0,0,0,0,0,0,0,0,0,0,0,0,0,0],"sum_hessian":[4.03E3,3.965E3,6.5E1,3.147E3,8.18E2,2E0,6.3E1,3.116E3,3.1E1,7.65E2,5.3E1,1.3E1,5E1,3.093E3,2.3E1,2.7E1,4E0,4.75E2,2.9E2,3.5E1,1.8E1,9E0,4E0],"tree_param":{"num_deleted":"0","num_feature":"36","num_nodes":"23","size_leaf_vector":"1"}},{"base_weights":[-4.911935E-2,-6.215333E-2,7.3484844E-1,-9.6490696E-2,7.300992E-2,4.4E-2,4.0454543E-1,-9.899744E-2,1.2499977E-2,-7.3819764E-2,1.3269228E-1,6.583333E-1,9.090907E-2,-4.96601E-3,8.749999E-3,2.4285713E-2,-1.8939406E-3,-4.1048047E-3,1.6E-2,1.1626712E-2,1.4234864E-3,-3.3333343E-3,4.05E-2,3E-2,-4.444446E-3],"categories":[],"categories_nodes":[],"categories_segments":[],"categories_sizes":[],"default_left":[0,0,0,0,0,0,0,0,0,0,0,0,0,0,0,0,0,0,0,0,0,0,0,0,0],"id":24,"left_children":[1,3,5,7,9,-1,11,13,15,17,19,21,23,-1,-1,-1,-1,-1,-1,-1,-1,-1,-1,-1,-1],"loss_changes":[4.1235313E1,1.8413849E1,2.8083038E0,8.654041E-1,7.0553613E0,0E0,1.6912878E0,2.9081917E-1,1.7348757E0,7.8570676E-1,5.945488E0,1.3734999E0,1.0602021E0,0E0,0E0,0E0,0E0,0E0,0E0,0E0,0E0,0E0,0E0,0E0,0E0],"parents":[2147483647,0,0,1,1,2,2,3,3,4,4,6,6,7,7,8,8,9,9,10,10,11,11,12,12],"right_children":[2,4,6,8,10,-1,12,14,16,18,20,22,24,-1,-1,-1,-1,-1,-1,-1,-1,-1,-1,-1,-1],"split_conditions":[3.365E1,1.64E1,2.5145834E1,2.269E1,1.38E1,1.854432E-1,2.52E1,2.28E1,1.71E1,7.867917E1,1.963E1,2.118E1,2E-1,-2.0920832E-1,9.506798E-3,3.905945E-2,-9.3435356E-4,-3.027136E-2,5.610657E-3,2.531451E-2,6.1548552E-3,-7.4977876E-4,2.1369325E-1,5.4603577E-2,-1.7662048E-4],"split_indices":[14,0,3,14,1,0,7,1,30,7,19,1,2,0,0,0,0,0,0,0,0,0,0,0,0],"split_type":[0,0,0,0,0,0,0,0,0,0,0,0,0,0,0,0,0,0,0,0,0,0,0,0,0],"sum_hessian":[4.03E3,3.965E3,6.5E1,3.162E3,8.03E2,4.4E1,2.1E1,3.091E3,7.1E1,2.32E2,5.71E2,1.1E1,1E1,3.088E3,3E0,6E0,6.5E1,2.28E2,4E0,2.91E2,2.8E2,2E0,9E0,2E0,8E0],"tree_param":{"num_deleted":"0","num_feature":"36","num_nodes":"25","size_leaf_vector":"1"}},{"base_weights":[-5.085589E-2,-6.1783943E-2,7.865384E-1,-9.583865E-2,6.698677E-2,-3.7500008E-3,8.408163E-1,-9.833608E-2,-3.571452E-3,4.3540027E-2,3.683333E-1,-2.5000006E-3,8.6041665E-1,-4.93303E-3,5.999999E-3,-4.214287E-3,1.8666666E-2,1.1488427E-3,1.07228905E-2,1.999999E-3,2.3369564E-2,-2.5000006E-3,4.4042554E-2],"categories":[],"categories_nodes":[],"categories_segments":[],"categories_sizes":[],"default_left":[0,0,0,0,0,0,0,0,0,0,0,0,0,0,0,0,0,0,0,0,0,0,0],"id":25,"left_children":[1,3,5,7,9,-1,11,13,15,17,19,-1,21,-1,-1,-1,-1,-1,-1,-1,-1,-1,-1],"loss_changes":[3.6936638E1,1.7459713E1,2.494709E0,7.2504425E-1,5.869603E0,0E0,8.985748E-1,2.2900581E-1,2.5868812E0,2.715382E0,1.9327469E0,0E0,9.37027E-1,0E0,0E0,0E0,0E0,0E0,0E0,0E0,0E0,0E0,0E0],"parents":[2147483647,0,0,1,1,2,2,3,3,4,4,6,6,7,7,8,8,9,9,10,10,12,12],"right_children":[2,4,6,8,10,-1,12,14,16,18,20,-1,22,-1,-1,-1,-1,-1,-1,-1,-1,-1,-1],"split_conditions":[3.423E1,1.985E1,1.9E1,1.653E1,2.494E1,-4.1822433E-3,1.2604167E1,2.447E1,1.488E1,5.6629166E1,1.893E1,-7.1220397E-4,2.349E1,-2.2656833E-1,9.0873815E-2,-5.4090124E-2,7.9790436E-2,2.730387E-3,3.3098888E-2,2.4444102E-3,5.758945E-2,-1.6965866E-3,1.9635856E-1],"split_indices":[14,14,1,0,1,0,8,23,1,7,0,0,13,0,0,0,0,0,0,0,0,0,0],"split_type":[0,0,0,0,0,0,0,0,0,0,0,0,0,0,0,0,0,0,0,0,0,0,0],"sum_hessian":[4.03E3,3.979E3,5.1E1,3.147E3,8.32E2,3E0,4.8E1,3.064E3,8.3E1,7.73E2,5.9E1,1E0,4.7E1,3.06E3,4E0,6.9E1,1.4E1,6.91E2,8.2E1,1.4E1,4.5E1,1E0,4.6E1],"tree_param":{"num_deleted":"0","num_feature":"36","num_nodes":"23","size_leaf_vector":"1"}},{"base_weights":[-5.0359737E-2,-6.402534E-2,6.0853654E-1,-9.799212E-2,4.906898E-2,4.122449E-1,4.367647E-2,-9.832074E-2,2.2499999E-2,-7.617452E-2,1.095779E-1,2.710526E-1,4.125E-2,-4.948728E-3,1.999999E-3,-4.5800013E-3,2.0408047E-4,9.157142E-3,6.367029E-4,3.857143E-2,7.6562488E-3],"categories":[],"categories_nodes":[],"categories_segments":[],"categories_sizes":[],"default_left":[0,0,0,0,0,0,0,0,0,0,0,0,0,0,0,0,0,0,0,0,0],"id":26,"left_children":[1,3,5,7,9,11,-1,13,-1,15,17,19,-1,-1,-1,-1,-1,-1,-1,-1,-1],"loss_changes":[3.6334957E1,1.5178539E1,3.9051952E0,5.913143E-1,6.9273806E0,2.6319952E0,0E0,2.7861404E-1,0E0,3.6929536E-1,4.3862433E0,2.1241846E0,0E0,0E0,0E0,0E0,0E0,0E0,0E0,0E0,0E0],"parents":[2147483647,0,0,1,1,2,2,3,3,4,4,5,5,7,7,9,9,10,10,11,11],"right_children":[2,4,6,8,10,12,-1,14,-1,16,18,20,-1,-1,-1,-1,-1,-1,-1,-1,-1],"split_conditions":[2.399E1,1.38E1,2.576E1,1.7512917E2,1.611E1,6.653333E1,1.9613819E-1,2.028E1,1.3707161E-3,3.7548178E-1,1.963E1,2.376E1,1.0590313E-1,-1.9608979E-1,8.091543E-3,-3.932352E-2,3.4502596E-3,2.0871062E-2,3.5184517E-3,5.206871E-2,6.152992E-3],"split_indices":[0,1,0,8,0,25,0,0,0,10,19,13,0,0,0,0,0,0,0,0,0],"split_type":[0,0,0,0,0,0,0,0,0,0,0,0,0,0,0,0,0,0,0,0,0],"sum_hessian":[4.03E3,3.949E3,8.1E1,3.037E3,9.12E2,4.8E1,3.3E1,3.036E3,1E0,2.97E2,6.15E2,3.7E1,1.1E1,3.022E3,1.4E1,2.49E2,4.8E1,3.49E2,2.66E2,6E0,3.1E1],"tree_param":{"num_deleted":"0","num_feature":"36","num_nodes":"21","size_leaf_vector":"1"}},{"base_weights":[-4.9615502E-2,-6.1406627E-2,6.707692E-1,-9.640197E-2,6.0928628E-2,2.944444E-1,7.9791665E-1,-9.897217E-2,1.5714262E-2,4.0930763E-2,4.2391303E-1,-2.1674417E-8,6.6249996E-1,-3.3333343E-3,8.369565E-1,-4.965106E-3,1.874999E-3,-2.5781263E-3,3.142857E-2,1.490566E-2,1.1768437E-3,3.275E-2,1.1851851E-2,2.2499999E-2,-4.500001E-3,3.857143E-2,-2.5000006E-3,1.6E-2,4.392857E-2],"categories":[],"categories_nodes":[],"categories_segments":[],"categories_sizes":[],"default_left":[0,0,0,0,0,0,0,0,0,0,0,0,0,0,0,0,0,0,0,0,0,0,0,0,0,0,0,0,0],"id":27,"left_children":[1,3,5,7,9,11,13,15,17,19,21,23,25,-1,27,-1,-1,-1,-1,-1,-1,-1,-1,-1,-1,-1,-1,-1,-1],"loss_changes":[3.428109E1,1.698925E1,2.875225E0,8.9053345E-1,6.392269E0,1.9506944E0,1.675951E0,1.3953018E-1,2.918585E0,3.741695E0,1.8312321E0,4.86E-1,6.594641E-1,0E0,7.0846176E-1,0E0,0E0,0E0,0E0,0E0,0E0,0E0,0E0,0E0,0E0,0E0,0E0,0E0,0E0],"parents":[2147483647,0,0,1,1,2,2,3,3,4,4,5,5,6,6,7,7,8,8,9,9,10,10,11,11,12,12,14,14],"right_children":[2,4,6,8,10,12,14,16,18,20,22,24,26,-1,28,-1,-1,-1,-1,-1,-1,-1,-1,-1,-1,-1,-1,-1,-1],"split_conditions":[2.428E1,1.915E1,2.165E1,1.669E1,2.533E1,9.3379166E1,1.2604167E1,6.24E1,3.810391E-1,1.95E1,1.8525E1,3.71E1,2.576E1,-9.841919E-4,2.138E1,-2.2318533E-1,3.0835534E-2,-6.0038656E-2,1.0129805E-1,1.6147802E-2,3.0897518E-3,9.696807E-2,1.1619737E-2,3.8539886E-3,-2.3437503E-3,1.01807974E-1,-7.703781E-3,1.3738251E-2,1.8148391E-1],"split_indices":[0,14,21,1,1,26,8,2,10,17,3,8,0,0,15,0,0,0,0,0,0,0,0,0,0,0,0,0,0],"split_type":[0,0,0,0,0,0,0,0,0,0,0,0,0,0,0,0,0,0,0,0,0,0,0,0,0,0,0,0,0],"sum_hessian":[4.03E3,3.966E3,6.4E1,3.084E3,8.82E2,1.7E1,4.7E1,3.015E3,6.9E1,8.37E2,4.5E1,1E1,7E0,2E0,4.5E1,3.008E3,7E0,6.3E1,6E0,5.2E1,7.85E2,1.9E1,2.6E1,1E0,9E0,6E0,1E0,4E0,4.1E1],"tree_param":{"num_deleted":"0","num_feature":"36","num_nodes":"29","size_leaf_vector":"1"}},{"base_weights":[-5.18482E-2,-5.9694793E-2,8.457143E-1,-9.545164E-2,6.380844E-2,-2.5000006E-3,4.367647E-2,-9.7035855E-2,6.4516105E-2,4.160669E-2,3.4769228E-1,-4.9638194E-3,-2.8994095E-3,-2.9629641E-3,3.6E-2,1.6222222E-2,1.2721507E-3,-4.5833346E-3,2.1944445E-2],"categories":[],"categories_nodes":[],"categories_segments":[],"categories_sizes":[],"default_left":[0,0,0,0,0,0,0,0,0,0,0,0,0,0,0,0,0,0,0],"id":28,"left_children":[1,3,5,7,9,-1,-1,11,13,15,17,-1,-1,-1,-1,-1,-1,-1,-1],"loss_changes":[2.8440046E1,1.7657185E1,9.1567993E-1,7.9187393E-1,5.6453733E0,0E0,0E0,2.6282883E-1,2.5577824E0,3.804541E0,2.6446538E0,0E0,0E0,0E0,0E0,0E0,0E0,0E0,0E0],"parents":[2147483647,0,0,1,1,2,2,3,3,4,4,7,7,8,8,9,9,10,10],"right_children":[2,4,6,8,10,-1,-1,12,14,16,18,-1,-1,-1,-1,-1,-1,-1,-1],"split_conditions":[3.514E1,1.933E1,1.9E1,3.24E1,2.494E1,-6.716347E-3,1.7725717E-1,1.458E1,1.64E1,1.95E1,1.838E1,-2.3392613E-1,-3.2829475E-2,-1.7525595E-1,9.623318E-2,1.8635748E-2,2.9547687E-3,-2.5264171E-3,4.08798E-2],"split_indices":[14,14,1,2,1,0,0,1,0,17,0,0,0,0,0,0,0,0,0],"split_type":[0,0,0,0,0,0,0,0,0,0,0,0,0,0,0,0,0,0,0],"sum_hessian":[4.03E3,3.996E3,3.4E1,3.099E3,8.97E2,1E0,3.3E1,3.069E3,3E1,8.33E2,6.4E1,2.901E3,1.68E2,2.6E1,4E0,4.4E1,7.89E2,1.1E1,5.3E1],"tree_param":{"num_deleted":"0","num_feature":"36","num_nodes":"19","size_leaf_vector":"1"}},{"base_weights":[-5.3088587E-2,-6.0945734E-2,8.457143E-1,-9.510537E-2,5.4545432E-2,-2.5000006E-3,4.367647E-2,-9.927763E-2,-2.6815666E-2,2.2868194E-2,2.2928569E-1,-7.692319E-4,-4.9810032E-3,-2.4000013E-3,3.6E-2,1.7954545E-2,6.507292E-4,9.699247E-3,3.9375E-2],"categories":[],"categories_nodes":[],"categories_segments":[],"categories_sizes":[],"default_left":[0,0,0,0,0,0,0,0,0,0,0,0,0,0,0,0,0,0,0],"id":29,"left_children":[1,3,5,7,9,-1,-1,11,13,15,17,-1,-1,-1,-1,-1,-1,-1,-1],"loss_changes":[2.8518566E1,1.5773898E1,9.1567993E-1,8.763237E-1,5.0484753E0,0E0,0E0,8.1977844E-2,2.8664849E0,2.559594E0,2.605991E0,0E0,0E0,0E0,0E0,0E0,0E0,0E0,0E0],"parents":[2147483647,0,0,1,1,2,2,3,3,4,4,7,7,8,8,9,9,10,10],"right_children":[2,4,6,8,10,-1,-1,12,14,16,18,-1,-1,-1,-1,-1,-1,-1,-1],"split_conditions":[3.514E1,1.915E1,1.9E1,1.433E1,5.42E1,-6.3804626E-3,1.6839428E-1,1.491E1,3.9577383E-1,1.826E1,4.19E1,1.6957542E-2,-2.3372455E-1,-3.0539233E-2,9.142151E-2,1.5378985E-2,1.7450681E-3,2.5769299E-2,1.8075362E-1],"split_indices":[14,14,1,1,7,0,0,24,28,17,29,0,0,0,0,0,0,0,0],"split_type":[0,0,0,0,0,0,0,0,0,0,0,0,0,0,0,0,0,0,0],"sum_hessian":[4.03E3,3.996E3,3.4E1,3.084E3,9.12E2,1E0,3.3E1,2.906E3,1.78E2,7.73E2,1.39E2,1.2E1,2.894E3,1.74E2,4E0,2.1E1,7.52E2,1.32E2,7E0],"tree_param":{"num_deleted":"0","num_feature":"36","num_nodes":"19","size_leaf_vector":"1"}},{"base_weights":[-5.3336665E-2,-6.119592E-2,8.457143E-1,-9.5686555E-2,4.786678E-2,-2.5000006E-3,4.367647E-2,-9.927086E-2,-2.9746858E-2,3.0546242E-2,2.8615382E-1,-4.980811E-3,-1.3333345E-3,-4.5736446E-3,1.18333325E-2,1.6756756E-2,8.71079E-4,-4.7058836E-3,2.0612245E-2],"categories":[],"categories_nodes":[],"categories_segments":[],"categories_sizes":[],"default_left":[0,0,0,0,0,0,0,0,0,0,0,0,0,0,0,0,0,0,0],"id":30,"left_children":[1,3,5,7,9,-1,-1,11,13,15,17,-1,-1,-1,-1,-1,-1,-1,-1],"loss_changes":[2.8534283E1,1.5039861E1,9.1567993E-1,7.14838E-1,3.9575565E0,0E0,0E0,6.955528E-2,2.6199028E0,3.5800319E0,3.1554732E0,0E0,0E0,0E0,0E0,0E0,0E0,0E0,0E0],"parents":[2147483647,0,0,1,1,2,2,3,3,4,4,7,7,8,8,9,9,10,10],"right_children":[2,4,6,8,10,-1,-1,12,14,16,18,-1,-1,-1,-1,-1,-1,-1,-1],"split_conditions":[3.514E1,1.849E1,1.9E1,1.446E1,2.494E1,-6.0613635E-3,1.5997449E-1,1.851E1,1.612E1,1.826E1,1.963E1,-2.4164358E-1,-6.3057467E-3,-1.0226118E-1,5.2777287E-2,1.130071E-2,2.1280376E-3,-1.0133077E-3,3.9751496E-2],"split_indices":[14,14,1,1,1,0,0,24,0,17,0,0,0,0,0,0,0,0,0],"split_type":[0,0,0,0,0,0,0,0,0,0,0,0,0,0,0,0,0,0,0],"sum_hessian":[4.03E3,3.996E3,3.4E1,3.036E3,9.6E2,1E0,3.3E1,2.879E3,1.57E2,8.96E2,6.4E1,2.865E3,1.4E1,1.28E2,2.9E1,3.6E1,8.6E2,1.6E1,4.8E1],"tree_param":{"num_deleted":"0","num_feature":"36","num_nodes":"19","size_leaf_vector":"1"}},{"base_weights":[-5.3584743E-2,-6.280766E-2,6.82E-1,-9.3547374E-2,4.7580622E-2,3.2631576E-1,4.359375E-2,-9.961106E-2,-3.368058E-2,4.3666664E-1,3.3611417E-2,5.454545E-1,2.22222E-2,-4.998224E-3,-1.5625012E-3,-3.3669367E-3,8.536584E-3,4.999989E-4,3.095238E-2,-4.9739596E-3,3.64969E-3,-2.5000006E-3,3.0499998E-2,-4.375001E-3,2.2499999E-2],"categories":[],"categories_nodes":[],"categories_segments":[],"categories_sizes":[],"default_left":[0,0,0,0,0,0,0,0,0,0,0,0,0,0,0,0,0,0,0,0,0,0,0,0,0],"id":31,"left_children":[1,3,5,7,9,11,-1,13,15,17,19,21,23,-1,-1,-1,-1,-1,-1,-1,-1,-1,-1,-1,-1],"loss_changes":[2.739009E1,1.3516587E1,3.09227E0,1.1274338E0,4.7030954E0,1.2540138E0,0E0,6.51989E-2,1.9929769E0,2.3282857E0,4.4048176E0,4.5327306E-1,4.6180555E-1,0E0,0E0,0E0,0E0,0E0,0E0,0E0,0E0,0E0,0E0,0E0,0E0],"parents":[2147483647,0,0,1,1,2,2,3,3,4,4,5,5,7,7,8,8,9,9,10,10,11,11,12,12],"right_children":[2,4,6,8,10,12,-1,14,16,18,20,22,24,-1,-1,-1,-1,-1,-1,-1,-1,-1,-1,-1,-1],"split_conditions":[2.505E1,1.631E1,3.514E1,1.729E1,1.5862143E1,2.505E1,1.529583E-1,1.839E1,1.614E1,1.196E1,1.259E1,6.3083334E0,9.4E0,-2.3954812E-1,-5.586967E-2,-9.211948E-3,1.2896526E-2,8.304592E-3,4.965415E-2,-3.345795E-2,6.152208E-3,-3.5326004E-3,3.447075E-2,-1.2763977E-3,4.999161E-4],"split_indices":[0,0,14,14,35,19,0,1,0,12,1,6,2,0,0,0,0,0,0,0,0,0,0,0,0],"split_type":[0,0,0,0,0,0,0,0,0,0,0,0,0,0,0,0,0,0,0,0,0,0,0,0,0],"sum_hessian":[4.03E3,3.981E3,4.9E1,3.114E3,8.67E2,1.8E1,3.1E1,2.827E3,2.87E2,2.9E1,8.38E2,1E1,8E0,2.812E3,1.5E1,2.47E2,4E1,9E0,2E1,1.91E2,6.47E2,1E0,9E0,7E0,1E0],"tree_param":{"num_deleted":"0","num_feature":"36","num_nodes":"25","size_leaf_vector":"1"}},{"base_weights":[-5.482513E-2,-6.1956003E-2,7.852941E-1,-9.3547374E-2,4.9434364E-2,-3.3333343E-3,8.40625E-1,-9.961106E-2,-3.368058E-2,1.1248262E-2,2.2756408E-1,-2.5000006E-3,4.3548387E-2,-4.998224E-3,-1.5625012E-3,-3.172692E-3,7.6249987E-3,2.1999998E-2,1.1188692E-4,8.097014E-3,3E-2],"categories":[],"categories_nodes":[],"categories_segments":[],"categories_sizes":[],"default_left":[0,0,0,0,0,0,0,0,0,0,0,0,0,0,0,0,0,0,0,0,0],"id":32,"left_children":[1,3,5,7,9,-1,11,13,15,17,19,-1,-1,-1,-1,-1,-1,-1,-1,-1,-1],"loss_changes":[2.4197498E1,1.4073483E1,1.6587944E0,1.1274338E0,6.0104785E0,0E0,9.0831375E-1,6.51989E-2,1.6061188E0,2.8153443E0,3.71558E0,0E0,0E0,0E0,0E0,0E0,0E0,0E0,0E0,0E0,0E0],"parents":[2147483647,0,0,1,1,2,2,3,3,4,4,6,6,7,7,8,8,9,9,10,10],"right_children":[2,4,6,8,10,-1,12,14,16,18,20,-1,-1,-1,-1,-1,-1,-1,-1,-1,-1],"split_conditions":[2.576E1,1.631E1,2.1887142E1,1.729E1,5.0325E1,-3.7567138E-3,1.75E1,1.839E1,1.625E1,1.5862143E1,1.27691666E2,-3.4275054E-4,1.4580165E-1,-2.2757073E-1,-5.3076167E-2,-5.164883E-3,1.2561317E-2,4.5234155E-2,3.64874E-4,2.3848074E-2,7.968089E-2],"split_indices":[0,0,32,14,7,0,8,1,6,35,8,0,0,0,0,0,0,0,0,0,0],"split_type":[0,0,0,0,0,0,0,0,0,0,0,0,0,0,0,0,0,0,0,0,0],"sum_hessian":[4.03E3,3.997E3,3.3E1,3.114E3,8.83E2,2E0,3.1E1,2.827E3,2.87E2,7.28E2,1.55E2,1E0,3E1,2.812E3,1.5E1,2.48E2,3.9E1,1.4E1,7.14E2,1.33E2,2.2E1],"tree_param":{"num_deleted":"0","num_feature":"36","num_nodes":"21","size_leaf_vector":"1"}},{"base_weights":[-5.6065515E-2,-6.319742E-2,7.6E-1,-9.790524E-2,2.9926311E-2,-4.000001E-3,4.3548387E-2,-9.824805E-2,2.2499999E-2,-8.06454E-3,1.3879001E-1,-4.94659E-3,5.499999E-3,-9.879852E-4,7.155171E-3,2.7647058E-2,5.5849045E-3],"categories":[],"categories_nodes":[],"categories_segments":[],"categories_sizes":[],"default_left":[0,0,0,0,0,0,0,0,0,0,0,0,0,0,0,0,0],"id":33,"left_children":[1,3,5,7,9,-1,-1,11,-1,13,15,-1,-1,-1,-1,-1,-1],"loss_changes":[2.3508862E1,1.29217205E1,3.3321285E0,5.911598E-1,4.492625E0,0E0,0E0,4.253769E-1,0E0,1.4277825E0,3.0910993E0,0E0,0E0,0E0,0E0,0E0,0E0],"parents":[2147483647,0,0,1,1,2,2,3,3,4,4,7,7,9,9,10,10],"right_children":[2,4,6,8,10,-1,-1,12,-1,14,16,-1,-1,-1,-1,-1,-1],"split_conditions":[3.514E1,1.694E1,2.042E1,9.7E1,1E0,-2.7389528E-4,1.3851157E-1,5.07E1,4.0550806E-2,2.371E1,1.568E1,-2.163053E-1,6.6969856E-3,-1.1310296E-3,6.341471E-3,1.05329745E-1,1.775698E-2],"split_indices":[14,14,1,2,11,0,0,29,0,1,22,0,0,0,0,0,0],"split_type":[0,0,0,0,0,0,0,0,0,0,0,0,0,0,0,0,0],"sum_hessian":[4.03E3,3.996E3,3.4E1,2.911E3,1.085E3,4E0,3E1,2.91E3,1E0,8.05E2,2.8E2,2.901E3,9E0,7.48E2,5.7E1,1.6E1,2.64E2],"tree_param":{"num_deleted":"0","num_feature":"36","num_nodes":"17","size_leaf_vector":"1"}},{"base_weights":[-5.656167E-2,-6.36978E-2,7.6E-1,-9.628889E-2,3.31678E-2,-4.000001E-3,4.3548387E-2,-9.6622095E-2,2.2499999E-2,-6.6261426E-2,8.1296E-2,4.687499E-3,-4.8806737E-3,1.044775E-3,-4.410648E-3,1.3009707E-2,2.461004E-3],"categories":[],"categories_nodes":[],"categories_segments":[],"categories_sizes":[],"default_left":[0,0,0,0,0,0,0,0,0,0,0,0,0,0,0,0,0],"id":34,"left_children":[1,3,5,7,9,-1,-1,11,-1,13,15,-1,-1,-1,-1,-1,-1],"loss_changes":[2.3537397E1,1.2621546E1,3.3321285E0,5.8792496E-1,4.8242335E0,0E0,0E0,5.73452E-1,0E0,6.312952E-1,3.883514E0,0E0,0E0,0E0,0E0,0E0,0E0],"parents":[2147483647,0,0,1,1,2,2,3,3,4,4,7,7,9,9,10,10],"right_children":[2,4,6,8,10,-1,-1,12,-1,14,16,-1,-1,-1,-1,-1,-1],"split_conditions":[3.514E1,1.342E1,2.042E1,2.734E1,1.614E1,-2.6016237E-4,1.3158599E-1,1.491E1,6.792355E-3,1.2070833E1,1.422E1,9.867742E-3,-1.2536949E-1,9.439936E-4,-2.129173E-2,2.1971434E-2,3.8994215E-3],"split_indices":[14,1,1,14,0,0,0,24,0,3,15,0,0,0,0,0,0],"split_type":[0,0,0,0,0,0,0,0,0,0,0,0,0,0,0,0,0],"sum_hessian":[4.03E3,3.996E3,3.4E1,2.99E3,1.006E3,4E0,3E1,2.989E3,1E0,3.28E2,6.78E2,1.5E1,2.974E3,6.6E1,2.62E2,1.02E2,5.76E2],"tree_param":{"num_deleted":"0","num_feature":"36","num_nodes":"17","size_leaf_vector":"1"}},{"base_weights":[-5.4080896E-2,-6.119592E-2,7.6E-1,-9.7561836E-2,3.6371984E-2,-4.000001E-3,4.3548387E-2,-9.7904526E-2,2.2499999E-2,-6.203712E-4,1.4234874E-1,-4.9291896E-3,1.1764695E-3,-4.5925938E-3,8.854155E-4,1.4619564E-2,3.4473673E-3],"categories":[],"categories_nodes":[],"categories_segments":[],"categories_sizes":[],"default_left":[0,0,0,0,0,0,0,0,0,0,0,0,0,0,0,0,0],"id":35,"left_children":[1,3,5,7,9,-1,-1,11,-1,13,15,-1,-1,-1,-1,-1,-1],"loss_changes":[2.3394882E1,1.4185491E1,3.3321285E0,5.9047127E-1,4.2575665E0,0E0,0E0,2.4243736E-1,0E0,1.349382E0,3.0745864E0,0E0,0E0,0E0,0E0,0E0,0E0],"parents":[2147483647,0,0,1,1,2,2,3,3,4,4,7,7,9,9,10,10],"right_children":[2,4,6,8,10,-1,-1,12,-1,14,16,-1,-1,-1,-1,-1,-1],"split_conditions":[3.514E1,1.694E1,2.042E1,9.7E1,1E0,-2.471924E-4,1.2500678E-1,1.839E1,3.7424754E-2,1.581E1,1.685E1,-2.0122157E-1,5.4190755E-2,-1.9677306E-2,1.2822906E-3,2.8498963E-2,1.0633273E-2],"split_indices":[14,14,1,2,11,0,0,1,0,0,22,0,0,0,0,0,0],"split_type":[0,0,0,0,0,0,0,0,0,0,0,0,0,0,0,0,0],"sum_hessian":[4.03E3,3.996E3,3.4E1,2.911E3,1.085E3,4E0,3E1,2.91E3,1E0,8.05E2,2.8E2,2.894E3,1.6E1,1.34E2,6.71E2,9.1E1,1.89E2],"tree_param":{"num_deleted":"0","num_feature":"36","num_nodes":"17","size_leaf_vector":"1"}},{"base_weights":[-5.3584743E-2,-6.0445357E-2,7.3142856E-1,-9.55014E-2,3.3609554E-2,-4.000001E-3,8.3870965E-1,-9.5843375E-2,2.2499999E-2,-1.861066E-3,1.3523129E-1,4.2499998E-1,4.3392856E-2,-4.9796687E-3,-2.3188419E-3,-4.5925938E-3,8.110107E-4,4.9800784E-3,2.0967742E-2,-2.5000006E-3,3E-2],"categories":[],"categories_nodes":[],"categories_segments":[],"categories_sizes":[],"default_left":[0,0,0,0,0,0,0,0,0,0,0,0,0,0,0,0,0,0,0,0,0],"id":36,"left_children":[1,3,5,7,9,-1,11,13,-1,15,17,19,-1,-1,-1,-1,-1,-1,-1,-1,-1],"loss_changes":[2.1753864E1,1.3182088E1,3.1138783E0,5.8636475E-1,3.9148316E0,0E0,4.97818E-3,5.353699E-1,0E0,1.3129721E0,2.8028631E0,3.6249995E-1,0E0,0E0,0E0,0E0,0E0,0E0,0E0,0E0,0E0],"parents":[2147483647,0,0,1,1,2,2,3,3,4,4,6,6,7,7,9,9,10,10,11,11],"right_children":[2,4,6,8,10,-1,12,14,-1,16,18,20,-1,-1,-1,-1,-1,-1,-1,-1,-1],"split_conditions":[3.514E1,1.694E1,2.042E1,9.7E1,1E0,-2.3479461E-4,3.423E1,1.469E1,3.5553552E-2,1.581E1,2.02E2,2.758E1,1.2054759E-1,-2.5891605E-1,-4.15105E-2,-1.86934E-2,1.2182037E-3,1.1707836E-2,7.679283E-2,-3.252411E-3,3.4049034E-2],"split_indices":[14,14,1,2,11,0,17,14,0,0,9,1,0,0,0,0,0,0,0,0,0],"split_type":[0,0,0,0,0,0,0,0,0,0,0,0,0,0,0,0,0,0,0,0,0],"sum_hessian":[4.03E3,3.996E3,3.4E1,2.911E3,1.085E3,4E0,3E1,2.91E3,1E0,8.05E2,2.8E2,3E0,2.7E1,2.704E3,2.06E2,1.34E2,6.71E2,2.5E2,3E1,1E0,2E0],"tree_param":{"num_deleted":"0","num_feature":"36","num_nodes":"21","size_leaf_vector":"1"}},{"base_weights":[-5.4080896E-2,-6.0945734E-2,7.3142856E-1,-9.55014E-2,3.176793E-2,-4.000001E-3,8.3870965E-1,-9.5843375E-2,2.2499999E-2,2.1278603E-2,3.128205E-1,4.2499998E-1,4.3392856E-2,-4.9796687E-3,-2.3188419E-3,2.876557E-4,9.032257E-3,-4.545456E-3,2.275862E-2,-2.5000006E-3,3E-2],"categories":[],"categories_nodes":[],"categories_segments":[],"categories_sizes":[],"default_left":[0,0,0,0,0,0,0,0,0,0,0,0,0,0,0,0,0,0,0,0,0],"id":37,"left_children":[1,3,5,7,9,-1,11,13,-1,15,17,19,-1,-1,-1,-1,-1,-1,-1,-1,-1],"loss_changes":[2.1781315E1,1.2808551E1,3.1138783E0,5.8636475E-1,3.1949294E0,0E0,4.97818E-3,5.353699E-1,0E0,2.5919676E0,2.2827742E0,3.6249995E-1,0E0,0E0,0E0,0E0,0E0,0E0,0E0,0E0,0E0],"parents":[2147483647,0,0,1,1,2,2,3,3,4,4,6,6,7,7,9,9,10,10,11,11],"right_children":[2,4,6,8,10,-1,12,14,-1,16,18,20,-1,-1,-1,-1,-1,-1,-1,-1,-1],"split_conditions":[3.514E1,1.694E1,2.042E1,9.7E1,2.576E1,-2.2296906E-4,3.423E1,1.469E1,3.3775903E-2,1.34E1,1.893E1,2.758E1,1.14520185E-1,-2.459702E-1,-3.9435018E-2,3.2991392E-4,2.250406E-2,-1.821566E-3,4.2781707E-2,-3.089714E-3,3.2346535E-2],"split_indices":[14,14,1,2,1,0,17,14,0,2,0,1,0,0,0,0,0,0,0,0,0],"split_type":[0,0,0,0,0,0,0,0,0,0,0,0,0,0,0,0,0,0,0,0,0],"sum_hessian":[4.03E3,3.996E3,3.4E1,2.911E3,1.085E3,4E0,3E1,2.91E3,1E0,1.047E3,3.8E1,3E0,2.7E1,2.704E3,2.06E2,9.55E2,9.2E1,1E1,2.8E1,1E0,2E0],"tree_param":{"num_deleted":"0","num_feature":"36","num_nodes":"21","size_leaf_vector":"1"}},{"base_weights":[-5.4577053E-2,-6.119592E-2,7.0285714E-1,-9.515799E-2,2.9926311E-2,-4.000001E-3,8.064516E-1,-9.549985E-2,2.2499999E-2,1.4673343E-2,1.9456519E-1,8.3666664E-1,-2.5000006E-3,-4.961184E-3,-2.3188419E-3,-1.1350857E-4,7.21739E-3,2.014706E-2,3.559321E-3,2.125E-2,4.3333333E-2],"categories":[],"categories_nodes":[],"categories_segments":[],"categories_sizes":[],"default_left":[0,0,0,0,0,0,0,0,0,0,0,0,0,0,0,0,0,0,0,0,0],"id":38,"left_children":[1,3,5,7,9,-1,11,13,-1,15,17,19,-1,-1,-1,-1,-1,-1,-1,-1,-1],"loss_changes":[2.0251854E1,1.2372361E1,2.9030037E0,5.856819E-1,2.7243426E0,0E0,8.440418E-1,5.27895E-1,0E0,2.186483E0,2.3365595E0,2.1686554E-3,0E0,0E0,0E0,0E0,0E0,0E0,0E0,0E0,0E0],"parents":[2147483647,0,0,1,1,2,2,3,3,4,4,6,6,7,7,9,9,10,10,11,11],"right_children":[2,4,6,8,10,-1,12,14,-1,16,18,20,-1,-1,-1,-1,-1,-1,-1,-1,-1],"split_conditions":[3.514E1,1.694E1,2.042E1,9.7E1,2.403E1,-2.1190643E-4,4.037067E-1,1.469E1,3.2087136E-2,1.06E1,1.8254168E1,3.423E1,-2.5058747E-3,-2.3367171E-1,-3.7463296E-2,-3.5529243E-4,1.855788E-2,3.6293715E-2,4.8259897E-3,3.0729294E-2,1.0944412E-1],"split_indices":[14,14,1,2,1,0,10,14,0,2,3,17,0,0,0,0,0,0,0,0,0],"split_type":[0,0,0,0,0,0,0,0,0,0,0,0,0,0,0,0,0,0,0,0,0],"sum_hessian":[4.03E3,3.996E3,3.4E1,2.911E3,1.085E3,4E0,3E1,2.91E3,1E0,9.94E2,9.1E1,2.9E1,1E0,2.704E3,2.06E2,8.8E2,1.14E2,3.3E1,5.8E1,3E0,2.6E1],"tree_param":{"num_deleted":"0","num_feature":"36","num_nodes":"21","size_leaf_vector":"1"}},{"base_weights":[-5.581744E-2,-6.2196672E-2,6.742857E-1,-9.515799E-2,2.624307E-2,-4.000001E-3,7.741935E-1,-9.549985E-2,2.2499999E-2,2.1614077E-2,5.7777774E-1,8.033333E-1,-2.5000006E-3,-4.961184E-3,-2.3188419E-3,-3.7799056E-3,2.2471254E-3,3.857143E-2,-3.3333343E-3,4.1724138E-2,-2.5000006E-3],"categories":[],"categories_nodes":[],"categories_segments":[],"categories_sizes":[],"default_left":[0,0,0,0,0,0,0,0,0,0,0,0,0,0,0,0,0,0,0,0,0],"id":39,"left_children":[1,3,5,7,9,-1,11,13,-1,15,17,19,-1,-1,-1,-1,-1,-1,-1,-1,-1],"loss_changes":[1.881631E1,1.1654113E1,2.6995E0,5.856819E-1,2.7601247E0,0E0,7.8468704E-1,5.27895E-1,0E0,2.4480944E0,1.174603E0,8.391495E-1,0E0,0E0,0E0,0E0,0E0,0E0,0E0,0E0,0E0],"parents":[2147483647,0,0,1,1,2,2,3,3,4,4,6,6,7,7,9,9,10,10,11,11],"right_children":[2,4,6,8,10,-1,12,14,-1,16,18,20,-1,-1,-1,-1,-1,-1,-1,-1,-1],"split_conditions":[3.514E1,1.694E1,2.042E1,9.7E1,4.19E1,-2.0122528E-4,4.037067E-1,1.469E1,3.0482769E-2,1.593E1,1.367E1,3.076E1,-2.3805618E-3,-2.2198816E-1,-3.559009E-2,-1.229853E-2,3.0532812E-3,1.4767818E-1,-6.539726E-3,1.0267196E-1,-1.57547E-4],"split_indices":[14,14,1,2,29,0,10,14,0,0,15,24,0,0,0,0,0,0,0,0,0],"split_type":[0,0,0,0,0,0,0,0,0,0,0,0,0,0,0,0,0,0,0,0,0],"sum_hessian":[4.03E3,3.996E3,3.4E1,2.911E3,1.085E3,4E0,3E1,2.91E3,1E0,1.077E3,8E0,2.9E1,1E0,2.704E3,2.06E2,2.08E2,8.69E2,6E0,2E0,2.8E1,1E0],"tree_param":{"num_deleted":"0","num_feature":"36","num_nodes":"21","size_leaf_vector":"1"}},{"base_weights":[-5.656167E-2,-6.244686E-2,6.1714286E-1,-9.577664E-2,2.1888766E-2,-4.000001E-3,7.096774E-1,-9.612433E-2,2.2499999E-2,-6.0981937E-2,6.479248E-2,1.7499998E-1,7.607143E-1,-4.9980762E-3,-2.9291057E-3,-3.8428584E-3,4.3421043E-3,1.557377E-2,2.1397367E-3,2.2499999E-2,-3.3333343E-3,-2.5000006E-3,3.962963E-2],"categories":[],"categories_nodes":[],"categories_segments":[],"categories_sizes":[],"default_left":[0,0,0,0,0,0,0,0,0,0,0,0,0,0,0,0,0,0,0,0,0,0,0],"id":40,"left_children":[1,3,5,7,9,-1,11,13,-1,15,17,19,21,-1,-1,-1,-1,-1,-1,-1,-1,-1,-1],"loss_changes":[1.602096E1,1.1237216E1,2.3146172E0,5.8691597E-1,4.032288E0,0E0,7.1280956E-1,4.0672493E-1,0E0,9.14863E-1,4.0402412E0,2.9583335E-1,7.632656E-1,0E0,0E0,0E0,0E0,0E0,0E0,0E0,0E0,0E0,0E0],"parents":[2147483647,0,0,1,1,2,2,3,3,4,4,6,6,7,7,9,9,10,10,11,11,12,12],"right_children":[2,4,6,8,10,-1,12,14,-1,16,18,20,22,-1,-1,-1,-1,-1,-1,-1,-1,-1,-1],"split_conditions":[3.514E1,1.25E1,2.042E1,2.217E1,1.609E1,-1.9111634E-4,3.423E1,1.092E1,2.0764351E-3,3.8432857E-1,1.95E1,2.576E1,2.399E1,-1.9398321E-1,-2.5103046E-2,-1.8961621E-2,6.6768946E-3,2.8425707E-2,3.1285954E-3,2.4059106E-2,-3.242302E-3,-8.531571E-4,9.883831E-2],"split_indices":[14,1,1,0,0,0,17,1,0,28,14,0,0,0,0,0,0,0,0,0,0,0,0],"split_type":[0,0,0,0,0,0,0,0,0,0,0,0,0,0,0,0,0,0,0,0,0,0,0],"sum_hessian":[4.03E3,3.996E3,3.4E1,2.864E3,1.132E3,4E0,3E1,2.863E3,1E0,3.86E2,7.46E2,3E0,2.7E1,2.596E3,2.67E2,3.49E2,3.7E1,6E1,6.86E2,1E0,2E0,1E0,2.6E1],"tree_param":{"num_deleted":"0","num_feature":"36","num_nodes":"23","size_leaf_vector":"1"}},{"base_weights":[-5.780206E-2,-6.36978E-2,6.1714286E-1,-9.7435E-2,1.2276399E-2,-4.000001E-3,7.096774E-1,-9.779547E-2,2.2499999E-2,-1.6558465E-2,9.9022776E-2,1.7499998E-1,7.607143E-1,-4.9605127E-3,-3.1192673E-3,-3.5986172E-3,4.3238877E-4,3.857143E-2,4.152823E-3,2.2499999E-2,-3.3333343E-3,-2.5000006E-3,3.962963E-2],"categories":[],"categories_nodes":[],"categories_segments":[],"categories_sizes":[],"default_left":[0,0,0,0,0,0,0,0,0,0,0,0,0,0,0,0,0,0,0,0,0,0,0],"id":41,"left_children":[1,3,5,7,9,-1,11,13,-1,15,17,19,21,-1,-1,-1,-1,-1,-1,-1,-1,-1,-1],"loss_changes":[1.6079865E1,1.0246134E1,2.3146172E0,5.9023666E-1,3.078263E0,0E0,7.1280956E-1,1.3243294E-1,0E0,1.291243E0,3.231833E0,2.9583335E-1,7.632656E-1,0E0,0E0,0E0,0E0,0E0,0E0,0E0,0E0,0E0,0E0],"parents":[2147483647,0,0,1,1,2,2,3,3,4,4,6,6,7,7,9,9,10,10,11,11,12,12],"right_children":[2,4,6,8,10,-1,12,14,-1,16,18,20,22,-1,-1,-1,-1,-1,-1,-1,-1,-1,-1],"split_conditions":[3.514E1,1.521E1,2.042E1,9.7E1,1E0,-1.815796E-4,3.423E1,1.417E1,2.7537346E-2,1.601E1,1.525E1,2.576E1,2.399E1,-2.224284E-1,-5.619806E-2,-1.6075207E-2,7.657613E-4,3.8945105E-2,1.3898185E-2,2.285614E-2,-3.0801774E-3,-8.104324E-4,9.389637E-2],"split_indices":[14,14,1,2,11,0,17,14,0,0,24,0,0,0,0,0,0,0,0,0,0,0,0],"split_type":[0,0,0,0,0,0,0,0,0,0,0,0,0,0,0,0,0,0,0,0,0,0,0],"sum_hessian":[4.03E3,3.996E3,3.4E1,2.767E3,1.229E3,4E0,3E1,2.766E3,1E0,9.23E2,3.06E2,3E0,2.7E1,2.658E3,1.08E2,2.88E2,6.35E2,6E0,3E2,1E0,2E0,1E0,2.6E1],"tree_param":{"num_deleted":"0","num_feature":"36","num_nodes":"23","size_leaf_vector":"1"}},{"base_weights":[-5.8050137E-2,-6.210765E-2,4.25E-2,-9.507856E-2,2.0086933E-2,-9.5426E-2,2.2499999E-2,5.3538783E-3,3.510204E-1,-4.9786833E-3,-2.8771942E-3,-4.138657E-3,1.4797676E-3,-4.545456E-3,2.3333332E-2],"categories":[],"categories_nodes":[],"categories_segments":[],"categories_sizes":[],"default_left":[0,0,0,0,0,0,0,0,0,0,0,0,0,0,0],"id":42,"left_children":[1,3,-1,5,7,9,-1,11,13,-1,-1,-1,-1,-1,-1],"loss_changes":[1.4904704E1,1.0879972E1,0E0,5.855274E-1,5.60513E0,4.4426727E-1,0E0,2.3566837E0,2.5466905E0,0E0,0E0,0E0,0E0,0E0,0E0],"parents":[2147483647,0,0,1,1,3,3,4,4,5,5,7,7,8,8],"right_children":[2,4,-1,6,8,10,-1,12,14,-1,-1,-1,-1,-1,-1],"split_conditions":[2.802E1,1.25E1,9.375153E-2,2.217E1,2.576E1,1.079E1,1.9343377E-3,1.581E1,1.893E1,-1.7931265E-1,-2.3977568E-2,-2.2676451E-2,2.8009375E-3,-1.2924774E-3,2.6920749E-2],"split_indices":[13,1,0,0,1,1,0,0,0,0,0,0,0,0,0],"split_type":[0,0,0,0,0,0,0,0,0,0,0,0,0,0,0],"sum_hessian":[4.03E3,4.013E3,1.7E1,2.864E3,1.149E3,2.863E3,1E0,1.101E3,4.8E1,2.579E3,2.84E2,2.37E2,8.64E2,1E1,3.8E1],"tree_param":{"num_deleted":"0","num_feature":"36","num_nodes":"15","size_leaf_vector":"1"}},{"base_weights":[-5.755398E-2,-6.160939E-2,4.25E-2,-9.5628634E-2,1.3953464E-2,-9.598846E-2,2.2499999E-2,6.585342E-3,5.1666665E-1,-4.939336E-3,-3.0985929E-3,-3.3691768E-3,1.4128139E-3,-3.7500008E-3,3.2E-2],"categories":[],"categories_nodes":[],"categories_segments":[],"categories_sizes":[],"default_left":[0,0,0,0,0,0,0,0,0,0,0,0,0,0,0],"id":43,"left_children":[1,3,-1,5,7,9,-1,11,13,-1,-1,-1,-1,-1,-1],"loss_changes":[1.4888478E1,1.0319689E1,0E0,5.866375E-1,4.6155505E0,2.5725937E-1,0E0,1.9735631E0,1.3615003E0,0E0,0E0,0E0,0E0,0E0,0E0],"parents":[2147483647,0,0,1,1,3,3,4,4,5,5,7,7,8,8],"right_children":[2,4,-1,6,8,10,-1,12,14,-1,-1,-1,-1,-1,-1],"split_conditions":[2.802E1,1.521E1,8.9064024E-2,9.7E1,1.7512917E2,1.163E1,2.6020432E-2,1.592E1,5.8916668E1,-2.0884703E-1,-7.651501E-2,-1.4822068E-2,2.4743837E-3,-7.341957E-3,1.03976846E-1],"split_indices":[13,14,0,2,8,1,0,0,5,0,0,0,0,0,0],"split_type":[0,0,0,0,0,0,0,0,0,0,0,0,0,0,0],"sum_hessian":[4.03E3,4.013E3,1.7E1,2.767E3,1.246E3,2.766E3,1E0,1.229E3,1.7E1,2.554E3,2.12E2,2.78E2,9.51E2,3E0,1.4E1],"tree_param":{"num_deleted":"0","num_feature":"36","num_nodes":"15","size_leaf_vector":"1"}},{"base_weights":[-5.7057828E-2,-6.1111134E-2,4.25E-2,-9.526736E-2,1.4755389E-2,-9.5627055E-2,2.2499999E-2,7.39835E-3,5.1666665E-1,-4.9197664E-3,-3.0985929E-3,-4.023811E-3,1.2732603E-3,-3.7500008E-3,3.2E-2],"categories":[],"categories_nodes":[],"categories_segments":[],"categories_sizes":[],"default_left":[0,0,0,0,0,0,0,0,0,0,0,0,0,0,0],"id":44,"left_children":[1,3,-1,5,7,9,-1,11,13,-1,-1,-1,-1,-1,-1],"loss_changes":[1.4872262E1,1.0402944E1,0E0,5.859146E-1,4.6008253E0,2.5169563E-1,0E0,1.9548184E0,1.3615003E0,0E0,0E0,0E0,0E0,0E0,0E0],"parents":[2147483647,0,0,1,1,3,3,4,4,5,5,7,7,8,8],"right_children":[2,4,-1,6,8,10,-1,12,14,-1,-1,-1,-1,-1,-1],"split_conditions":[2.802E1,1.521E1,8.461075E-2,9.7E1,1.7512917E2,1.163E1,2.471943E-2,1.581E1,5.8916668E1,-1.9840465E-1,-7.268925E-2,-1.863843E-2,2.2458597E-3,-6.9747926E-3,9.877799E-2],"split_indices":[13,14,0,2,8,1,0,0,5,0,0,0,0,0,0],"split_type":[0,0,0,0,0,0,0,0,0,0,0,0,0,0,0],"sum_hessian":[4.03E3,4.013E3,1.7E1,2.767E3,1.246E3,2.766E3,1E0,1.229E3,1.7E1,2.554E3,2.12E2,2.09E2,1.02E3,3E0,1.4E1],"tree_param":{"num_deleted":"0","num_feature":"36","num_nodes":"15","size_leaf_vector":"1"}},{"base_weights":[-5.680975E-2,-6.0852256E-2,7.9999995E-1,-9.382228E-2,1.2439784E-2,-2.5000006E-3,4.25E-2,-9.418145E-2,2.2499999E-2,-2.0960937E-3,1.7549017E-1,-4.976706E-3,-3.1449643E-3,-4.251209E-3,8.093705E-4,1.8372092E-2,1.7499989E-3],"categories":[],"categories_nodes":[],"categories_segments":[],"categories_sizes":[],"default_left":[0,0,0,0,0,0,0,0,0,0,0,0,0,0,0,0,0],"id":45,"left_children":[1,3,5,7,9,-1,-1,11,-1,13,15,-1,-1,-1,-1,-1,-1],"loss_changes":[1.4010689E1,9.698341E0,8.499994E-1,5.8303833E-1,2.953488E0,0E0,0E0,4.5705605E-1,0E0,1.7374434E0,2.7378066E0,0E0,0E0,0E0,0E0,0E0,0E0],"parents":[2147483647,0,0,1,1,2,2,3,3,4,4,7,7,9,9,10,10],"right_children":[2,4,6,8,10,-1,-1,12,-1,14,16,-1,-1,-1,-1,-1,-1],"split_conditions":[3.717E1,1.521E1,3.3447993E-1,9.7E1,2.403E1,-1.0162544E-2,8.038025E-2,1.155E1,2.3483468E-2,1.581E1,2.0208334E1,-2.7800792E-1,-6.068439E-2,-1.9826243E-2,1.4664235E-3,2.0333007E-2,4.675859E-3],"split_indices":[14,14,10,2,1,0,0,14,0,0,3,0,0,0,0,0,0],"split_type":[0,0,0,0,0,0,0,0,0,0,0,0,0,0,0,0,0],"sum_hessian":[4.03E3,4.012E3,1.8E1,2.767E3,1.245E3,1E0,1.7E1,2.766E3,1E0,1.144E3,1.01E2,2.36E3,4.06E2,2.06E2,9.38E2,4.2E1,5.9E1],"tree_param":{"num_deleted":"0","num_feature":"36","num_nodes":"17","size_leaf_vector":"1"}},{"base_weights":[-5.6313593E-2,-6.0353875E-2,7.9999995E-1,-9.3099736E-2,1.2439784E-2,-2.5000006E-3,4.25E-2,-9.3458645E-2,2.2499999E-2,-1.2227312E-3,1.6568625E-1,-4.955529E-3,-3.0221143E-3,-1.2160579E-3,3.210701E-3,1.7209303E-2,1.7499989E-3],"categories":[],"categories_nodes":[],"categories_segments":[],"categories_sizes":[],"default_left":[0,0,0,0,0,0,0,0,0,0,0,0,0,0,0,0,0],"id":46,"left_children":[1,3,5,7,9,-1,-1,11,-1,13,15,-1,-1,-1,-1,-1,-1],"loss_changes":[1.3994523E1,9.566908E0,8.499994E-1,5.816059E-1,2.6089928E0,0E0,0E0,5.103493E-1,0E0,1.7322133E0,2.367355E0,0E0,0E0,0E0,0E0,0E0,0E0],"parents":[2147483647,0,0,1,1,2,2,3,3,4,4,7,7,9,9,10,10],"right_children":[2,4,6,8,10,-1,-1,12,-1,14,16,-1,-1,-1,-1,-1,-1],"split_conditions":[3.717E1,1.521E1,3.3447993E-1,9.7E1,2.403E1,-9.654427E-3,7.6361276E-2,1.155E1,2.2309303E-2,3.851147E-1,2.0208334E1,-2.6410756E-1,-5.765018E-2,-1.2182237E-3,4.152093E-3,1.931639E-2,4.442018E-3],"split_indices":[14,14,10,2,1,0,0,14,0,28,3,0,0,0,0,0,0],"split_type":[0,0,0,0,0,0,0,0,0,0,0,0,0,0,0,0,0],"sum_hessian":[4.03E3,4.012E3,1.8E1,2.767E3,1.245E3,1E0,1.7E1,2.766E3,1E0,1.144E3,1.01E2,2.36E3,4.06E2,8.46E2,2.98E2,4.2E1,5.9E1],"tree_param":{"num_deleted":"0","num_feature":"36","num_nodes":"17","size_leaf_vector":"1"}},{"base_weights":[-5.7057828E-2,-6.061288E-2,7.3888886E-1,-9.716229E-2,-1.3221153E-4,7.8823525E-1,-2.5000006E-3,-9.870458E-2,-6.2727295E-2,-6.021344E-2,4.5804173E-2,-2.5000006E-3,4.21875E-2,-1.3333345E-3,-4.955865E-3,-4.937501E-3,1.612902E-3,-3.8131326E-3,4.6031736E-3,1.097345E-2,9.718487E-4],"categories":[],"categories_nodes":[],"categories_segments":[],"categories_sizes":[],"default_left":[0,0,0,0,0,0,0,0,0,0,0,0,0,0,0,0,0,0,0,0,0],"id":47,"left_children":[1,3,5,7,9,11,-1,13,15,17,19,-1,-1,-1,-1,-1,-1,-1,-1,-1,-1],"loss_changes":[1.14510355E1,8.873068E0,7.401314E-1,1.266861E-1,4.1785088E0,8.33272E-1,0E0,6.850433E-2,3.795649E-1,1.6102355E0,3.924563E0,0E0,0E0,0E0,0E0,0E0,0E0,0E0,0E0,0E0,0E0],"parents":[2147483647,0,0,1,1,2,2,3,3,4,4,5,5,7,7,8,8,9,9,10,10],"right_children":[2,4,6,8,10,12,-1,14,16,18,20,-1,-1,-1,-1,-1,-1,-1,-1,-1,-1],"split_conditions":[2.802E1,1.037E1,2.576E1,9.8E0,1.609E1,2.1204166E1,-4.575539E-3,1.491E1,1.607E1,3.8582477E-1,1.95E1,-1.4568329E-3,7.2543144E-2,-7.317661E-3,-1.8941775E-1,-6.206767E-2,1.8338796E-2,-2.5307447E-2,9.834084E-3,1.968397E-2,1.8907733E-3],"split_indices":[13,1,1,1,0,3,0,13,0,28,14,0,0,0,0,0,0,0,0,0,0],"split_type":[0,0,0,0,0,0,0,0,0,0,0,0,0,0,0,0,0,0,0,0,0],"sum_hessian":[4.03E3,4.013E3,1.7E1,2.501E3,1.512E3,1.6E1,1E0,2.392E3,1.09E2,6.55E2,8.57E2,1E0,1.5E1,1.4E1,2.378E3,7.9E1,3E1,5.93E2,6.2E1,1.12E2,7.45E2],"tree_param":{"num_deleted":"0","num_feature":"36","num_nodes":"21","size_leaf_vector":"1"}},{"base_weights":[-5.680975E-2,-9.165465E-2,1.9541115E-2,-9.866955E-2,-5.4214146E-2,1.0745766E-2,6.2777776E-1,-4.997784E-3,-5.921055E-2,-7.753089E-2,2.1714284E-1,-1.5581667E-2,9.003213E-2,4.153846E-2,8.333331E-2,1.2499999E-2,-4.2253532E-3,-4.4605276E-3,4.8076916E-3,3.4444444E-2,2.5925913E-3,-3.915345E-3,1.3349944E-5,3.4060392E-3,2.7499998E-2,-4.000001E-3,2.2499999E-2],"categories":[],"categories_nodes":[],"categories_segments":[],"categories_sizes":[],"default_left":[0,0,0,0,0,0,0,0,0,0,0,0,0,0,0,0,0,0,0,0,0,0,0,0,0,0,0],"id":48,"left_children":[1,3,5,7,9,11,13,-1,15,17,19,21,23,-1,25,-1,-1,-1,-1,-1,-1,-1,-1,-1,-1,-1,-1],"loss_changes":[1.0726017E1,7.2164154E-1,6.755216E0,1.1232567E-1,2.7944586E0,2.6043987E0,1.9200859E0,0E0,6.15595E-1,8.301523E-1,2.6934185E0,9.315032E-1,3.0969522E0,0E0,3.9533332E-1,0E0,0E0,0E0,0E0,0E0,0E0,0E0,0E0,0E0,0E0,0E0,0E0],"parents":[2147483647,0,0,1,1,2,2,3,3,4,4,5,5,6,6,8,8,9,9,10,10,11,11,12,12,14,14],"right_children":[2,4,6,8,10,12,14,-1,16,18,20,22,24,-1,26,-1,-1,-1,-1,-1,-1,-1,-1,-1,-1,-1,-1],"split_conditions":[1.521E1,9.9E0,2.802E1,1.341E1,1.616E1,1E0,7.1E1,-2.3140775E-1,1.205E1,1.84125E1,1.583E1,1.581E1,2.65E1,6.891594E-2,7.4E0,2.429824E-2,-3.8555183E-2,-7.77701E-2,1.5454781E-2,5.0023463E-2,3.1269433E-3,-1.7393542E-2,2.3186642E-4,1.0957501E-2,9.858612E-2,-1.0839462E-3,1.2971879E-3],"split_indices":[14,1,13,14,0,11,8,0,17,6,16,0,1,0,2,0,0,0,0,0,0,0,0,0,0,0,0],"split_type":[0,0,0,0,0,0,0,0,0,0,0,0,0,0,0,0,0,0,0,0,0,0,0,0,0,0,0],"sum_hessian":[4.03E3,2.767E3,1.263E3,2.329E3,4.38E2,1.246E3,1.7E1,2.254E3,7.5E1,4.04E2,3.4E1,9.36E2,3.1E2,1.2E1,5E0,5E0,7E1,3.79E2,2.5E1,8E0,2.6E1,1.88E2,7.48E2,2.97E2,1.3E1,4E0,1E0],"tree_param":{"num_deleted":"0","num_feature":"36","num_nodes":"27","size_leaf_vector":"1"}},{"base_weights":[-5.7305902E-2,-9.165465E-2,1.7958837E-2,-9.866955E-2,-5.4214146E-2,9.943841E-3,5.722222E-1,-4.997784E-3,-5.921055E-2,-7.753089E-2,2.1714284E-1,-1.3354724E-2,7.980767E-2,4.125E-2,5.7142835E-2,1.2499999E-2,-4.2253532E-3,-4.4605276E-3,4.8076916E-3,3.4444444E-2,2.5925913E-3,-4.5338995E-3,-1.09891305E-4,2.1578947E-2,2.840135E-3,-4.166668E-3,2.2499999E-2],"categories":[],"categories_nodes":[],"categories_segments":[],"categories_sizes":[],"default_left":[0,0,0,0,0,0,0,0,0,0,0,0,0,0,0,0,0,0,0,0,0,0,0,0,0,0,0],"id":49,"left_children":[1,3,5,7,9,11,13,-1,15,17,19,21,23,-1,25,-1,-1,-1,-1,-1,-1,-1,-1,-1,-1,-1,-1],"loss_changes":[1.0422787E1,7.2164154E-1,5.6095266E0,1.1232567E-1,2.7944586E0,2.0308414E0,2.2964678E0,0E0,6.15595E-1,8.301523E-1,2.6934185E0,8.072765E-1,2.5003414E0,0E0,4.2380953E-1,0E0,0E0,0E0,0E0,0E0,0E0,0E0,0E0,0E0,0E0,0E0,0E0],"parents":[2147483647,0,0,1,1,2,2,3,3,4,4,5,5,6,6,8,8,9,9,10,10,11,11,12,12,14,14],"right_children":[2,4,6,8,10,12,14,-1,16,18,20,22,24,-1,26,-1,-1,-1,-1,-1,-1,-1,-1,-1,-1,-1,-1],"split_conditions":[1.521E1,9.9E0,2.802E1,1.341E1,1.616E1,1E0,7.1E1,-2.1983734E-1,1.205E1,1.84125E1,1.583E1,1.57E1,8.63E0,6.547012E-2,7.4E0,2.3083305E-2,-3.6627423E-2,-7.388159E-2,1.4682019E-2,4.7522258E-2,2.9706357E-3,-2.0089477E-2,-1.4573206E-4,4.537274E-2,5.8858464E-3,-1.0297776E-3,1.232338E-3],"split_indices":[14,1,0,14,0,11,8,0,17,6,16,13,15,0,2,0,0,0,0,0,0,0,0,0,0,0,0],"split_type":[0,0,0,0,0,0,0,0,0,0,0,0,0,0,0,0,0,0,0,0,0,0,0,0,0,0,0],"sum_hessian":[4.03E3,2.767E3,1.263E3,2.329E3,4.38E2,1.246E3,1.7E1,2.254E3,7.5E1,4.04E2,3.4E1,9.35E2,3.11E2,1.1E1,6E0,5E0,7E1,3.79E2,2.5E1,8E0,2.6E1,1.17E2,8.18E2,1.8E1,2.93E2,5E0,1E0],"tree_param":{"num_deleted":"0","num_feature":"36","num_nodes":"27","size_leaf_vector":"1"}},{"base_weights":[-5.755398E-2,-9.201592E-2,1.7958837E-2,-9.866955E-2,-5.6492053E-2,9.943841E-3,5.722222E-1,-4.997784E-3,-5.921055E-2,-8.000002E-2,2.1714284E-1,6.6182166E-3,4.6666664E-1,4.125E-2,5.7142835E-2,1.2499999E-2,-4.2253532E-3,-4.468913E-3,5.249999E-3,3.4444444E-2,2.5925913E-3,-3.263838E-4,5.6204367E-3,3.142857E-2,-3.3333343E-3,-4.166668E-3,2.2499999E-2],"categories":[],"categories_nodes":[],"categories_segments":[],"categories_sizes":[],"default_left":[0,0,0,0,0,0,0,0,0,0,0,0,0,0,0,0,0,0,0,0,0,0,0,0,0,0,0],"id":50,"left_children":[1,3,5,7,9,11,13,-1,15,17,19,21,23,-1,25,-1,-1,-1,-1,-1,-1,-1,-1,-1,-1,-1,-1],"loss_changes":[1.0491597E1,6.486778E-1,5.6095266E0,1.1232567E-1,2.8412833E0,1.8909656E0,2.2964678E0,0E0,6.15595E-1,7.1204925E-1,2.6934185E0,1.7238244E0,8.190478E-1,0E0,4.2380953E-1,0E0,0E0,0E0,0E0,0E0,0E0,0E0,0E0,0E0,0E0,0E0,0E0],"parents":[2147483647,0,0,1,1,2,2,3,3,4,4,5,5,6,6,8,8,9,9,10,10,11,11,12,12,14,14],"right_children":[2,4,6,8,10,12,14,-1,16,18,20,22,24,-1,26,-1,-1,-1,-1,-1,-1,-1,-1,-1,-1,-1,-1],"split_conditions":[1.521E1,9.9E0,2.802E1,1.341E1,1.616E1,5.07E1,7.1E1,-2.0884548E-1,1.205E1,1.995E1,1.583E1,1.06E1,1.38E1,6.219654E-2,7.4E0,2.192912E-2,-3.4796037E-2,-6.9740355E-2,2.1501774E-2,4.514618E-2,2.8221486E-3,-2.3273486E-4,1.2758926E-2,1.2065859E-1,-4.910946E-3,-9.782792E-4,1.1707306E-3],"split_indices":[14,1,0,14,0,29,8,0,17,6,16,2,2,0,2,0,0,0,0,0,0,0,0,0,0,0,0],"split_type":[0,0,0,0,0,0,0,0,0,0,0,0,0,0,0,0,0,0,0,0,0,0,0,0,0,0,0],"sum_hessian":[4.03E3,2.767E3,1.263E3,2.329E3,4.38E2,1.246E3,1.7E1,2.254E3,7.5E1,4.04E2,3.4E1,1.238E3,8E0,1.1E1,6E0,5E0,7E1,3.85E2,1.9E1,8E0,2.6E1,1.102E3,1.36E2,6E0,2E0,5E0,1E0],"tree_param":{"num_deleted":"0","num_feature":"36","num_nodes":"27","size_leaf_vector":"1"}},{"base_weights":[-5.7305902E-2,-9.129338E-2,1.7167699E-2,-9.866955E-2,-5.1936243E-2,9.943841E-3,5.1666665E-1,-4.997784E-3,-5.921055E-2,-7.506175E-2,2.1714284E-1,6.6182166E-3,4.6666664E-1,4.0909093E-2,3.749998E-2,1.2499999E-2,-4.2253532E-3,-4.450403E-3,4.2424235E-3,3.4444444E-2,2.5925913E-3,-3.263838E-4,5.6204367E-3,3.142857E-2,-3.3333343E-3,-4.285715E-3,2.2499999E-2],"categories":[],"categories_nodes":[],"categories_segments":[],"categories_sizes":[],"default_left":[0,0,0,0,0,0,0,0,0,0,0,0,0,0,0,0,0,0,0,0,0,0,0,0,0,0,0],"id":51,"left_children":[1,3,5,7,9,11,13,-1,15,17,19,21,23,-1,25,-1,-1,-1,-1,-1,-1,-1,-1,-1,-1,-1,-1],"loss_changes":[1.0204712E1,7.98439E-1,4.555764E0,1.1232567E-1,2.7480164E0,1.8909656E0,2.5698862E0,0E0,6.15595E-1,9.107661E-1,2.6934185E0,1.7238244E0,8.190478E-1,0E0,4.4517857E-1,0E0,0E0,0E0,0E0,0E0,0E0,0E0,0E0,0E0,0E0,0E0,0E0],"parents":[2147483647,0,0,1,1,2,2,3,3,4,4,5,5,6,6,8,8,9,9,10,10,11,11,12,12,14,14],"right_children":[2,4,6,8,10,12,14,-1,16,18,20,22,24,-1,26,-1,-1,-1,-1,-1,-1,-1,-1,-1,-1,-1,-1],"split_conditions":[1.521E1,9.9E0,2.802E1,1.341E1,1.616E1,5.07E1,3.481232E-1,-1.9840322E-1,1.205E1,1.7954166E1,1.583E1,1.06E1,1.38E1,5.90868E-2,7.4E0,2.0832682E-2,-3.3056248E-2,-6.8520576E-2,7.2271614E-3,4.288883E-2,2.6810048E-3,-2.2110004E-4,1.2120946E-2,1.1462565E-1,-4.6653748E-3,-4.1313173E-4,1.112175E-3],"split_indices":[14,1,0,14,0,29,10,0,17,6,16,2,2,0,2,0,0,0,0,0,0,0,0,0,0,0,0],"split_type":[0,0,0,0,0,0,0,0,0,0,0,0,0,0,0,0,0,0,0,0,0,0,0,0,0,0,0],"sum_hessian":[4.03E3,2.767E3,1.263E3,2.329E3,4.38E2,1.246E3,1.7E1,2.254E3,7.5E1,4.04E2,3.4E1,1.238E3,8E0,1E1,7E0,5E0,7E1,3.72E2,3.2E1,8E0,2.6E1,1.102E3,1.36E2,6E0,2E0,6E0,1E0],"tree_param":{"num_deleted":"0","num_feature":"36","num_nodes":"27","size_leaf_vector":"1"}},{"base_weights":[-5.7305902E-2,-9.4830334E-2,6.208254E-3,-9.825087E-2,-5.2356046E-2,6.751956E-4,4.611111E-1,-9.86741E-2,5.7142835E-2,3.0999997E-1,-7.197805E-2,-2.2783712E-2,7.54237E-2,4.05E-2,2.22222E-2,-4.954937E-3,1.1111101E-3,-4.166668E-3,2.2499999E-2,2.9166667E-2,-4.000001E-3,-4.1340794E-3,2.125E-2,-3.783424E-3,1.7218424E-4,1.5090908E-2,1.6833323E-3,-4.375001E-3,2.2499999E-2],"categories":[],"categories_nodes":[],"categories_segments":[],"categories_sizes":[],"default_left":[0,0,0,0,0,0,0,0,0,0,0,0,0,0,0,0,0,0,0,0,0,0,0,0,0,0,0,0,0],"id":52,"left_children":[1,3,5,7,9,11,13,15,17,19,21,23,25,-1,27,-1,-1,-1,-1,-1,-1,-1,-1,-1,-1,-1,-1,-1,-1],"loss_changes":[9.607801E0,3.630123E-1,3.7701604E0,1.5979576E-1,1.3803518E0,2.598679E0,2.7382221E0,1.22226715E-1,4.2380953E-1,1.1126667E0,1.0032752E0,1.5648301E0,3.3364022E0,0E0,4.6180555E-1,0E0,0E0,0E0,0E0,0E0,0E0,0E0,0E0,0E0,0E0,0E0,0E0,0E0,0E0],"parents":[2147483647,0,0,1,1,2,2,3,3,4,4,5,5,6,6,7,7,8,8,9,9,10,10,11,11,12,12,14,14],"right_children":[2,4,6,8,10,12,14,16,18,20,22,24,26,-1,28,-1,-1,-1,-1,-1,-1,-1,-1,-1,-1,-1,-1,-1,-1],"split_conditions":[1.305E1,1.079E1,2.802E1,1.716E1,5.07E0,1E0,3.461522E-1,1.446E1,1.598E1,8.7225E1,2.1E-1,1.793E1,1.403E1,5.6132507E-2,7.4E0,-1.8498306E-1,3.0035114E-2,-1.7077962E-1,9.425402E-3,9.8463155E-2,-7.0760205E-2,-9.765512E-2,2.4391746E-2,-3.133338E-2,2.2811818E-4,3.928337E-2,4.7179195E-3,-3.9253235E-4,1.0564805E-3],"split_indices":[14,1,0,23,21,11,10,21,0,9,4,14,20,0,2,0,0,0,0,0,0,0,0,0,0,0,0,0,0],"split_type":[0,0,0,0,0,0,0,0,0,0,0,0,0,0,0,0,0,0,0,0,0,0,0,0,0,0,0,0,0],"sum_hessian":[4.03E3,2.533E3,1.497E3,2.343E3,1.9E2,1.48E3,1.7E1,2.337E3,6E0,9E0,1.81E2,1.127E3,3.53E2,9E0,8E0,2.329E3,8E0,5E0,1E0,5E0,4E0,1.78E2,3E0,3.73E2,7.54E2,5.4E1,2.99E2,7E0,1E0],"tree_param":{"num_deleted":"0","num_feature":"36","num_nodes":"29","size_leaf_vector":"1"}},{"base_weights":[-5.755398E-2,-9.273214E-2,8.33331E-3,-9.457903E-2,8.214284E-2,2.45131E-3,4.611111E-1,-9.906917E-2,-6.502893E-2,-4.78261E-3,3.75E-2,5.833333E-1,-7.2382725E-5,4.05E-2,2.22222E-2,-4.9755457E-3,1.874999E-3,3E-2,-3.531978E-3,3.6E-2,-2.5000006E-3,-2.7906988E-3,1.0793161E-3,-4.375001E-3,2.2499999E-2],"categories":[],"categories_nodes":[],"categories_segments":[],"categories_sizes":[],"default_left":[0,0,0,0,0,0,0,0,0,0,0,0,0,0,0,0,0,0,0,0,0,0,0,0,0],"id":53,"left_children":[1,3,5,7,9,11,13,15,17,-1,-1,19,21,-1,23,-1,-1,-1,-1,-1,-1,-1,-1,-1,-1],"loss_changes":[9.343799E0,8.565483E-1,3.738057E0,3.3867073E-1,3.3965063E0,2.0333393E0,2.7382221E0,1.3983345E-1,1.3333904E0,0E0,0E0,5.553334E-1,1.6696805E0,0E0,4.6180555E-1,0E0,0E0,0E0,0E0,0E0,0E0,0E0,0E0,0E0,0E0],"parents":[2147483647,0,0,1,1,2,2,3,3,4,4,5,5,6,6,7,7,8,8,11,11,12,12,14,14],"right_children":[2,4,6,8,10,12,14,16,18,-1,-1,20,22,-1,24,-1,-1,-1,-1,-1,-1,-1,-1,-1,-1],"split_conditions":[1.387E1,1.659E1,2.802E1,1.091E1,7.18E1,9.2E0,3.461522E-1,2.1092084E2,1.509E1,-2.3629943E-1,1.3286066E-2,1.1125E1,1.593E1,5.3325843E-2,7.4E0,-2.2538315E-1,3.9238073E-2,3.270593E-2,-5.165109E-2,8.7636665E-2,-8.816185E-2,-1.646352E-2,1.6157083E-3,-3.7288666E-4,1.0036469E-3],"split_indices":[14,0,0,14,9,17,10,9,24,0,0,3,0,0,2,0,0,0,0,0,0,0,0,0,0],"split_type":[0,0,0,0,0,0,0,0,0,0,0,0,0,0,0,0,0,0,0,0,0,0,0,0,0],"sum_hessian":[4.03E3,2.627E3,1.403E3,2.6E3,2.7E1,1.386E3,1.7E1,2.255E3,3.45E2,2.2E1,5E0,5E0,1.381E3,9E0,8E0,2.248E3,7E0,2E0,3.43E2,4E0,1E0,3.86E2,9.95E2,7E0,1E0],"tree_param":{"num_deleted":"0","num_feature":"36","num_nodes":"25","size_leaf_vector":"1"}},{"base_weights":[-5.755398E-2,-9.44357E-2,4.8731402E-3,-9.859349E-2,-6.646528E-2,-2.382576E-8,4.0555555E-1,-9.9045046E-2,8.333331E-2,-8.642387E-2,1.3666664E-1,-2.0124137E-2,6.412427E-2,4E-2,9.999978E-3,-4.9976683E-3,-3.1578958E-3,-4.000001E-3,2.2499999E-2,-4.3478375E-4,-4.6250015E-3,-2.1052645E-3,2.0416666E-2,-3.5160442E-3,2.3840941E-4,1.1513157E-2,9.318984E-4,-4.444446E-3,2.2499999E-2],"categories":[],"categories_nodes":[],"categories_segments":[],"categories_sizes":[],"default_left":[0,0,0,0,0,0,0,0,0,0,0,0,0,0,0,0,0,0,0,0,0,0,0,0,0,0,0,0,0],"id":54,"left_children":[1,3,5,7,9,11,13,15,17,19,21,23,25,-1,27,-1,-1,-1,-1,-1,-1,-1,-1,-1,-1,-1,-1,-1,-1],"loss_changes":[9.281514E0,2.8813744E-1,2.9249814E0,1.8931198E-1,1.35376E0,1.9124389E0,2.8004446E0,6.5366745E-2,3.9533332E-1,1.4182663E-1,1.4741844E0,1.4097868E0,2.6709013E0,0E0,4.7511113E-1,0E0,0E0,0E0,0E0,0E0,0E0,0E0,0E0,0E0,0E0,0E0,0E0,0E0,0E0],"parents":[2147483647,0,0,1,1,2,2,3,3,4,4,5,5,6,6,7,7,8,8,9,9,10,10,11,11,12,12,14,14],"right_children":[2,4,6,8,10,12,14,16,18,20,22,24,26,-1,28,-1,-1,-1,-1,-1,-1,-1,-1,-1,-1,-1,-1,-1,-1],"split_conditions":[1.305E1,1.04E1,2.802E1,2.1092084E2,8.8E0,1E0,3.4533206E-1,2.11E1,1.0105E1,5.65E0,3.634272E-1,1.793E1,1.594E1,5.0659563E-2,7.4E0,-2.3746477E-1,-8.681474E-2,-6.758833E-2,3.7276175E-2,1.4124945E-3,-7.9340376E-2,-5.544895E-3,3.1106854E-2,-2.8601551E-2,1.9516886E-4,3.0901356E-2,3.6662188E-3,-1.5735626E-4,9.5348357E-4],"split_indices":[14,14,0,9,2,11,10,29,1,23,10,14,22,0,2,0,0,0,0,0,0,0,0,0,0,0,0,0,0],"split_type":[0,0,0,0,0,0,0,0,0,0,0,0,0,0,0,0,0,0,0,0,0,0,0,0,0,0,0,0,0],"sum_hessian":[4.03E3,2.533E3,1.497E3,2.203E3,3.3E2,1.48E3,1.7E1,2.198E3,5E0,3.01E2,2.9E1,1.127E3,3.53E2,8E0,9E0,2.142E3,5.6E1,4E0,1E0,2.2E1,2.79E2,1.8E1,1.1E1,3.73E2,7.54E2,7.5E1,2.78E2,8E0,1E0],"tree_param":{"num_deleted":"0","num_feature":"36","num_nodes":"29","size_leaf_vector":"1"}},{"base_weights":[-5.680975E-2,-9.285717E-2,4.2055836E-3,-9.437802E-2,5.1851828E-2,-6.7524327E-4,4.0555555E-1,-9.738088E-2,-5.5000022E-2,-4.78261E-3,3.6E-2,2.8571427E-1,-4.7912626E-3,4E-2,9.999978E-3,-4.890229E-3,2.857142E-3,-4.0935683E-3,2.0499999E-2,2.6153846E-2,-4.444446E-3,-3.1099208E-3,7.438005E-4,-4.444446E-3,2.2499999E-2],"categories":[],"categories_nodes":[],"categories_segments":[],"categories_sizes":[],"default_left":[0,0,0,0,0,0,0,0,0,0,0,0,0,0,0,0,0,0,0,0,0,0,0,0,0],"id":55,"left_children":[1,3,5,7,9,11,13,15,17,-1,-1,19,21,-1,23,-1,-1,-1,-1,-1,-1,-1,-1,-1,-1],"loss_changes":[8.866354E0,5.625763E-1,2.9347353E0,2.9120636E-1,2.7298422E0,1.7471492E0,2.8004446E0,1.5807724E-1,2.2826986E0,0E0,0E0,1.9137486E0,1.6504557E0,0E0,4.7511113E-1,0E0,0E0,0E0,0E0,0E0,0E0,0E0,0E0,0E0,0E0],"parents":[2147483647,0,0,1,1,2,2,3,3,4,4,5,5,6,6,7,7,8,8,11,11,12,12,14,14],"right_children":[2,4,6,8,10,12,14,16,18,-1,-1,20,22,-1,24,-1,-1,-1,-1,-1,-1,-1,-1,-1,-1],"split_conditions":[1.305E1,1.659E1,2.802E1,1.092E1,7.18E1,5.12E0,3.4533206E-1,1.716E1,3.851147E-1,-2.126112E-1,1.1066437E-2,1.5992857E1,1.587E1,4.8126604E-2,7.4E0,-1.5824154E-1,1.5503692E-2,-8.07034E-2,2.9515266E-2,7.0722125E-2,-1.1867523E-3,-1.8037712E-2,1.2530384E-3,-1.4953614E-4,9.0579985E-4],"split_indices":[14,0,0,1,9,18,10,23,28,0,0,33,0,0,2,0,0,0,0,0,0,0,0,0,0],"split_type":[0,0,0,0,0,0,0,0,0,0,0,0,0,0,0,0,0,0,0,0,0,0,0,0,0],"sum_hessian":[4.03E3,2.533E3,1.497E3,2.507E3,2.6E1,1.48E3,1.7E1,2.328E3,1.79E2,2.2E1,4E0,2E1,1.46E3,8E0,9E0,2.322E3,6E0,1.7E2,9E0,1.2E1,8E0,3.72E2,1.088E3,8E0,1E0],"tree_param":{"num_deleted":"0","num_feature":"36","num_nodes":"25","size_leaf_vector":"1"}},{"base_weights":[-5.7057828E-2,-9.246253E-2,2.87047E-3,-9.397929E-2,5.1851828E-2,-1.3504627E-3,3.4999996E-1,-9.588262E-2,-8.928595E-3,-4.78261E-3,3.6E-2,-4.923079E-2,1.9863658E-2,4E-2,-4.500001E-3,-4.814211E-3,5.999999E-3,2.9166667E-2,-3.92157E-3,-1.05933395E-4,-4.977274E-3,1.0608107E-2,2.4633005E-4],"categories":[],"categories_nodes":[],"categories_segments":[],"categories_sizes":[],"default_left":[0,0,0,0,0,0,0,0,0,0,0,0,0,0,0,0,0,0,0,0,0,0,0],"id":56,"left_children":[1,3,5,7,9,11,13,15,17,-1,-1,19,21,-1,-1,-1,-1,-1,-1,-1,-1,-1,-1],"loss_changes":[8.553016E0,5.595379E-1,2.1953578E0,4.051361E-1,2.7298422E0,1.5052875E0,3.636E0,2.2422981E-1,2.3509278E0,0E0,0E0,1.0783355E0,2.948882E0,0E0,0E0,0E0,0E0,0E0,0E0,0E0,0E0,0E0,0E0],"parents":[2147483647,0,0,1,1,2,2,3,3,4,4,5,5,6,6,7,7,8,8,11,11,12,12],"right_children":[2,4,6,8,10,12,14,16,18,-1,-1,20,22,-1,-1,-1,-1,-1,-1,-1,-1,-1,-1],"split_conditions":[1.305E1,1.659E1,2.802E1,1.355E1,7.18E1,1.593E1,1.4353334E2,1.38E1,5.97E0,-2.0198064E-1,1.0513115E-2,1.94E1,1.5847857E1,4.572029E-2,-1.4209752E-4,-1.430581E-1,2.8039504E-2,1.00434974E-1,-6.5886356E-2,-8.329473E-5,-2.2926332E-2,1.9738957E-2,2.4980324E-4],"split_indices":[14,0,0,1,9,0,27,12,23,0,0,3,35,0,0,0,0,0,0,0,0,0,0],"split_type":[0,0,0,0,0,0,0,0,0,0,0,0,0,0,0,0,0,0,0,0,0,0,0],"sum_hessian":[4.03E3,2.533E3,1.497E3,2.507E3,2.6E1,1.48E3,1.7E1,2.452E3,5.5E1,2.2E1,4E0,4.54E2,1.026E3,8E0,9E0,2.448E3,4E0,5E0,5E1,2.35E2,2.19E2,7.3E1,9.53E2],"tree_param":{"num_deleted":"0","num_feature":"36","num_nodes":"23","size_leaf_vector":"1"}},{"base_weights":[-5.780206E-2,-9.246253E-2,8.677999E-4,-9.397929E-2,5.1851828E-2,-3.3108345E-3,3.2631576E-1,-9.738088E-2,-4.9444467E-2,-4.78261E-3,3.6E-2,-6.480242E-3,3.0666664E-1,3.9375E-2,-8.333355E-3,-4.890229E-3,2.857142E-3,-3.8011707E-3,2.0499999E-2,-2.7380965E-3,5.1423203E-4,4.5454535E-3,3.6E-2,-4.545456E-3,2.2499999E-2],"categories":[],"categories_nodes":[],"categories_segments":[],"categories_sizes":[],"default_left":[0,0,0,0,0,0,0,0,0,0,0,0,0,0,0,0,0,0,0,0,0,0,0,0,0],"id":57,"left_children":[1,3,5,7,9,11,13,15,17,-1,-1,19,21,-1,23,-1,-1,-1,-1,-1,-1,-1,-1,-1,-1],"loss_changes":[8.197221E0,5.595379E-1,2.0382526E0,3.7511826E-1,2.7298422E0,1.4560057E0,2.9389257E0,1.5807724E-1,2.2292485E0,0E0,0E0,1.1871977E0,1.2722424E0,0E0,4.9507576E-1,0E0,0E0,0E0,0E0,0E0,0E0,0E0,0E0,0E0,0E0],"parents":[2147483647,0,0,1,1,2,2,3,3,4,4,5,5,6,6,7,7,8,8,11,11,12,12,14,14],"right_children":[2,4,6,8,10,12,14,16,18,-1,-1,20,22,-1,24,-1,-1,-1,-1,-1,-1,-1,-1,-1,-1],"split_conditions":[1.305E1,1.659E1,3.717E1,1.092E1,7.18E1,3.46E1,1.4353334E2,1.716E1,3.851147E-1,-1.918816E-1,9.98745E-3,1.587E1,9.3379166E1,4.3434333E-2,2.65E1,-1.4317659E-1,2.188139E-2,-6.990119E-2,2.987647E-2,-1.562872E-2,8.3403196E-4,7.112592E-2,1.03756145E-1,-1.5472417E-4,7.9345703E-4],"split_indices":[14,0,14,1,9,2,27,23,28,0,0,0,8,0,1,0,0,0,0,0,0,0,0,0,0],"split_type":[0,0,0,0,0,0,0,0,0,0,0,0,0,0,0,0,0,0,0,0,0,0,0,0,0],"sum_hessian":[4.03E3,2.533E3,1.497E3,2.507E3,2.6E1,1.479E3,1.8E1,2.328E3,1.79E2,2.2E1,4E0,1.465E3,1.4E1,7E0,1.1E1,2.322E3,6E0,1.7E2,9E0,3.77E2,1.088E3,1E1,4E0,1E1,1E0],"tree_param":{"num_deleted":"0","num_feature":"36","num_nodes":"25","size_leaf_vector":"1"}},{"base_weights":[-5.755398E-2,-9.600879E-2,-7.4771927E-3,-9.903628E-2,-3.0392181E-2,-2.8656296E-2,6.280786E-2,-4.9740947E-3,-8.0701776E-2,-6.836737E-2,3.6E-2,-7.7126674E-2,2.6861788E-3,2.6093748E-1,2.5655953E-2,-4.9107154E-3,2.2499999E-2,-4.408603E-3,1.2499999E-2,1.0499999E-2,-4.1250014E-3,9.428571E-3,-2.8025598E-4,2.8611109E-2,6.8085096E-3,3.2361273E-5,1.2285713E-2],"categories":[],"categories_nodes":[],"categories_segments":[],"categories_sizes":[],"default_left":[0,0,0,0,0,0,0,0,0,0,0,0,0,0,0,0,0,0,0,0,0,0,0,0,0,0,0],"id":58,"left_children":[1,3,5,7,9,11,13,-1,15,17,-1,19,21,23,25,-1,-1,-1,-1,-1,-1,-1,-1,-1,-1,-1,-1],"loss_changes":[7.761754E0,4.4991875E-1,2.6097822E0,9.775162E-3,2.9558454E0,2.0465446E0,2.9818282E0,0E0,5.739505E-1,6.399496E-1,0E0,8.3348274E-1,1.2633241E0,2.407722E0,1.8874998E0,0E0,0E0,0E0,0E0,0E0,0E0,0E0,0E0,0E0,0E0,0E0,0E0],"parents":[2147483647,0,0,1,1,2,2,3,3,4,4,5,5,6,6,8,8,9,9,11,11,12,12,13,13,14,14],"right_children":[2,4,6,8,10,12,14,-1,16,18,-1,20,22,24,26,-1,-1,-1,-1,-1,-1,-1,-1,-1,-1,-1,-1],"split_conditions":[1.091E1,1.69E1,1E0,1.215E1,1.6135E1,1.704E1,9.445714E0,-1.8609256E-1,1.614E1,1.394E1,2.2345638E-2,9.47E0,8.673572E0,1.5608571E1,2.02E2,-1.0376259E-1,9.652376E-3,-1.06877446E-1,4.62369E-2,4.5049854E-2,-3.8066536E-2,5.8380584E-3,-2.2468933E-4,4.9395304E-2,2.6747108E-2,7.2477735E-4,4.4949956E-2],"split_indices":[14,29,11,1,35,14,34,0,13,1,0,17,34,35,9,0,0,0,0,0,0,0,0,0,0,0,0],"split_type":[0,0,0,0,0,0,0,0,0,0,0,0,0,0,0,0,0,0,0,0,0,0,0,0,0,0,0],"sum_hessian":[4.03E3,2.279E3,1.751E3,2.178E3,1.01E2,1.346E3,4.05E2,2.122E3,5.6E1,9.7E1,4E0,5.28E2,8.18E2,6.3E1,3.42E2,5.5E1,1E0,9.2E1,5E0,9E0,5.19E2,3.4E1,7.84E2,1.7E1,4.6E1,3.08E2,3.4E1],"tree_param":{"num_deleted":"0","num_feature":"36","num_nodes":"27","size_leaf_vector":"1"}},{"base_weights":[-5.854629E-2,-9.172551E-2,-1.4170279E-3,-9.613262E-2,-3.8888913E-2,-5.1806644E-3,3.4374997E-1,-9.901734E-2,-6.728113E-2,2.6399997E-1,-8.2183935E-2,-1.4914267E-2,9.763777E-2,-4.166668E-3,5.454545E-1,-4.9739843E-3,-2.7083345E-3,-3.802818E-3,1.6E-2,3.6111102E-3,3.3125E-2,-4.393065E-3,2.2499999E-2,3.312101E-3,-1.2827016E-3,1.174603E-2,-1.846155E-3,3.857143E-2,5.999999E-3],"categories":[],"categories_nodes":[],"categories_segments":[],"categories_sizes":[],"default_left":[0,0,0,0,0,0,0,0,0,0,0,0,0,0,0,0,0,0,0,0,0,0,0,0,0,0,0,0,0],"id":59,"left_children":[1,3,5,7,9,11,13,15,17,19,21,23,25,-1,27,-1,-1,-1,-1,-1,-1,-1,-1,-1,-1,-1,-1,-1,-1],"loss_changes":[7.640648E0,5.90044E-1,1.9270222E0,1.8917656E-1,2.6181853E0,1.4696206E0,1.423769E0,3.892517E-2,7.6180845E-1,1.8627388E0,5.652616E-1,1.1705142E0,2.354732E0,0E0,9.649868E-1,0E0,0E0,0E0,0E0,0E0,0E0,0E0,0E0,0E0,0E0,0E0,0E0,0E0,0E0],"parents":[2147483647,0,0,1,1,2,2,3,3,4,4,5,5,6,6,7,7,8,8,9,9,10,10,11,11,12,12,14,14],"right_children":[2,4,6,8,10,12,14,16,18,20,22,24,26,-1,28,-1,-1,-1,-1,-1,-1,-1,-1,-1,-1,-1,-1,-1,-1],"split_conditions":[1.325E1,1.079E1,3.46E1,1.057E1,7.15E0,2.371E1,1.402E1,1.659E1,1.69E1,1.81E1,1.68E0,7.36E0,2.403E1,-2.4111463E-2,1.51992855E1,-1.8726312E-1,-1.5974097E-1,-3.4702398E-2,5.0447036E-2,5.6298166E-3,2.863121E-2,-8.1451066E-2,2.8346395E-2,4.9481248E-3,-1.9249922E-3,3.3500627E-2,-3.505708E-4,9.632082E-2,1.2226487E-2],"split_indices":[14,1,2,14,18,1,1,0,2,6,4,23,18,0,34,0,0,0,0,0,0,0,0,0,0,0,0,0,0],"split_type":[0,0,0,0,0,0,0,0,0,0,0,0,0,0,0,0,0,0,0,0,0,0,0,0,0,0,0,0,0],"sum_hessian":[4.03E3,2.549E3,1.481E3,2.352E3,1.97E2,1.466E3,1.5E1,2.136E3,2.16E2,2.4E1,1.73E2,1.34E3,1.26E2,5E0,1E1,2.113E3,2.3E1,2.12E2,4E0,1.7E1,7E0,1.72E2,1E0,1.56E2,1.184E3,6.2E1,6.4E1,6E0,4E0],"tree_param":{"num_deleted":"0","num_feature":"36","num_nodes":"29","size_leaf_vector":"1"}},{"base_weights":[-5.9786677E-2,-9.177711E-2,-3.7517291E-3,-4.9972865E-3,-7.089657E-2,5.833333E-1,-6.160188E-3,-7.482617E-2,3.4285712E-1,3.6E-2,-2.5000006E-3,-5.913046E-2,1.0205884E-2,-4.561857E-3,-2.5362437E-4,3.3749998E-2,-3.7500008E-3,-4.71795E-3,-6.6225283E-4,3.227261E-4,1.1944443E-2],"categories":[],"categories_nodes":[],"categories_segments":[],"categories_sizes":[],"default_left":[0,0,0,0,0,0,0,0,0,0,0,0,0,0,0,0,0,0,0,0,0],"id":60,"left_children":[1,3,5,-1,7,9,11,13,15,-1,-1,17,19,-1,-1,-1,-1,-1,-1,-1,-1],"loss_changes":[7.2255526E0,4.3058395E-1,2.0764737E0,0E0,1.2044213E0,5.553334E-1,1.2671669E0,8.2259464E-1,1.0221429E0,0E0,0E0,5.564344E-1,9.567021E-1,0E0,0E0,0E0,0E0,0E0,0E0,0E0,0E0],"parents":[2147483647,0,0,1,1,2,2,4,4,5,5,6,6,7,7,8,8,11,11,12,12],"right_children":[2,4,6,-1,8,10,12,14,16,-1,-1,18,20,-1,-1,-1,-1,-1,-1,-1,-1],"split_conditions":[1.341E1,8.09E0,9.2E0,-2.686999E-1,1.653E1,1.1125E1,8.0125E0,1E0,5.87E0,6.84515E-2,-8.549795E-2,1.64E1,2.802E1,-7.319989E-2,-1.7238737E-4,1.3768911E-2,-9.018898E-4,-2.8322322E-2,-1.2281613E-3,8.8481157E-4,3.959885E-2],"split_indices":[14,14,17,0,0,3,7,11,12,0,0,13,0,0,0,0,