{"learner":{"attributes":{"scikit_learn":"{\"_estimator_type\": \"regressor\"}"},"feature_names":["grafton_level","hermann_level","daily_precip","daily_temp_avg","daily_snowfall","daily_humidity","daily_wind","precip_7d","precip_14d","precip_30d","soil_deep_30d","heavy_rain_48h","hermann_lag1d","grafton_lag1d","target_lag1d","hermann_lag2d","grafton_lag2d","target_lag2d","hermann_lag3d","grafton_lag3d","target_lag3d","hermann_lag5d","grafton_lag5d","hermann_lag7d","grafton_lag7d","precip_7d_lag1d","precip_14d_lag1d","precip_30d_lag1d","soil_deep_30d_lag1d","daily_precip_lag1d","hermann_ma3d","grafton_ma3d","hermann_ma7d","grafton_ma7d","hermann_ma14d","grafton_ma14d"],"feature_types":["float","float","float","float","float","float","float","float","float","float","float","int","float","float","float","float","float","float","float","float","float","float","float","float","float","float","float","float","float","float","float","float","float","float","float","float"],"gradient_booster":{"model":{"cats":{"enc":[],"feature_segments":[],"sorted_idx":[]},"gbtree_model_param":{"num_parallel_tree":"1","num_trees":"300"},"iteration_indptr":[0,1,2,3,4,5,6,7,8,9,10,11,12,13,14,15,16,17,18,19,20,21,22,23,24,25,26,27,28,29,30,31,32,33,34,35,36,37,38,39,40,41,42,43,44,45,46,47,48,49,50,51,52,53,54,55,56,57,58,59,60,61,62,63,64,65,66,67,68,69,70,71,72,73,74,75,76,77,78,79,80,81,82,83,84,85,86,87,88,89,90,91,92,93,94,95,96,97,98,99,100,101,102,103,104,105,106,107,108,109,110,111,112,113,114,115,116,117,118,119,120,121,122,123,124,125,126,127,128,129,130,131,132,133,134,135,136,137,138,139,140,141,142,143,144,145,146,147,148,149,150,151,152,153,154,155,156,157,158,159,160,161,162,163,164,165,166,167,168,169,170,171,172,173,174,175,176,177,178,179,180,181,182,183,184,185,186,187,188,189,190,191,192,193,194,195,196,197,198,199,200,201,202,203,204,205,206,207,208,209,210,211,212,213,214,215,216,217,218,219,220,221,222,223,224,225,226,227,228,229,230,231,232,233,234,235,236,237,238,239,240,241,242,243,244,245,246,247,248,249,250,251,252,253,254,255,256,257,258,259,260,261,262,263,264,265,266,267,268,269,270,271,272,273,274,275,276,277,278,279,280,281,282,283,284,285,286,287,288,289,290,291,292,293,294,295,296,297,298,299,300],"tree_info":[0,0,0,0,0,0,0,0,0,0,0,0,0,0,0,0,0,0,0,0,0,0,0,0,0,0,0,0,0,0,0,0,0,0,0,0,0,0,0,0,0,0,0,0,0,0,0,0,0,0,0,0,0,0,0,0,0,0,0,0,0,0,0,0,0,0,0,0,0,0,0,0,0,0,0,0,0,0,0,0,0,0,0,0,0,0,0,0,0,0,0,0,0,0,0,0,0,0,0,0,0,0,0,0,0,0,0,0,0,0,0,0,0,0,0,0,0,0,0,0,0,0,0,0,0,0,0,0,0,0,0,0,0,0,0,0,0,0,0,0,0,0,0,0,0,0,0,0,0,0,0,0,0,0,0,0,0,0,0,0,0,0,0,0,0,0,0,0,0,0,0,0,0,0,0,0,0,0,0,0,0,0,0,0,0,0,0,0,0,0,0,0,0,0,0,0,0,0,0,0,0,0,0,0,0,0,0,0,0,0,0,0,0,0,0,0,0,0,0,0,0,0,0,0,0,0,0,0,0,0,0,0,0,0,0,0,0,0,0,0,0,0,0,0,0,0,0,0,0,0,0,0,0,0,0,0,0,0,0,0,0,0,0,0,0,0,0,0,0,0,0,0,0,0,0,0,0,0,0,0,0,0,0,0,0,0,0,0,0,0,0,0,0,0,0,0,0,0,0,0],"trees":[{"base_weights":[-0E0,-4.274953E-1,4.2271882E-1,-4.5874587E-1,1.7721519E-1,1.4551084E-1,4.9185416E-1,-4.8267898E-1,-3.1336406E-1,-3.3333334E-1,3.559322E-1,-1.0752688E-1,2.4675325E-1,2.7272728E-1,4.9335417E-1,-2.4209715E-2,1.6666668E-2,-1.8020306E-2,7.1428576E-3,1.875E-2,-2.3611112E-2,-2.0833334E-2,2.175926E-2,-8.433735E-3,1.818182E-2,3.7790698E-3,1.729452E-2,-1.6666668E-2,2.2222223E-2,2.2466216E-2,2.4933746E-2],"categories":[],"categories_nodes":[],"categories_segments":[],"categories_sizes":[],"default_left":[0,0,0,0,0,0,0,0,0,0,0,0,0,0,0,0,0,0,0,0,0,0,0,0,0,0,0,0,0,0,0],"id":0,"left_children":[1,3,5,7,9,11,13,15,17,19,21,23,25,27,29,-1,-1,-1,-1,-1,-1,-1,-1,-1,-1,-1,-1,-1,-1,-1,-1],"loss_changes":[5.7899585E2,3.018509E1,3.080304E1,5.1200867E0,7.3268976E0,8.301194E0,2.8912354E-1,1.7676392E0,4.7086487E0,2.2430556E0,3.793942E0,2.7407222E0,3.8938112E0,1.2929294E0,7.556152E-2,0E0,0E0,0E0,0E0,0E0,0E0,0E0,0E0,0E0,0E0,0E0,0E0,0E0,0E0,0E0,0E0],"parents":[2147483647,0,0,1,1,2,2,3,3,4,4,5,5,6,6,7,7,8,8,9,9,10,10,11,11,12,12,13,13,14,14],"right_children":[2,4,6,8,10,12,14,16,18,20,22,24,26,28,30,-1,-1,-1,-1,-1,-1,-1,-1,-1,-1,-1,-1,-1,-1,-1,-1],"split_conditions":[9.2E0,1.079E1,1.205E1,7.22E0,2.5727564E-1,6.86E0,1.5254286E1,1.142E1,1.139125E2,1.9208334E1,1.551E1,5.1E0,1.569E1,8.12E0,8.74E0,-3.21E-1,2.9250002E-2,-9.499999E-2,4.450002E-2,7.200003E-2,-1.635E-1,-6.9999985E-2,3.0650002E-1,-3.575001E-2,5.7250023E-2,1.6499996E-2,6.65E-2,-5.524999E-2,2.4350002E-1,1.585E-1,6.3799995E-1],"split_indices":[20,1,20,20,28,1,33,12,9,3,13,2,13,1,1,0,0,0,0,0,0,0,0,0,0,0,0,0,0,0,0],"split_type":[0,0,0,0,0,0,0,0,0,0,0,0,0,0,0,0,0,0,0,0,0,0,0,0,0,0,0,0,0,0,0],"sum_hessian":[3.202E3,1.592E3,1.61E3,1.514E3,7.8E1,3.22E2,1.288E3,1.298E3,2.16E2,2E1,5.8E1,9.2E1,2.3E2,1E1,1.278E3,1.296E3,2E0,1.96E2,2E1,3E0,1.7E1,5E0,5.3E1,8.2E1,1E1,8.5E1,1.45E2,2E0,8E0,1.47E2,1.131E3],"tree_param":{"num_deleted":"0","num_feature":"36","num_nodes":"31","size_leaf_vector":"1"}},{"base_weights":[4.0637697E-3,-4.5867E-1,4.7203016E-1,-4.8235685E-1,-1.25E-1,2.4060151E-1,4.9280328E-1,-4.874406E-1,-2.1666667E-1,-1.9753087E-1,8.928572E-2,2.9545453E-1,-2.0833334E-2,-0E0,4.941581E-1,-2.4600696E-2,-1.3970588E-2,-2.125E-2,9.09091E-3,-1.1111111E-3,-2.0270271E-2,1.8421052E-2,-2.2499999E-2,3.4090912E-3,1.741573E-2,2.1875E-2,-1.1764706E-2,-1.6666668E-2,1.6666668E-2,2.1542555E-2,2.4908224E-2],"categories":[],"categories_nodes":[],"categories_segments":[],"categories_sizes":[],"default_left":[0,0,0,0,0,0,0,0,0,0,0,0,0,0,0,0,0,0,0,0,0,0,0,0,0,0,0,0,0,0,0],"id":1,"left_children":[1,3,5,7,9,11,13,15,17,19,21,23,25,27,29,-1,-1,-1,-1,-1,-1,-1,-1,-1,-1,-1,-1,-1,-1,-1,-1],"loss_changes":[6.9294025E2,1.2656586E1,7.5301514E0,1.9231567E0,1.6962082E0,1.9134417E0,9.740906E-1,1.2638855E0,2.567803E0,2.942809E0,4.3807335E0,1.2977524E0,2.4620097E0,6.666667E-1,1.5438843E-1,0E0,0E0,0E0,0E0,0E0,0E0,0E0,0E0,0E0,0E0,0E0,0E0,0E0,0E0,0E0,0E0],"parents":[2147483647,0,0,1,1,2,2,3,3,4,4,5,5,6,6,7,7,8,8,9,9,10,10,11,11,12,12,13,13,14,14],"right_children":[2,4,6,8,10,12,14,16,18,20,22,24,26,28,30,-1,-1,-1,-1,-1,-1,-1,-1,-1,-1,-1,-1,-1,-1,-1,-1],"split_conditions":[9.47E0,8.48E0,1.048E1,1.092E1,9.18E0,1.099E1,2.31E0,2.55E1,7E-1,7.21E0,1.133E1,1.549E1,1.5528571E1,6.35E0,1.141E1,-2.8094998E-1,-1.8295E-1,-1.02E-1,3.7424993E-2,-5.9998035E-4,-3.348124E-2,3.3675026E-2,-4.7324944E-2,9.787512E-3,3.9475013E-2,4.017501E-2,-2.2399975E-2,-2.3081232E-2,1.0261252E-1,6.607504E-2,5.3810006E-1],"split_indices":[14,14,14,1,1,18,23,2,29,23,15,0,35,1,14,0,0,0,0,0,0,0,0,0,0,0,0,0,0,0,0],"split_type":[0,0,0,0,0,0,0,0,0,0,0,0,0,0,0,0,0,0,0,0,0,0,0,0,0,0,0,0,0,0,0],"sum_hessian":[3.198E3,1.608E3,1.59E3,1.501E3,1.07E2,1.32E2,1.458E3,1.472E3,2.9E1,8E1,2.7E1,1.09E2,2.3E1,4E0,1.454E3,1.439E3,3.3E1,1.9E1,1E1,4.4E1,3.6E1,1.8E1,9E0,2.1E1,8.8E1,7E0,1.6E1,2E0,2E0,9.3E1,1.361E3],"tree_param":{"num_deleted":"0","num_feature":"36","num_nodes":"31","size_leaf_vector":"1"}},{"base_weights":[9.308098E-3,-4.5491293E-1,4.7122526E-1,-4.776219E-1,-1.4732143E-1,2.6644737E-1,4.9215016E-1,-4.851108E-1,-2.685185E-1,-2.0618556E-1,2.1875E-1,3.5E-1,-2.173913E-1,-1.25E-2,4.9282786E-1,-2.454743E-2,-1.7578125E-2,-1.7934782E-2,1.1111111E-2,4.761905E-3,-1.4285715E-2,2.2727273E-2,-1.25E-2,1.1693548E-2,2.2463769E-2,1.25E-2,-1.8055556E-2,2.2123894E-2,2.483358E-2],"categories":[],"categories_nodes":[],"categories_segments":[],"categories_sizes":[],"default_left":[0,0,0,0,0,0,0,0,0,0,0,0,0,0,0,0,0,0,0,0,0,0,0,0,0,0,0,0,0],"id":2,"left_children":[1,3,5,7,9,11,13,15,17,19,21,23,25,-1,27,-1,-1,-1,-1,-1,-1,-1,-1,-1,-1,-1,-1,-1,-1],"loss_changes":[6.913276E2,1.1161682E1,6.7933655E0,2.2139893E0,2.4585326E0,6.2208385E0,8.600464E-1,9.531555E-1,2.4694047E0,2.3524795E0,1.8821023E0,1.3936644E0,1.6352658E0,0E0,6.3568115E-2,0E0,0E0,0E0,0E0,0E0,0E0,0E0,0E0,0E0,0E0,0E0,0E0,0E0,0E0],"parents":[2147483647,0,0,1,1,2,2,3,3,4,4,5,5,6,6,7,7,8,8,9,9,10,10,11,11,12,12,14,14],"right_children":[2,4,6,8,10,12,14,16,18,20,22,24,26,-1,28,-1,-1,-1,-1,-1,-1,-1,-1,-1,-1,-1,-1,-1,-1],"split_conditions":[9.47E0,8.48E0,1.057E1,1.0105E1,4.9E0,1.173E1,2.6603572E0,1.69E1,9.8E0,4.04E1,1.571E1,3.364813E-1,7.54E0,-1.9795943E-2,1.173E1,-2.664025E-1,-2.1040252E-1,-8.6725E-2,1.4450622E-2,5.4287673E-3,-2.6201248E-2,2.5430012E-2,-2.1719981E-2,3.2701254E-2,4.7861267E-2,4.6813775E-2,-2.277999E-2,6.357127E-2,5.1569504E-1],"split_indices":[14,14,14,1,2,20,34,2,29,9,33,28,18,0,14,0,0,0,0,0,0,0,0,0,0,0,0,0,0],"split_type":[0,0,0,0,0,0,0,0,0,0,0,0,0,0,0,0,0,0,0,0,0,0,0,0,0,0,0,0,0],"sum_hessian":[3.222E3,1.607E3,1.615E3,1.496E3,1.11E2,1.51E2,1.464E3,1.443E3,5.3E1,9.6E1,1.5E1,1.29E2,2.2E1,1E0,1.463E3,1.38E3,6.3E1,4.5E1,8E0,2E1,7.6E1,1E1,5E0,6.1E1,6.8E1,5E0,1.7E1,1.12E2,1.351E3],"tree_param":{"num_deleted":"0","num_feature":"36","num_nodes":"29","size_leaf_vector":"1"}},{"base_weights":[-7.749535E-4,-4.4892967E-1,4.5948493E-1,-4.8732802E-1,-2.3921569E-1,2.1768707E-1,4.8374826E-1,-4.8938507E-1,-2.8125E-1,4.0625E-1,-2.8125E-1,3.480392E-1,-7.608695E-2,3.7987012E-1,2.4787316E-2,-2.450477E-2,-6.25E-3,-2.2499999E-2,-0E0,-0E0,2.3214286E-2,-1.7357513E-2,-5.2083336E-4,1.2053572E-2,2.3404256E-2,4.8076925E-3,-1.4285715E-2,2.173077E-2,4E-3],"categories":[],"categories_nodes":[],"categories_segments":[],"categories_sizes":[],"default_left":[0,0,0,0,0,0,0,0,0,0,0,0,0,0,0,0,0,0,0,0,0,0,0,0,0,0,0,0,0],"id":3,"left_children":[1,3,5,7,9,11,13,15,17,19,21,23,25,27,-1,-1,-1,-1,-1,-1,-1,-1,-1,-1,-1,-1,-1,-1,-1],"loss_changes":[6.656256E2,1.3049561E1,9.23468E0,4.4778442E-1,7.0328436E0,5.65571E0,1.6138916E0,2.9226685E-1,7.593751E-1,3.7723207E-1,4.2799015E0,1.1969442E0,1.6883659E0,2.4933662E0,0E0,0E0,0E0,0E0,0E0,0E0,0E0,0E0,0E0,0E0,0E0,0E0,0E0,0E0,0E0],"parents":[2147483647,0,0,1,1,2,2,3,3,4,4,5,5,6,6,7,7,8,8,9,9,10,10,11,11,12,12,13,13],"right_children":[2,4,6,8,10,12,14,16,18,20,22,24,26,28,-1,-1,-1,-1,-1,-1,-1,-1,-1,-1,-1,-1,-1,-1,-1],"split_conditions":[9.47E0,7.43E0,1.057E1,2.4641666E1,6.47E0,1.057E1,1.216E1,1.3451428E1,1.85E1,5.35E0,9.02E0,7.6E0,1.003E1,1.196E1,4.951603E-1,-2.730824E-1,-7.538872E-2,-1.290824E-1,-4.193237E-2,2.1538257E-3,4.991765E-2,-3.7582386E-2,-2.409935E-3,1.5420723E-2,4.9658157E-2,2.1678686E-2,-1.2503028E-2,6.469269E-2,1.9014E-2],"split_indices":[14,14,14,6,17,17,14,34,7,1,14,12,18,18,0,0,0,0,0,0,0,0,0,0,0,0,0,0,0],"split_type":[0,0,0,0,0,0,0,0,0,0,0,0,0,0,0,0,0,0,0,0,0,0,0,0,0,0,0,0,0],"sum_hessian":[3.225E3,1.634E3,1.591E3,1.38E3,2.54E2,1.46E2,1.445E3,1.365E3,1.5E1,1.5E1,2.39E2,1.01E2,4.5E1,1.53E2,1.292E3,1.362E3,3E0,9E0,6E0,2E0,1.3E1,1.92E2,4.7E1,5.5E1,4.6E1,2.5E1,2E1,1.29E2,2.4E1],"tree_param":{"num_deleted":"0","num_feature":"36","num_nodes":"29","size_leaf_vector":"1"}},{"base_weights":[-4.96124E-3,-4.476709E-1,4.60267E-1,-4.7615936E-1,-8.943089E-2,2E-1,4.8240167E-1,-4.899479E-1,-3.7566137E-1,3.2E-1,-1.919192E-1,2.4305556E-2,8.3333336E-2,4.0681818E-1,4.9552846E-1,-2.4534278E-2,1.25E-2,-2.1607144E-2,-1.05E-2,2.34375E-2,2.5000002E-3,-2.0000001E-2,-3.846154E-3,9.5833335E-3,-6.451613E-3,2.2939561E-2,7.692308E-3,1.25E-2,2.4816327E-2],"categories":[],"categories_nodes":[],"categories_segments":[],"categories_sizes":[],"default_left":[0,0,0,0,0,0,0,0,0,0,0,0,0,0,0,0,0,0,0,0,0,0,0,0,0,0,0,0,0],"id":4,"left_children":[1,3,5,7,9,11,13,15,17,19,21,-1,23,25,27,-1,-1,-1,-1,-1,-1,-1,-1,-1,-1,-1,-1,-1,-1],"loss_changes":[6.6443036E2,1.6827454E1,8.965454E0,1.9375E0,5.222725E0,4.1319447E0,1.2360535E0,8.557129E-1,1.6776867E0,9.8062515E-1,2.3381507E0,0E0,2.0952957E0,2.8219147E0,1.1694336E-1,0E0,0E0,0E0,0E0,0E0,0E0,0E0,0E0,0E0,0E0,0E0,0E0,0E0,0E0],"parents":[2147483647,0,0,1,1,2,2,3,3,4,4,5,5,6,6,7,7,8,8,9,9,10,10,12,12,13,13,14,14],"right_children":[2,4,6,8,10,12,14,16,18,20,22,-1,24,26,28,-1,-1,-1,-1,-1,-1,-1,-1,-1,-1,-1,-1,-1,-1],"split_conditions":[9.52E0,8.48E0,1.048E1,7.06E0,7.51E0,9.76E0,1.272E1,1.342E1,1.59E1,1.5916667E1,8.87E0,4.8825312E-2,1.588E1,1.351E1,3.24E0,-2.5592825E-1,3.399043E-2,-4.3078255E-2,-3.196576E-2,3.426919E-2,7.1058277E-4,-3.507478E-2,-9.043145E-3,1.2079144E-2,-1.1269617E-2,5.925684E-2,1.765964E-2,5.386523E-1,5.124023E-1],"split_indices":[14,14,14,14,20,17,14,1,0,31,14,0,16,20,23,0,0,0,0,0,0,0,0,0,0,0,0,0,0],"split_type":[0,0,0,0,0,0,0,0,0,0,0,0,0,0,0,0,0,0,0,0,0,0,0,0,0,0,0,0,0],"sum_hessian":[3.224E3,1.652E3,1.572E3,1.53E3,1.22E2,1.24E2,1.448E3,1.342E3,1.88E2,2.4E1,9.8E1,3.5E1,8.9E1,2.19E2,1.229E3,1.341E3,1E0,1.39E2,4.9E1,1.5E1,9E0,3.4E1,6.4E1,5.9E1,3E1,1.81E2,3.8E1,5E0,1.224E3],"tree_param":{"num_deleted":"0","num_feature":"36","num_nodes":"29","size_leaf_vector":"1"}},{"base_weights":[-1.5451174E-4,-4.548896E-1,4.36138E-1,-4.8741418E-1,-2.9818183E-1,1.2690355E-1,4.7767857E-1,-4.8892283E-1,1.6666668E-2,-3.67713E-1,-0E0,2.32E-1,-5.479452E-2,3.9814815E-1,4.9536648E-1,-2.468461E-2,-2.1900827E-2,-5.46875E-3,-2.0442707E-2,-4.878049E-3,1.5384616E-2,2.1276595E-3,1.7088607E-2,-6.854839E-3,1.875E-2,2.2171946E-2,9.5E-3,-1.25E-2,2.4810288E-2],"categories":[],"categories_nodes":[],"categories_segments":[],"categories_sizes":[],"default_left":[0,0,0,0,0,0,0,0,0,0,0,0,0,0,0,0,0,0,0,0,0,0,0,0,0,0,0,0,0],"id":5,"left_children":[1,3,5,7,9,11,13,15,-1,17,19,21,23,25,27,-1,-1,-1,-1,-1,-1,-1,-1,-1,-1,-1,-1,-1,-1],"loss_changes":[6.4221277E2,7.9331665E0,2.1160583E1,1.7862854E0,5.701557E0,3.7745895E0,1.8509827E0,1.015625E-1,0E0,2.3253975E0,1.6210132E0,2.5849547E0,2.6336446E0,2.4610863E0,8.6657715E-1,0E0,0E0,0E0,0E0,0E0,0E0,0E0,0E0,0E0,0E0,0E0,0E0,0E0,0E0],"parents":[2147483647,0,0,1,1,2,2,3,3,4,4,5,5,6,6,7,7,9,9,10,10,11,11,12,12,13,13,14,14],"right_children":[2,4,6,8,10,12,14,16,-1,18,20,22,24,26,28,-1,-1,-1,-1,-1,-1,-1,-1,-1,-1,-1,-1,-1,-1],"split_conditions":[8.87E0,6.78E0,1.04E1,1.269E1,2.3E0,1.057E1,1.305E1,1.611E1,1.7676353E-2,6.27E0,1.96E1,2.0366667E1,3.8232467E-1,1.351E1,-1.0254167E1,-2.6038185E-1,-2.1438184E-1,-1.3766336E-2,-4.1849352E-2,-1.6294433E-2,3.1253196E-2,4.1741133E-3,3.357592E-2,-1.365571E-2,2.1287728E-2,5.529523E-2,2.3244334E-2,-1.3967848E-2,4.9953213E-1],"split_indices":[14,14,14,1,29,20,14,0,0,20,29,8,10,20,3,0,0,0,0,0,0,0,0,0,0,0,0,0,0],"split_type":[0,0,0,0,0,0,0,0,0,0,0,0,0,0,0,0,0,0,0,0,0,0,0,0,0,0,0,0,0],"sum_hessian":[3.235E3,1.584E3,1.651E3,1.31E3,2.74E2,1.96E2,1.455E3,1.308E3,2E0,2.22E2,5.2E1,1.24E2,7.2E1,2.69E2,1.186E3,1.188E3,1.2E2,3.1E1,1.91E2,4E1,1.2E1,4.6E1,7.8E1,6.1E1,1.1E1,2.2E2,4.9E1,1E0,1.185E3],"tree_param":{"num_deleted":"0","num_feature":"36","num_nodes":"29","size_leaf_vector":"1"}},{"base_weights":[3.7371535E-3,-4.3499693E-1,4.5185652E-1,-4.709469E-1,-2.152174E-1,1.9318181E-1,4.749657E-1,-4.7768837E-1,-1.25E-1,-2.6980197E-1,1.724138E-1,3.3139536E-1,-6.382979E-2,3.9379084E-1,4.9609715E-1,-2.4456048E-2,-2.0776255E-2,-1.4285715E-2,1.5625E-2,-1.734694E-2,-3.125E-3,-2.0833334E-2,1.5625E-2,8.125E-3,2.3404256E-2,1.0000001E-2,-9.09091E-3,2.1789884E-2,8.5E-3,-1.25E-2,2.484809E-2],"categories":[],"categories_nodes":[],"categories_segments":[],"categories_sizes":[],"default_left":[0,0,0,0,0,0,0,0,0,0,0,0,0,0,0,0,0,0,0,0,0,0,0,0,0,0,0,0,0,0,0],"id":6,"left_children":[1,3,5,7,9,11,13,15,17,19,21,23,25,27,29,-1,-1,-1,-1,-1,-1,-1,-1,-1,-1,-1,-1,-1,-1,-1,-1],"loss_changes":[6.314959E2,1.2722076E1,9.406921E0,3.1913757E0,4.9130163E0,4.7101197E0,2.305603E0,7.682495E-1,2.0580359E0,3.2084198E0,2.5233476E0,1.9093552E0,1.4994198E0,2.8025398E0,8.68042E-1,0E0,0E0,0E0,0E0,0E0,0E0,0E0,0E0,0E0,0E0,0E0,0E0,0E0,0E0,0E0,0E0],"parents":[2147483647,0,0,1,1,2,2,3,3,4,4,5,5,6,6,7,7,8,8,9,9,10,10,11,11,12,12,13,13,14,14],"right_children":[2,4,6,8,10,12,14,16,18,20,22,24,26,28,30,-1,-1,-1,-1,-1,-1,-1,-1,-1,-1,-1,-1,-1,-1,-1,-1],"split_conditions":[9.52E0,7.61E0,1.057E1,2.64E1,4.9E0,1.057E1,1.363E1,6.01E0,5.5E0,9.02E0,5.47E1,9.96E0,7.6E0,1.239E1,-1.0254167E1,-2.7011275E-1,-6.0056366E-2,-1.8846273E-1,3.928752E-2,-3.039893E-2,-2.046013E-3,-2.2556877E-2,2.8456116E-2,2.2305204E-2,4.368141E-2,2.0299101E-2,-1.610837E-2,5.3398896E-2,1.4607144E-2,-1.3269472E-2,4.8755556E-1],"split_indices":[14,14,14,2,2,17,14,14,14,14,27,14,18,18,3,0,0,0,0,0,0,0,0,0,0,0,0,0,0,0,0],"split_type":[0,0,0,0,0,0,0,0,0,0,0,0,0,0,0,0,0,0,0,0,0,0,0,0,0,0,0,0,0,0,0],"sum_hessian":[3.21E3,1.622E3,1.588E3,1.393E3,2.29E2,1.31E2,1.457E3,1.366E3,2.7E1,2.01E2,2.8E1,8.5E1,4.6E1,3.05E2,1.152E3,1.148E3,2.18E2,2E1,7E0,1.46E2,5.5E1,5E0,2.3E1,3.9E1,4.6E1,1.4E1,3.2E1,2.56E2,4.9E1,1E0,1.151E3],"tree_param":{"num_deleted":"0","num_feature":"36","num_nodes":"31","size_leaf_vector":"1"}},{"base_weights":[-3.5428219E-3,-4.482972E-1,4.365809E-1,-4.7722495E-1,-2.2751322E-1,1.875E-1,4.7103977E-1,-4.8252496E-1,-1.7307693E-1,2.1875E-1,-2.672414E-1,4.109589E-2,2.6953125E-1,3.846154E-1,2.493075E-2,-2.4411542E-2,-1.9476745E-2,-2.3214286E-2,7.692308E-3,1.923077E-2,-1.875E-2,-1.6666668E-2,-5.2884617E-3,1.0119048E-2,-8.59375E-3,1.5972223E-2,-0E0,2.129964E-2,1.1333334E-2],"categories":[],"categories_nodes":[],"categories_segments":[],"categories_sizes":[],"default_left":[0,0,0,0,0,0,0,0,0,0,0,0,0,0,0,0,0,0,0,0,0,0,0,0,0,0,0,0,0],"id":7,"left_children":[1,3,5,7,9,11,13,15,17,19,21,23,25,27,-1,-1,-1,-1,-1,-1,-1,-1,-1,-1,-1,-1,-1,-1,-1],"loss_changes":[6.355903E2,1.0206116E1,1.391922E1,2.2167664E0,3.4092808E0,2.3908653E0,3.223297E0,5.5371094E-1,2.5467033E0,1.7199519E0,1.8216734E0,2.542263E0,1.7220049E0,2.197403E0,0E0,0E0,0E0,0E0,0E0,0E0,0E0,0E0,0E0,0E0,0E0,0E0,0E0,0E0,0E0],"parents":[2147483647,0,0,1,1,2,2,3,3,4,4,5,5,6,6,7,7,8,8,9,9,10,10,11,11,12,12,13,13],"right_children":[2,4,6,8,10,12,14,16,18,20,22,24,26,28,-1,-1,-1,-1,-1,-1,-1,-1,-1,-1,-1,-1,-1,-1,-1],"split_conditions":[9.09E0,7.61E0,1.073E1,2.64E1,4.13E0,9.76E0,1.461E1,6.97E0,3.01E0,8.79E0,8.59E0,1.583E1,1.25E1,1.239E1,4.951778E-1,-2.2612846E-1,-5.3479027E-2,-3.208896E-1,2.6520705E-2,3.5507467E-2,-1.9986534E-2,-2.7384842E-2,-2.0127201E-2,1.6509676E-2,-1.1657476E-2,3.3164978E-2,-2.6054383E-4,5.0741434E-2,2.8751493E-2],"split_indices":[14,14,14,2,21,14,14,14,14,14,14,22,21,18,0,0,0,0,0,0,0,0,0,0,0,0,0,0,0],"split_type":[0,0,0,0,0,0,0,0,0,0,0,0,0,0,0,0,0,0,0,0,0,0,0,0,0,0,0,0,0],"sum_hessian":[3.245E3,1.614E3,1.631E3,1.426E3,1.88E2,1.99E2,1.432E3,1.401E3,2.5E1,1.5E1,1.73E2,7.2E1,1.27E2,3.5E2,1.082E3,1.316E3,8.5E1,1.3E1,1.2E1,1.2E1,3E0,1.22E2,5.1E1,4.1E1,3.1E1,1.07E2,2E1,2.76E2,7.4E1],"tree_param":{"num_deleted":"0","num_feature":"36","num_nodes":"29","size_leaf_vector":"1"}},{"base_weights":[1.0775862E-3,-4.250607E-1,4.3972516E-1,-4.7133526E-1,-1.8819188E-1,3.0620986E-1,4.9427313E-1,-4.7989377E-1,-2.7868852E-1,4E-1,-2.2178988E-1,3.5694823E-1,1.1881188E-1,-1.25E-2,4.951499E-1,-2.4069149E-2,1.6666668E-2,-2.1354167E-2,1.25E-2,2.3214286E-2,-1.25E-2,-1.3384956E-2,5.46875E-3,1.014151E-2,2.0896947E-2,-7.954545E-3,9.6875E-3,-1.25E-2,2.4801413E-2],"categories":[],"categories_nodes":[],"categories_segments":[],"categories_sizes":[],"default_left":[0,0,0,0,0,0,0,0,0,0,0,0,0,0,0,0,0,0,0,0,0,0,0,0,0,0,0,0,0],"id":8,"left_children":[1,3,5,7,9,11,13,15,17,19,21,23,25,-1,27,-1,-1,-1,-1,-1,-1,-1,-1,-1,-1,-1,-1,-1,-1],"loss_changes":[6.0731775E2,1.7975037E1,1.1508728E1,2.1382446E0,5.4442368E0,4.397953E0,8.644409E-1,1.7566528E0,4.8925033E0,7.42857E-1,3.9365864E0,3.3649406E0,2.1342006E0,0E0,8.6621094E-1,0E0,0E0,0E0,0E0,0E0,0E0,0E0,0E0,0E0,0E0,0E0,0E0,0E0,0E0],"parents":[2147483647,0,0,1,1,2,2,3,3,4,4,5,5,6,6,7,7,8,8,9,9,10,10,11,11,12,12,14,14],"right_children":[2,4,6,8,10,12,14,16,18,20,22,24,26,-1,28,-1,-1,-1,-1,-1,-1,-1,-1,-1,-1,-1,-1,-1,-1],"split_conditions":[9.47E0,7.22E0,1.387E1,1.83E1,6.18E0,1.363E1,-1.0254167E1,1.269E1,4.63E0,6.653333E1,5.1E0,1.03E1,1.225E1,-3.736491E-2,2.054492E-1,-2.1360074E-1,4.1604616E-2,-2.5034514E-1,5.4565694E-2,7.944079E-2,-1.3153362E-2,-3.0280113E-2,1.8133974E-2,2.5125647E-2,4.9902298E-2,-8.64358E-3,1.6848564E-2,-1.3384295E-2,4.4016892E-1],"split_indices":[14,14,14,2,17,20,3,1,14,7,2,14,14,0,10,0,0,0,0,0,0,0,0,0,0,0,0,0,0],"split_type":[0,0,0,0,0,0,0,0,0,0,0,0,0,0,0,0,0,0,0,0,0,0,0,0,0,0,0,0,0],"sum_hessian":[3.247E3,1.647E3,1.6E3,1.377E3,2.7E2,4.66E2,1.134E3,1.317E3,6E1,1.4E1,2.56E2,3.66E2,1E2,1E0,1.133E3,1.315E3,2E0,4.7E1,1.3E1,1.3E1,1E0,2.25E2,3.1E1,1.05E2,2.61E2,2.1E1,7.9E1,1E0,1.132E3],"tree_param":{"num_deleted":"0","num_feature":"36","num_nodes":"29","size_leaf_vector":"1"}},{"base_weights":[-4.973578E-3,-4.3643263E-1,4.1172877E-1,-4.7232753E-1,-2.5475284E-1,2.7045074E-1,4.9278152E-1,-4.8076922E-1,-2.2826087E-1,-3.2045454E-1,7.954545E-2,8.280255E-2,3.363431E-1,-1.25E-2,4.9373797E-1,-2.4567E-2,-2.0646067E-2,-1.8571429E-2,1.0416667E-2,-6.5789477E-4,-1.9125683E-2,1.4772727E-2,-6.521739E-3,1.13402065E-2,-7.3770494E-3,1.9485295E-2,7.932692E-3,2.0564517E-2,2.4923233E-2],"categories":[],"categories_nodes":[],"categories_segments":[],"categories_sizes":[],"default_left":[0,0,0,0,0,0,0,0,0,0,0,0,0,0,0,0,0,0,0,0,0,0,0,0,0,0,0,0,0],"id":9,"left_children":[1,3,5,7,9,11,13,15,17,19,21,23,25,-1,27,-1,-1,-1,-1,-1,-1,-1,-1,-1,-1,-1,-1,-1,-1],"loss_changes":[5.785641E2,1.0189972E1,1.8611969E1,2.6078491E0,5.8020134E0,7.3785324E0,8.6157227E-1,7.1084595E-1,2.9526656E0,4.1904907E0,2.0333498E0,5.2411265E0,4.138695E0,0E0,1.9949341E-1,0E0,0E0,0E0,0E0,0E0,0E0,0E0,0E0,0E0,0E0,0E0,0E0,0E0,0E0],"parents":[2147483647,0,0,1,1,2,2,3,3,4,4,5,5,6,6,7,7,8,8,9,9,10,10,11,11,12,12,14,14],"right_children":[2,4,6,8,10,12,14,16,18,20,22,24,26,-1,28,-1,-1,-1,-1,-1,-1,-1,-1,-1,-1,-1,-1,-1,-1],"split_conditions":[8.87E0,6.88E0,1.489E1,1.99E1,1E0,1.023E1,-1.0254167E1,5.75E0,4.63E0,5.7114286E0,7.51E0,1.006E1,1.205E1,-3.5496663E-2,1.569E1,-2.4637066E-1,-4.9123503E-2,-2.4445565E-1,2.7611066E-2,-4.3067933E-4,-3.3905804E-2,4.332595E-2,-8.102751E-3,2.0098735E-2,-1.3901162E-2,4.400611E-2,1.6045189E-2,6.3885406E-2,5.079479E-1],"split_indices":[14,14,14,2,11,14,3,14,14,34,17,17,18,0,14,0,0,0,0,0,0,0,0,0,0,0,0,0,0],"split_type":[0,0,0,0,0,0,0,0,0,0,0,0,0,0,0,0,0,0,0,0,0,0,0,0,0,0,0,0,0],"sum_hessian":[3.216E3,1.58E3,1.636E3,1.318E3,2.62E2,5.98E2,1.038E3,1.273E3,4.5E1,2.19E2,4.3E1,1.56E2,4.42E2,1E0,1.037E3,1.096E3,1.77E2,3.4E1,1.1E1,3.7E1,1.82E2,2.1E1,2.2E1,9.6E1,6E1,3.39E2,1.03E2,6.1E1,9.76E2],"tree_param":{"num_deleted":"0","num_feature":"36","num_nodes":"29","size_leaf_vector":"1"}},{"base_weights":[-1.0794743E-2,-4.2063E-1,4.096958E-1,-4.8533332E-1,-2.7272728E-1,2.610701E-1,4.869817E-1,-4.8792487E-1,-6.25E-2,-3.2603407E-1,-1.1764706E-2,7.3529415E-2,3.0385488E-1,-1.25E-1,4.8887813E-1,-2.4483843E-2,-0E0,-1.875E-2,1.0000001E-2,8.82353E-3,-1.7341772E-2,-8.5227275E-3,7.7380957E-3,1.4705883E-2,-7.2115385E-3,1.7910449E-2,6.5420563E-3,-1.6666668E-2,1.25E-2,-1.25E-2,2.4491772E-2],"categories":[],"categories_nodes":[],"categories_segments":[],"categories_sizes":[],"default_left":[0,0,0,0,0,0,0,0,0,0,0,0,0,0,0,0,0,0,0,0,0,0,0,0,0,0,0,0,0,0,0],"id":10,"left_children":[1,3,5,7,9,11,13,15,17,19,21,23,25,27,29,-1,-1,-1,-1,-1,-1,-1,-1,-1,-1,-1,-1,-1,-1,-1,-1],"loss_changes":[5.5094495E2,1.5361145E1,1.799884E1,1.2022705E0,6.8821487E0,4.326603E0,1.2646484E0,9.556885E-1,7.3125E-1,4.3573036E0,2.2725966E0,4.9420247E0,4.100296E0,3.9583334E-1,8.5383606E-1,0E0,0E0,0E0,0E0,0E0,0E0,0E0,0E0,0E0,0E0,0E0,0E0,0E0,0E0,0E0,0E0],"parents":[2147483647,0,0,1,1,2,2,3,3,4,4,5,5,6,6,7,7,8,8,9,9,10,10,11,11,12,12,13,13,14,14],"right_children":[2,4,6,8,10,12,14,16,18,20,22,24,26,28,30,-1,-1,-1,-1,-1,-1,-1,-1,-1,-1,-1,-1,-1,-1,-1,-1],"split_conditions":[9.2E0,5.56E0,1.489E1,3.95E1,1E0,1.006E1,3.51E0,1.142E1,1.5133333E1,4.83E0,3.1427297E-1,9.76E0,1.205E1,1.176E1,-1.0254167E1,-2.3830211E-1,-2.3157096E-2,-2.2560506E-1,2.0758022E-2,2.4561645E-3,-3.9670635E-2,-2.149415E-2,1.7878294E-2,3.0624365E-2,-1.1076498E-2,4.0580012E-2,1.0249162E-2,-2.379167E-2,7.222005E-1,-3.372183E-2,4.4105053E-1],"split_indices":[14,14,14,2,11,14,23,1,3,20,10,17,18,1,3,0,0,0,0,0,0,0,0,0,0,0,0,0,0,0,0],"split_type":[0,0,0,0,0,0,0,0,0,0,0,0,0,0,0,0,0,0,0,0,0,0,0,0,0,0,0,0,0,0,0],"sum_hessian":[3.195E3,1.618E3,1.577E3,1.124E3,4.94E2,5.41E2,1.036E3,1.117E3,7E0,4.1E2,8.4E1,1.01E2,4.4E2,3E0,1.033E3,1.113E3,4E0,3E0,4E0,1.6E1,3.94E2,4.3E1,4.1E1,5E1,5.1E1,3.34E2,1.06E2,2E0,1E0,1E0,1.032E3],"tree_param":{"num_deleted":"0","num_feature":"36","num_nodes":"31","size_leaf_vector":"1"}},{"base_weights":[-1.2936409E-2,-4.313976E-1,3.86419E-1,-4.679784E-1,-2.555147E-1,2.3298033E-1,4.8930752E-1,-4.7226563E-1,-1.1764706E-1,2.2916667E-1,-3.0120483E-1,4.8076925E-3,2.750896E-1,4.065934E-1,2.4859866E-2,-2.4664257E-2,-2.0287542E-2,7.5000003E-3,-2.1875E-2,-1.6666668E-2,1.4772727E-2,-1.6888889E-2,2E-3,7.746479E-3,-1.54411765E-2,1.9889502E-2,1.0780423E-2,2.2891566E-2,-5.5555557E-3],"categories":[],"categories_nodes":[],"categories_segments":[],"categories_sizes":[],"default_left":[0,0,0,0,0,0,0,0,0,0,0,0,0,0,0,0,0,0,0,0,0,0,0,0,0,0,0,0,0],"id":11,"left_children":[1,3,5,7,9,11,13,15,17,19,21,23,25,27,-1,-1,-1,-1,-1,-1,-1,-1,-1,-1,-1,-1,-1,-1,-1],"loss_changes":[5.3627075E2,9.962402E0,2.580838E1,1.8909607E0,6.0925045E0,6.3496857E0,4.386902E-1,1.5894165E0,1.5209559E0,9.933711E-1,3.1207523E0,4.944469E0,3.986721E0,2.4647455E0,0E0,0E0,0E0,0E0,0E0,0E0,0E0,0E0,0E0,0E0,0E0,0E0,0E0,0E0,0E0],"parents":[2147483647,0,0,1,1,2,2,3,3,4,4,5,5,6,6,7,7,8,8,9,9,10,10,11,11,12,12,13,13],"right_children":[2,4,6,8,10,12,14,16,18,20,22,24,26,28,-1,-1,-1,-1,-1,-1,-1,-1,-1,-1,-1,-1,-1,-1,-1],"split_conditions":[8.87E0,6.88E0,1.554E1,2.83E1,6.1E0,9.76E0,1.694E1,4.93E0,8.647083E1,1.5433572E1,8.5E0,9.96E0,1.141E1,1.793E1,4.7946054E-1,-2.4788702E-1,-5.10854E-2,3.6302637E-2,-2.3718996E-1,-1.49779795E-2,2.3320531E-2,-3.0037701E-2,7.11875E-3,1.41300205E-2,-2.5191499E-2,5.541494E-2,2.4601316E-2,6.3447975E-2,-2.7289486E-2],"split_indices":[14,14,14,2,17,14,14,14,9,35,2,17,20,17,0,0,0,0,0,0,0,0,0,0,0,0,0,0,0],"split_type":[0,0,0,0,0,0,0,0,0,0,0,0,0,0,0,0,0,0,0,0,0,0,0,0,0,0,0,0,0],"sum_hessian":[3.207E3,1.566E3,1.641E3,1.295E3,2.71E2,6.6E2,9.81E2,1.279E3,1.6E1,2.3E1,2.48E2,1.03E2,5.57E2,9E1,8.91E2,9.67E2,3.12E2,9E0,7E0,2E0,2.1E1,2.24E2,2.4E1,7E1,3.3E1,1.8E2,3.77E2,8.2E1,8E0],"tree_param":{"num_deleted":"0","num_feature":"36","num_nodes":"29","size_leaf_vector":"1"}},{"base_weights":[-1.1753789E-2,-4.117647E-1,4.044164E-1,-4.6425766E-1,-2.3342176E-1,2.7251554E-1,4.9416137E-1,-4.746678E-1,-2.7857143E-1,-2.8506097E-1,1.1E-1,3.405612E-1,1.660079E-1,-1.25E-2,4.9521786E-1,-2.4112554E-2,-1.45E-2,-1.0416667E-3,-2.0212768E-2,-1.5330188E-2,1.818182E-2,-1.818182E-2,1.1875E-2,5.6818184E-3,1.9266056E-2,-7.7380957E-3,1.1438679E-2,1.9375E-2,2.4972284E-2],"categories":[],"categories_nodes":[],"categories_segments":[],"categories_sizes":[],"default_left":[0,0,0,0,0,0,0,0,0,0,0,0,0,0,0,0,0,0,0,0,0,0,0,0,0,0,0,0,0],"id":12,"left_children":[1,3,5,7,9,11,13,15,17,19,21,23,25,-1,27,-1,-1,-1,-1,-1,-1,-1,-1,-1,-1,-1,-1,-1,-1],"loss_changes":[5.383725E2,1.5329163E1,1.8627655E1,2.3284912E0,6.717087E0,4.610779E0,8.6439514E-1,1.5462036E0,2.2591248E0,4.6952114E0,3.1057954E0,3.9378052E0,5.129139E0,0E0,2.3501587E-1,0E0,0E0,0E0,0E0,0E0,0E0,0E0,0E0,0E0,0E0,0E0,0E0,0E0,0E0],"parents":[2147483647,0,0,1,1,2,2,3,3,4,4,5,5,6,6,7,7,8,8,9,9,10,10,11,11,12,12,14,14],"right_children":[2,4,6,8,10,12,14,16,18,20,22,24,26,-1,28,-1,-1,-1,-1,-1,-1,-1,-1,-1,-1,-1,-1,-1,-1],"split_conditions":[9.47E0,6.54E0,1.618E1,8.96E0,5.1E0,1.079E1,-1.0254167E1,1.9E1,8.74E0,1.96E1,5.47E1,1.006E1,9.96E0,-5.6008767E-2,1.694E1,-1.9774266E-1,-1.3995542E-1,-5.1298976E-2,-6.0082734E-2,-2.4810387E-2,3.8434815E-2,-2.9746592E-2,1.7899513E-2,1.5072728E-2,4.8169065E-2,-8.038664E-3,2.103982E-2,6.078806E-2,4.5848748E-1],"split_indices":[14,14,14,1,2,18,3,2,15,29,27,14,1,0,14,0,0,0,0,0,0,0,0,0,0,0,0,0,0],"split_type":[0,0,0,0,0,0,0,0,0,0,0,0,0,0,0,0,0,0,0,0,0,0,0,0,0,0,0,0,0],"sum_hessian":[3.232E3,1.648E3,1.584E3,1.272E3,3.76E2,6.43E2,9.41E2,1.203E3,6.9E1,3.27E2,4.9E1,3.91E2,2.52E2,1E0,9.4E2,1.154E3,4.9E1,2.3E1,4.6E1,3.17E2,1E1,1E1,3.9E1,6.5E1,3.26E2,4.1E1,2.11E2,3.9E1,9.01E2],"tree_param":{"num_deleted":"0","num_feature":"36","num_nodes":"29","size_leaf_vector":"1"}},{"base_weights":[-8.372093E-3,-4.141479E-1,3.6924E-1,-4.8789474E-1,-2.9785478E-1,2.2119205E-1,4.9073064E-1,-4.899789E-1,1.6666668E-2,-3.3826247E-1,3.787879E-2,1.774461E-1,3.9215687E-1,4.2975205E-1,2.4968633E-2,-2.4551215E-2,1.25E-2,-1.8778028E-2,-8.072916E-3,-1.607143E-2,6.6037737E-3,-5.859375E-4,1.1397059E-2,2.173077E-2,7.2916667E-3,2.2991072E-2,2.5000002E-3],"categories":[],"categories_nodes":[],"categories_segments":[],"categories_sizes":[],"default_left":[0,0,0,0,0,0,0,0,0,0,0,0,0,0,0,0,0,0,0,0,0,0,0,0,0,0,0],"id":13,"left_children":[1,3,5,7,9,11,13,15,-1,17,19,21,23,25,-1,-1,-1,-1,-1,-1,-1,-1,-1,-1,-1,-1,-1],"loss_changes":[4.9430624E2,1.3190765E1,2.9946823E1,1.7893219E0,8.23394E0,5.577072E0,2.6863098E-1,8.5609436E-1,0E0,3.5069618E0,2.27626E0,5.7624626E0,1.5367737E0,1.358696E0,0E0,0E0,0E0,0E0,0E0,0E0,0E0,0E0,0E0,0E0,0E0,0E0,0E0],"parents":[2147483647,0,0,1,1,2,2,3,3,4,4,5,5,6,6,7,7,9,9,10,10,11,11,12,12,13,13],"right_children":[2,4,6,8,10,12,14,16,-1,18,20,22,24,26,-1,-1,-1,-1,-1,-1,-1,-1,-1,-1,-1,-1,-1],"split_conditions":[8.79E0,4.81E0,1.618E1,1.677E1,7E0,1E0,1.826E1,6.78E0,7.0359826E-2,7.99E0,8.833333E0,1.006E1,8.8E1,1.858E1,4.653131E-1,-2.3585553E-1,1.1094475E-2,-4.129782E-2,-1.19880205E-2,-5.694561E-2,9.155727E-3,-9.0799335E-4,2.455392E-2,6.461487E-2,3.3376362E-2,8.303805E-2,3.4063052E-2],"split_indices":[14,14,14,0,2,11,14,17,0,14,8,14,5,18,0,0,0,0,0,0,0,0,0,0,0,0,0],"split_type":[0,0,0,0,0,0,0,0,0,0,0,0,0,0,0,0,0,0,0,0,0,0,0,0,0,0,0],"sum_hessian":[3.224E3,1.554E3,1.67E3,9.49E2,6.05E2,7.54E2,9.16E2,9.47E2,2E0,5.4E2,6.5E1,6.02E2,1.52E2,1.2E2,7.96E2,9.46E2,1E0,4.45E2,9.5E1,1.3E1,5.2E1,1.27E2,4.75E2,1.29E2,2.3E1,1.11E2,9E0],"tree_param":{"num_deleted":"0","num_feature":"36","num_nodes":"27","size_leaf_vector":"1"}},{"base_weights":[-4.8106764E-3,-4.074542E-1,3.8384145E-1,-4.5468628E-1,-1.9795223E-1,2.4263674E-1,4.9191812E-1,-4.8959473E-1,-3.6939314E-1,3.90625E-2,-2.630435E-1,6.711409E-2,2.8849557E-1,-1.25E-2,4.9298814E-1,-2.4640884E-2,-5.5555557E-3,-1.9764012E-2,-7.317073E-3,-1.875E-2,6.6037737E-3,-1.4253395E-2,1.25E-2,-2.1551724E-4,1.54411765E-2,1.7402597E-2,8.01105E-3,6.25E-3,2.4702381E-2],"categories":[],"categories_nodes":[],"categories_segments":[],"categories_sizes":[],"default_left":[0,0,0,0,0,0,0,0,0,0,0,0,0,0,0,0,0,0,0,0,0,0,0,0,0,0,0,0,0],"id":14,"left_children":[1,3,5,7,9,11,13,15,17,19,21,23,25,-1,27,-1,-1,-1,-1,-1,-1,-1,-1,-1,-1,-1,-1,-1,-1],"loss_changes":[5.043616E2,1.5574127E1,2.490857E1,3.663025E0,4.5305586E0,5.7197647E0,8.599701E-1,1.05896E0,2.1305618E0,2.514372E0,2.670146E0,2.5736613E0,4.2605896E0,0E0,2.9966736E-1,0E0,0E0,0E0,0E0,0E0,0E0,0E0,0E0,0E0,0E0,0E0,0E0,0E0,0E0],"parents":[2147483647,0,0,1,1,2,2,3,3,4,4,5,5,6,6,7,7,8,8,9,9,10,10,11,11,12,12,14,14],"right_children":[2,4,6,8,10,12,14,16,18,20,22,24,26,-1,28,-1,-1,-1,-1,-1,-1,-1,-1,-1,-1,-1,-1,-1,-1],"split_conditions":[9.02E0,6.78E0,1.618E1,4.56E0,5.6707144E0,1.023E1,-1.0254167E1,3.24E1,7E0,3.11E0,3.0729166E1,1.8E0,1.133E1,-5.736027E-2,1.514E1,-2.2931276E-1,-1.3610736E-1,-4.153073E-2,-1.6317487E-2,-3.274262E-2,7.2057485E-3,-2.688514E-2,4.1113854E-3,-1.0294915E-4,3.4130383E-2,4.0602874E-2,1.8837167E-2,1.5829745E-1,3.9529744E-1],"split_indices":[14,14,14,14,34,14,3,2,2,12,3,29,15,0,16,0,0,0,0,0,0,0,0,0,0,0,0,0,0],"split_type":[0,0,0,0,0,0,0,0,0,0,0,0,0,0,0,0,0,0,0,0,0,0,0,0,0,0,0,0,0],"sum_hessian":[3.221E3,1.582E3,1.639E3,1.29E3,2.92E2,7.12E2,9.27E2,9.12E2,3.78E2,6.3E1,2.29E2,1.48E2,5.64E2,1E0,9.26E2,9.04E2,8E0,3.38E2,4E1,1.1E1,5.2E1,2.2E2,9E0,1.15E2,3.3E1,3.84E2,1.8E2,3E0,9.23E2],"tree_param":{"num_deleted":"0","num_feature":"36","num_nodes":"29","size_leaf_vector":"1"}},{"base_weights":[-1.06943585E-2,-3.789308E-1,3.469762E-1,-4.6138415E-1,-2.39899E-1,2.0192307E-1,4.7843823E-1,-4.7103658E-1,2.5E-1,-2.7281022E-1,1.4893617E-1,1.5686275E-1,4.5338982E-1,3.878205E-1,2.4893314E-2,-2.3741007E-2,-6.25E-3,-1.0000001E-2,2.2499999E-2,-1.775E-2,-8.634538E-3,-6.6666673E-3,1.3636365E-2,4.7461367E-3,1.4454976E-2,7.1428576E-3,2.34375E-2,-4.166667E-3,2.0198677E-2],"categories":[],"categories_nodes":[],"categories_segments":[],"categories_sizes":[],"default_left":[0,0,0,0,0,0,0,0,0,0,0,0,0,0,0,0,0,0,0,0,0,0,0,0,0,0,0,0,0],"id":15,"left_children":[1,3,5,7,9,11,13,15,17,19,21,23,25,27,-1,-1,-1,-1,-1,-1,-1,-1,-1,-1,-1,-1,-1,-1,-1],"loss_changes":[4.2501935E2,1.81165E1,3.1119308E1,6.963745E0,7.6420746E0,8.767199E0,1.3174438E0,1.2289581E0,1.3500001E0,4.4480705E0,1.678659E0,5.403023E0,4.958763E-1,1.2209091E0,0E0,0E0,0E0,0E0,0E0,0E0,0E0,0E0,0E0,0E0,0E0,0E0,0E0,0E0,0E0],"parents":[2147483647,0,0,1,1,2,2,3,3,4,4,5,5,6,6,7,7,8,8,9,9,10,10,11,11,12,12,13,13],"right_children":[2,4,6,8,10,12,14,16,18,20,22,24,26,28,-1,-1,-1,-1,-1,-1,-1,-1,-1,-1,-1,-1,-1,-1,-1],"split_conditions":[9.02E0,5E0,1.746E1,1.003E1,1.03E1,1.402E1,1.985E1,9.4416664E1,1.572E1,6.45E0,6.11E0,1.595E1,1.522E1,-3.2416666E0,4.6178252E-1,-2.058471E-1,-5.0709154E-2,-1.10223405E-1,2.3723398E-1,-3.4804177E-2,-1.9808078E-2,-1.5641117E-2,5.8827996E-2,9.99701E-3,3.3277728E-2,2.4495412E-2,9.881902E-2,-6.8537714E-3,1.0102005E-1],"split_indices":[17,17,17,1,29,1,17,5,0,1,1,13,13,3,0,0,0,0,0,0,0,0,0,0,0,0,0,0,0],"split_type":[0,0,0,0,0,0,0,0,0,0,0,0,0,0,0,0,0,0,0,0,0,0,0,0,0,0,0,0,0],"sum_hessian":[3.225E3,1.589E3,1.636E3,9.96E2,5.93E2,7.79E2,8.57E2,9.83E2,1.3E1,5.47E2,4.6E1,6.62E2,1.17E2,1.55E2,7.02E2,9.72E2,1.1E1,4E0,9E0,2.99E2,2.48E2,1.4E1,3.2E1,4.52E2,2.1E2,6E0,1.11E2,5E0,1.5E2],"tree_param":{"num_deleted":"0","num_feature":"36","num_nodes":"29","size_leaf_vector":"1"}},{"base_weights":[-7.1718115E-3,-2.7657324E-1,3.796507E-1,-4.122575E-1,-7.3218994E-2,1.8820861E-1,4.754846E-1,-4.7200522E-1,-2.8610355E-1,-1.16138764E-1,2.2395833E-1,3.6144577E-2,3.834197E-1,3.5897437E-1,4.9277267E-1,-2.3727154E-2,1.6666668E-2,-2.2485208E-2,-7.2864327E-3,-1.2011719E-2,-1.8995099E-3,-2.5000002E-3,1.716418E-2,-6.198347E-3,9.302326E-3,1.4423077E-2,2.2198277E-2,2.015306E-2,6.25E-3,2.147436E-2,2.4963452E-2],"categories":[],"categories_nodes":[],"categories_segments":[],"categories_sizes":[],"default_left":[0,0,0,0,0,0,0,0,0,0,0,0,0,0,0,0,0,0,0,0,0,0,0,0,0,0,0,0,0,0,0],"id":16,"left_children":[1,3,5,7,9,11,13,15,17,19,21,23,25,27,29,-1,-1,-1,-1,-1,-1,-1,-1,-1,-1,-1,-1,-1,-1,-1,-1],"loss_changes":[3.3430823E2,5.2146225E1,2.4073044E1,8.412384E0,9.694136E0,1.3077044E1,1.5895844E0,1.7278595E0,8.362772E0,6.420577E0,3.1554184E0,5.9993196E0,9.815521E-1,1.1564941E0,9.843445E-2,0E0,0E0,0E0,0E0,0E0,0E0,0E0,0E0,0E0,0E0,0E0,0E0,0E0,0E0,0E0,0E0],"parents":[2147483647,0,0,1,1,2,2,3,3,4,4,5,5,6,6,7,7,8,8,9,9,10,10,11,11,12,12,13,13,14,14],"right_children":[2,4,6,8,10,12,14,16,18,20,22,24,26,28,30,-1,-1,-1,-1,-1,-1,-1,-1,-1,-1,-1,-1,-1,-1,-1,-1],"split_conditions":[9.73E0,6.03E0,1.592E1,3.3128592E-1,1.612E1,1.332E1,1.153E1,1.685E1,4.01E0,1.1579166E1,6.99E0,3.0491835E-1,1.517E1,1.332E1,1.606E1,-2.0805474E-1,7.8998886E-2,-1.4230475E-1,-2.7753687E-2,-2.9011821E-2,-9.610581E-3,-4.1036606E-3,4.656322E-2,-1.4293003E-2,2.1856189E-2,5.3641178E-2,9.387522E-2,3.9638758E-2,2.5801564E-2,1.00981526E-1,4.5694342E-1],"split_indices":[1,1,13,28,13,1,1,0,1,3,15,28,1,18,13,0,0,0,0,0,0,0,0,0,0,0,0,0,0,0,0],"split_type":[0,0,0,0,0,0,0,0,0,0,0,0,0,0,0,0,0,0,0,0,0,0,0,0,0,0,0,0,0,0,0],"sum_hessian":[3.206E3,1.89E3,1.316E3,1.133E3,7.57E2,4.4E2,8.76E2,7.67E2,3.66E2,6.62E2,9.5E1,2.48E2,1.92E2,1.16E2,7.6E2,7.65E2,2E0,1.68E2,1.98E2,2.55E2,4.07E2,2.9E1,6.6E1,1.2E2,1.28E2,7.7E1,1.15E2,9.7E1,1.9E1,7.7E1,6.83E2],"tree_param":{"num_deleted":"0","num_feature":"36","num_nodes":"31","size_leaf_vector":"1"}},{"base_weights":[-8.934169E-3,-3.9099678E-1,3.5421762E-1,-4.8311546E-1,-2.57837E-1,2.1079047E-1,4.8988095E-1,-4.8418757E-1,1.25E-2,-3.0055147E-1,-1.0526316E-2,2.8440368E-1,5.13834E-2,-1.25E-2,4.910608E-1,-2.42631E-2,1.25E-2,-1.9480519E-2,-1.1703822E-2,-4.320988E-3,2.0000001E-2,6.0937502E-3,1.7551815E-2,-4.5801527E-3,1.0162602E-2,-1.25E-2,2.4612172E-2],"categories":[],"categories_nodes":[],"categories_segments":[],"categories_sizes":[],"default_left":[0,0,0,0,0,0,0,0,0,0,0,0,0,0,0,0,0,0,0,0,0,0,0,0,0,0,0],"id":17,"left_children":[1,3,5,7,9,11,13,15,-1,17,19,21,23,-1,25,-1,-1,-1,-1,-1,-1,-1,-1,-1,-1,-1,-1],"loss_changes":[4.427405E2,1.894986E1,3.1729706E1,8.425751E-1,6.7365074E0,9.337753E0,8.560333E-1,8.446808E-1,0E0,3.129387E0,2.994412E0,5.8594093E0,5.512553E0,0E0,8.583679E-1,0E0,0E0,0E0,0E0,0E0,0E0,0E0,0E0,0E0,0E0,0E0,0E0],"parents":[2147483647,0,0,1,1,2,2,3,3,4,4,5,5,6,6,7,7,9,9,10,10,11,11,12,12,14,14],"right_children":[2,4,6,8,10,12,14,16,-1,18,20,22,24,-1,26,-1,-1,-1,-1,-1,-1,-1,-1,-1,-1,-1,-1],"split_conditions":[8.87E0,4.63E0,1.746E1,1.677E1,1E0,1.163E1,-1.0254167E1,1.316E1,1.8884515E-2,1.568E1,3.7810254E-1,1.03E1,1.239E1,-5.6477692E-2,1.503E1,-2.014395E-1,9.128924E-2,-3.8560856E-2,-2.0266319E-2,-4.7403574E-3,2.9804004E-2,8.218718E-3,3.981004E-2,-6.3649416E-3,1.82235E-2,-3.6212254E-2,3.7159625E-1],"split_indices":[14,14,14,0,11,18,3,1,0,0,28,14,1,0,19,0,0,0,0,0,0,0,0,0,0,0,0],"split_type":[0,0,0,0,0,0,0,0,0,0,0,0,0,0,0,0,0,0,0,0,0,0,0,0,0,0,0],"sum_hessian":[3.189E3,1.554E3,1.635E3,9.17E2,6.37E2,7.96E2,8.39E2,9.16E2,1E0,5.43E2,9.4E1,5.44E2,2.52E2,1E0,8.38E2,9.15E2,1E0,2.3E2,3.13E2,8E1,1.4E1,1.59E2,3.85E2,1.3E2,1.22E2,1E0,8.37E2],"tree_param":{"num_deleted":"0","num_feature":"36","num_nodes":"27","size_leaf_vector":"1"}},{"base_weights":[-1.7006802E-3,-3.537587E-1,3.3565375E-1,-4.6553737E-1,-2.2184066E-1,2.1372768E-1,4.7952443E-1,-4.7675803E-1,8.3333336E-2,-2.5937033E-1,1.8548387E-1,1.6875872E-1,3.9166668E-1,3.125E-1,2.4817785E-2,-2.395335E-2,6.25E-3,-2.0833334E-2,1.5384616E-2,-1.7728759E-2,-8.90884E-3,-3.7500001E-3,1.5116279E-2,1.0780201E-2,-3.0737706E-3,2.3282444E-2,9.5E-3,-1.4285715E-2,1.8560607E-2],"categories":[],"categories_nodes":[],"categories_segments":[],"categories_sizes":[],"default_left":[0,0,0,0,0,0,0,0,0,0,0,0,0,0,0,0,0,0,0,0,0,0,0,0,0,0,0,0,0],"id":18,"left_children":[1,3,5,7,9,11,13,15,17,19,21,23,25,27,-1,-1,-1,-1,-1,-1,-1,-1,-1,-1,-1,-1,-1,-1,-1],"loss_changes":[3.8421548E2,2.323906E1,2.8876205E1,5.311569E0,1.1176861E1,7.103451E0,1.972992E0,1.2256165E0,2.147436E0,5.092743E0,1.9096682E0,7.746378E0,2.5970821E0,2.6348753E0,0E0,0E0,0E0,0E0,0E0,0E0,0E0,0E0,0E0,0E0,0E0,0E0,0E0,0E0,0E0],"parents":[2147483647,0,0,1,1,2,2,3,3,4,4,5,5,6,6,7,7,8,8,9,9,10,10,11,11,12,12,13,13],"right_children":[2,4,6,8,10,12,14,16,18,20,22,24,26,28,-1,-1,-1,-1,-1,-1,-1,-1,-1,-1,-1,-1,-1,-1,-1],"split_conditions":[9.02E0,4.26E0,1.915E1,9.96E0,1.03E1,1.402E1,1.594E1,9.5958336E1,2.2771013E-1,2.46E1,5.66E0,1.259E1,1.6095715E1,1.259E1,4.125165E-1,-2.0808005E-1,1.3940012E-1,-8.4728196E-2,7.93366E-2,-3.217561E-2,-1.923194E-2,-4.550624E-3,3.6825906E-2,2.1528913E-2,-6.123829E-3,1.3124715E-1,1.7520666E-2,-1.247921E-2,1.146699E-1],"split_indices":[17,17,17,1,29,1,16,5,10,8,1,18,32,1,0,0,0,0,0,0,0,0,0,0,0,0,0,0,0],"split_type":[0,0,0,0,0,0,0,0,0,0,0,0,0,0,0,0,0,0,0,0,0,0,0,0,0,0,0,0,0],"sum_hessian":[3.233E3,1.582E3,1.651E3,8.55E2,7.27E2,8.95E2,7.56E2,8.38E2,1.7E1,6.66E2,6.1E1,7.16E2,1.79E2,7.1E1,6.85E2,8.35E2,3E0,5E0,1.2E1,3.05E2,3.61E2,1.9E1,4.2E1,5.95E2,1.21E2,1.3E2,4.9E1,6E0,6.5E1],"tree_param":{"num_deleted":"0","num_feature":"36","num_nodes":"29","size_leaf_vector":"1"}},{"base_weights":[-2.6529338E-3,-3.4141672E-1,3.2142857E-1,-4.7919655E-1,-2.3076923E-1,1.940463E-1,4.7882512E-1,-4.8476052E-1,-0E0,-2.7133757E-1,1.3793103E-1,1.3172042E-1,2.9285714E-1,3.7606838E-1,4.9756494E-1,-2.4380466E-2,6.25E-3,2.0000001E-2,-2.0000001E-2,-1.8058969E-2,-8.707124E-3,-9.52381E-3,1.1940299E-2,-1.0465116E-2,7.994186E-3,6.4732144E-3,1.8410042E-2,1.0119048E-2,2.3355264E-2,-1.25E-2,2.495935E-2],"categories":[],"categories_nodes":[],"categories_segments":[],"categories_sizes":[],"default_left":[0,0,0,0,0,0,0,0,0,0,0,0,0,0,0,0,0,0,0,0,0,0,0,0,0,0,0,0,0,0,0],"id":19,"left_children":[1,3,5,7,9,11,13,15,17,19,21,23,25,27,29,-1,-1,-1,-1,-1,-1,-1,-1,-1,-1,-1,-1,-1,-1,-1,-1],"loss_changes":[3.5186752E2,2.377832E1,3.2748215E1,1.8583679E0,1.306546E1,5.547161E0,1.2224426E0,1.2577972E0,1.6E0,6.7918663E0,2.927628E0,5.3926754E0,4.2610474E0,1.7554665E0,8.7176514E-1,0E0,0E0,0E0,0E0,0E0,0E0,0E0,0E0,0E0,0E0,0E0,0E0,0E0,0E0,0E0,0E0],"parents":[2147483647,0,0,1,1,2,2,3,3,4,4,5,5,6,6,7,7,8,8,9,9,10,10,11,11,12,12,13,13,14,14],"right_children":[2,4,6,8,10,12,14,16,18,20,22,24,26,28,30,-1,-1,-1,-1,-1,-1,-1,-1,-1,-1,-1,-1,-1,-1,-1,-1],"split_conditions":[9.02E0,3.19E0,1.95E1,8.31E0,9.1E0,1.591E1,1.608E1,8.924167E1,1.556E1,6.01E0,8.733334E0,1.3791667E0,2.7183332E1,1.535E1,-1.0254167E1,-2.1996354E-1,5.9479713E-3,3.595245E-2,-5.2502584E-2,-4.0211637E-2,-1.7647147E-2,-2.7465874E-2,2.2604859E-2,-1.2041735E-2,1.5290069E-2,1.5047503E-2,6.214831E-2,3.739071E-2,1.6605587E-1,-7.427964E-2,4.333907E-1],"split_indices":[17,17,17,12,29,0,0,7,24,17,6,3,8,12,3,0,0,0,0,0,0,0,0,0,0,0,0,0,0,0,0],"split_type":[0,0,0,0,0,0,0,0,0,0,0,0,0,0,0,0,0,0,0,0,0,0,0,0,0,0,0,0,0,0,0],"sum_hessian":[3.203E3,1.566E3,1.637E3,6.96E2,8.7E2,9.06E2,7.31E2,6.88E2,8E0,7.84E2,8.6E1,5.57E2,3.49E2,1.16E2,6.15E2,6.85E2,3E0,4E0,4E0,4.06E2,3.78E2,2E1,6.6E1,4.2E1,5.15E2,1.11E2,2.38E2,4.1E1,7.5E1,1E0,6.14E2],"tree_param":{"num_deleted":"0","num_feature":"36","num_nodes":"31","size_leaf_vector":"1"}},{"base_weights":[9.3254587E-4,-3.2829237E-1,3.212753E-1,-4.7226173E-1,-2.1355931E-1,1.9685467E-1,4.8239437E-1,-4.7636104E-1,8.3333336E-2,-2.6634878E-1,4.276316E-2,1.5803453E-1,3.6764705E-1,3.125E-1,4.9618322E-1,-2.402174E-2,-5.5555557E-3,1.875E-2,-1.6666668E-2,-1.7574932E-2,-9.035326E-3,-2.34375E-2,5.109489E-3,1.2362638E-3,1.0008741E-2,-1.875E-2,1.9161677E-2,2.0408165E-2,-1.5625E-2,-0E0,2.4885146E-2],"categories":[],"categories_nodes":[],"categories_segments":[],"categories_sizes":[],"default_left":[0,0,0,0,0,0,0,0,0,0,0,0,0,0,0,0,0,0,0,0,0,0,0,0,0,0,0,0,0,0,0],"id":20,"left_children":[1,3,5,7,9,11,13,15,17,19,21,23,25,27,29,-1,-1,-1,-1,-1,-1,-1,-1,-1,-1,-1,-1,-1,-1,-1,-1],"loss_changes":[3.3938577E2,2.6113281E1,3.2600952E1,1.6408234E0,1.1986435E1,6.054928E0,1.5082092E0,9.85199E-1,8.541667E-1,5.2891197E0,4.6683216E0,4.225172E0,2.1115055E0,3.4757652E0,4.9391174E-1,0E0,0E0,0E0,0E0,0E0,0E0,0E0,0E0,0E0,0E0,0E0,0E0,0E0,0E0,0E0,0E0],"parents":[2147483647,0,0,1,1,2,2,3,3,4,4,5,5,6,6,7,7,8,8,9,9,10,10,11,11,12,12,13,13,14,14],"right_children":[2,4,6,8,10,12,14,16,18,20,22,24,26,28,30,-1,-1,-1,-1,-1,-1,-1,-1,-1,-1,-1,-1,-1,-1,-1,-1],"split_conditions":[9.02E0,3.19E0,1.964E1,8.403333E1,1E0,1E0,1.593E1,8.26E0,1.1048333E2,6.01E0,7.8E0,6.233333E0,3.39E1,1.755E1,-8.845834E0,-2.1196537E-1,-1.7279161E-2,5.6505683E-3,-5.7973433E-2,-3.754666E-2,-1.7700767E-2,-3.8302746E-2,1.0495651E-2,6.722069E-3,1.9530345E-2,-1.1982488E-2,7.2128795E-2,1.1790848E-1,-7.474709E-3,9.858713E-2,3.8322112E-1],"split_indices":[17,17,17,7,11,11,16,12,8,17,6,3,27,22,3,0,0,0,0,0,0,0,0,0,0,0,0,0,0,0,0],"split_type":[0,0,0,0,0,0,0,0,0,0,0,0,0,0,0,0,0,0,0,0,0,0,0,0,0,0,0,0,0,0,0],"sum_hessian":[3.216E3,1.586E3,1.63E3,7.02E2,8.84E2,9.21E2,7.09E2,6.97E2,5E0,7.33E2,1.51E2,7.52E2,1.69E2,5.5E1,6.54E2,6.89E2,8E0,3E0,2E0,3.66E2,3.67E2,1.5E1,1.36E2,1.81E2,5.71E2,3E0,1.66E2,4.8E1,7E0,2E0,6.52E2],"tree_param":{"num_deleted":"0","num_feature":"36","num_nodes":"31","size_leaf_vector":"1"}},{"base_weights":[-8.73635E-3,-3.2987422E-1,3.072401E-1,-4.536385E-1,-1.8673883E-1,1.6110472E-1,4.7660428E-1,-4.7261146E-1,-2.2794117E-1,-2.3980424E-1,7.0866145E-2,1.0072464E-1,3.9166668E-1,-1.875E-2,4.805369E-1,-2.4104774E-2,-1.171875E-2,-1.8085105E-2,3.4090912E-3,-1.4683545E-2,-7.0776255E-3,-7.2115385E-3,1.0855264E-2,-7.5949365E-3,6.658497E-3,8.035715E-3,2.1568628E-2,1.5104167E-2,2.4606017E-2],"categories":[],"categories_nodes":[],"categories_segments":[],"categories_sizes":[],"default_left":[0,0,0,0,0,0,0,0,0,0,0,0,0,0,0,0,0,0,0,0,0,0,0,0,0,0,0,0,0],"id":21,"left_children":[1,3,5,7,9,11,13,15,17,19,21,23,25,-1,27,-1,-1,-1,-1,-1,-1,-1,-1,-1,-1,-1,-1,-1,-1],"loss_changes":[3.253191E2,2.8082214E1,3.9919373E1,3.5406494E0,1.01190605E1,1.2058201E1,2.6852875E0,1.660675E0,2.7181206E0,3.2027245E0,4.026172E0,5.6757717E0,1.5813046E0,0E0,1.3913269E0,0E0,0E0,0E0,0E0,0E0,0E0,0E0,0E0,0E0,0E0,0E0,0E0,0E0,0E0],"parents":[2147483647,0,0,1,1,2,2,3,3,4,4,5,5,6,6,7,7,8,8,9,9,10,10,11,11,12,12,14,14],"right_children":[2,4,6,8,10,12,14,16,18,20,22,24,26,-1,28,-1,-1,-1,-1,-1,-1,-1,-1,-1,-1,-1,-1,-1,-1],"split_conditions":[9.02E0,4.22E0,1.612E1,6.99E0,1E0,1.488E1,2.075404E-1,1.9E1,1.8E0,1.583E1,3.59E1,1.3791667E0,1.551E1,-8.667469E-3,1.225E1,-1.8857957E-1,-1.5237962E-1,-5.916677E-2,4.1587115E-3,-3.0972004E-2,-1.2051678E-2,-1.3119555E-2,2.2883033E-2,-1.3762689E-2,1.4003706E-2,3.1049062E-2,1.0326543E-1,3.76133E-2,3.5006008E-1],"split_indices":[17,17,13,12,11,1,28,29,29,13,8,3,31,0,17,0,0,0,0,0,0,0,0,0,0,0,0,0,0],"split_type":[0,0,0,0,0,0,0,0,0,0,0,0,0,0,0,0,0,0,0,0,0,0,0,0,0,0,0,0,0],"sum_hessian":[3.204E3,1.589E3,1.615E3,8.51E2,7.38E2,8.68E2,7.47E2,7.84E2,6.7E1,6.12E2,1.26E2,6.89E2,1.79E2,3E0,7.44E2,7.53E2,3.1E1,4.6E1,2.1E1,3.94E2,2.18E2,5.1E1,7.5E1,7.8E1,6.11E2,2.7E1,1.52E2,4.7E1,6.97E2],"tree_param":{"num_deleted":"0","num_feature":"36","num_nodes":"29","size_leaf_vector":"1"}},{"base_weights":[-1.066834E-2,-3.277027E-1,3.201923E-1,-4.6086448E-1,-1.7981888E-1,1.9243604E-1,4.9320242E-1,-4.875E-1,-3.559322E-1,-2.3306452E-1,3.5714287E-2,3.1926122E-1,9.980806E-2,4.94705E-1,-1.25E-2,-2.4446903E-2,-0E0,8.928572E-3,-1.9969514E-2,-1.4086022E-2,-4.3269233E-3,1.875E-2,-1.968504E-3,3.0612245E-3,1.7824775E-2,1.6875E-3,1.5778689E-2,-0E0,2.481032E-2],"categories":[],"categories_nodes":[],"categories_segments":[],"categories_sizes":[],"default_left":[0,0,0,0,0,0,0,0,0,0,0,0,0,0,0,0,0,0,0,0,0,0,0,0,0,0,0,0,0],"id":22,"left_children":[1,3,5,7,9,11,13,15,17,19,21,23,25,27,-1,-1,-1,-1,-1,-1,-1,-1,-1,-1,-1,-1,-1,-1,-1],"loss_changes":[3.344027E2,3.197647E1,3.438597E1,2.218933E0,8.879427E0,1.052919E1,8.6294556E-1,4.767151E-1,4.1827602E0,4.3958244E0,3.9379218E0,3.6195297E0,7.415196E0,4.9095154E-1,0E0,0E0,0E0,0E0,0E0,0E0,0E0,0E0,0E0,0E0,0E0,0E0,0E0,0E0,0E0],"parents":[2147483647,0,0,1,1,2,2,3,3,4,4,5,5,6,6,7,7,8,8,9,9,10,10,11,11,12,12,13,13],"right_children":[2,4,6,8,10,12,14,16,18,20,22,24,26,28,-1,-1,-1,-1,-1,-1,-1,-1,-1,-1,-1,-1,-1,-1,-1],"split_conditions":[9.52E0,4.37E0,2.02E1,3.1E0,2.2E0,1.003E1,9.4416664E1,7E0,2.65E0,7.99E0,4.56E0,1.006E1,1.488E1,3.1458334E1,-1.3582992E-2,-1.8893811E-1,-7.4672066E-2,1.679027E-2,-4.4561245E-2,-2.6625289E-2,-7.905627E-3,2.2987222E-2,-2.881956E-3,2.3975612E-3,4.2555094E-2,3.3525468E-3,5.1219653E-2,6.498933E-2,3.4605715E-1],"split_indices":[14,14,14,14,29,18,5,4,17,14,20,14,1,27,0,0,0,0,0,0,0,0,0,0,0,0,0,0,0],"split_type":[0,0,0,0,0,0,0,0,0,0,0,0,0,0,0,0,0,0,0,0,0,0,0,0,0,0,0,0,0],"sum_hessian":[3.186E3,1.627E3,1.559E3,8.55E2,7.72E2,8.98E2,6.61E2,6.79E2,1.76E2,6.19E2,1.53E2,3.78E2,5.2E2,6.6E2,1E0,6.77E2,2E0,1.3E1,1.63E2,4.64E2,1.55E2,2.7E1,1.26E2,4.8E1,3.3E2,3.99E2,1.21E2,2E0,6.58E2],"tree_param":{"num_deleted":"0","num_feature":"36","num_nodes":"29","size_leaf_vector":"1"}},{"base_weights":[-9.088108E-3,-3.0487052E-1,2.8615385E-1,-4.6203437E-1,-1.8594594E-1,1.3840263E-1,4.7542134E-1,-4.674385E-1,6.25E-2,-2.430279E-1,6.358381E-2,8.3879426E-2,4.1118422E-1,-0E0,4.84957E-1,-2.3510175E-2,6.25E-3,2.0000001E-2,-1.875E-2,-1.7870722E-2,-9.063137E-3,-1.2500001E-3,2.132353E-2,2.0625E-2,3.2803868E-3,1.0625E-2,2.3893805E-2,-1.25E-2,2.0833334E-2,7.5000003E-3,2.4455734E-2],"categories":[],"categories_nodes":[],"categories_segments":[],"categories_sizes":[],"default_left":[0,0,0,0,0,0,0,0,0,0,0,0,0,0,0,0,0,0,0,0,0,0,0,0,0,0,0,0,0,0,0],"id":23,"left_children":[1,3,5,7,9,11,13,15,17,19,21,23,25,27,29,-1,-1,-1,-1,-1,-1,-1,-1,-1,-1,-1,-1,-1,-1,-1,-1],"loss_changes":[2.835519E2,3.02303E1,4.5376526E1,2.0077972E0,1.3190821E1,1.3559362E1,3.2278137E0,1.1906891E0,1.33125E0,5.2552376E0,5.571902E0,4.5543337E0,1.9125462E0,1.6666666E0,8.986969E-1,0E0,0E0,0E0,0E0,0E0,0E0,0E0,0E0,0E0,0E0,0E0,0E0,0E0,0E0,0E0,0E0],"parents":[2147483647,0,0,1,1,2,2,3,3,4,4,5,5,6,6,7,7,8,8,9,9,10,10,11,11,12,12,13,13,14,14],"right_children":[2,4,6,8,10,12,14,16,18,20,22,24,26,28,30,-1,-1,-1,-1,-1,-1,-1,-1,-1,-1,-1,-1,-1,-1,-1,-1],"split_conditions":[9.36E0,3.19E0,1.629E1,8.74E0,1E0,1.584E1,-3.2416666E0,8.403333E1,2.0433332E1,1.562E1,1.003E1,9.36E0,1.568E1,1.1842143E1,1.006E1,-1.794912E-1,1.1837649E-2,1.6158272E-2,-4.870391E-2,-3.43447E-2,-1.5751338E-2,-2.5609971E-3,1.3704672E-1,3.3456136E-2,8.308507E-3,3.3148956E-2,1.2410825E-1,-3.804312E-2,6.2391806E-2,2.065568E-2,3.2975417E-1],"split_indices":[17,17,0,12,11,1,3,7,3,0,1,20,13,34,17,0,0,0,0,0,0,0,0,0,0,0,0,0,0,0,0],"split_type":[0,0,0,0,0,0,0,0,0,0,0,0,0,0,0,0,0,0,0,0,0,0,0,0,0,0,0,0,0,0,0],"sum_hessian":[3.245E3,1.621E3,1.624E3,6.97E2,9.24E2,9.13E2,7.11E2,6.9E2,7E0,7.52E2,1.72E2,7.62E2,1.51E2,1.4E1,6.97E2,6.87E2,3E0,4E0,3E0,2.62E2,4.9E2,1.39E2,3.3E1,3.9E1,7.23E2,3.9E1,1.12E2,9E0,5E0,9E0,6.88E2],"tree_param":{"num_deleted":"0","num_feature":"36","num_nodes":"31","size_leaf_vector":"1"}},{"base_weights":[-1.8650917E-3,-3.0488542E-1,3.201923E-1,-4.4876125E-1,-1.387808E-1,1.8299882E-1,4.8249298E-1,-4.8918468E-1,-3.628472E-1,-1.8729903E-1,6.333333E-2,2.819149E-1,5.952381E-2,3.611111E-1,2.496E-2,-2.4541667E-2,1.25E-2,-2.0158103E-2,-3.4722225E-3,-6.70045E-3,-1.5921788E-2,-6.818182E-4,1.3414635E-2,4.934211E-3,1.5822785E-2,4.719764E-3,-1.1875E-2,2.3809525E-3,2.2499999E-2],"categories":[],"categories_nodes":[],"categories_segments":[],"categories_sizes":[],"default_left":[0,0,0,0,0,0,0,0,0,0,0,0,0,0,0,0,0,0,0,0,0,0,0,0,0,0,0,0,0],"id":24,"left_children":[1,3,5,7,9,11,13,15,17,19,21,23,25,27,-1,-1,-1,-1,-1,-1,-1,-1,-1,-1,-1,-1,-1,-1,-1],"loss_changes":[3.140444E2,3.956134E1,3.4647614E1,2.9064636E0,7.5724583E0,1.0328192E1,1.2676697E0,8.551178E-1,3.378605E0,4.304037E0,2.3700075E0,2.9433708E0,3.937613E0,2.4865084E0,0E0,0E0,0E0,0E0,0E0,0E0,0E0,0E0,0E0,0E0,0E0,0E0,0E0,0E0,0E0],"parents":[2147483647,0,0,1,1,2,2,3,3,4,4,5,5,6,6,7,7,8,8,9,9,10,10,11,11,12,12,13,13],"right_children":[2,4,6,8,10,12,14,16,18,20,22,24,26,28,-1,-1,-1,-1,-1,-1,-1,-1,-1,-1,-1,-1,-1,-1,-1],"split_conditions":[9.76E0,4.5E0,1.985E1,2.4E0,2.1E0,1.133E1,2.157E1,9.5958336E1,6E0,8.55E0,3.711E-1,1.04E1,2.05E1,1.281E1,3.4045058E-1,-1.8722913E-1,1.2967897E-2,-4.75593E-2,-1.600287E-2,-1.2559915E-2,-2.9976249E-2,-4.0168763E-4,8.683336E-3,9.642506E-3,3.6062386E-2,8.871937E-3,-1.1225986E-2,7.2370055E-3,7.712956E-2],"split_indices":[14,14,14,14,29,21,14,5,29,34,28,14,20,1,0,0,0,0,0,0,0,0,0,0,0,0,0,0,0],"split_type":[0,0,0,0,0,0,0,0,0,0,0,0,0,0,0,0,0,0,0,0,0,0,0,0,0,0,0,0,0],"sum_hessian":[3.216E3,1.657E3,1.559E3,8.87E2,7.7E2,8.46E2,7.13E2,6E2,2.87E2,6.21E2,1.49E2,4.69E2,3.77E2,8.9E1,6.24E2,5.99E2,1E0,2.52E2,3.5E1,4.43E2,1.78E2,1.09E2,4E1,7.5E1,3.94E2,3.38E2,3.9E1,2E1,6.9E1],"tree_param":{"num_deleted":"0","num_feature":"36","num_nodes":"29","size_leaf_vector":"1"}},{"base_weights":[-9.564949E-3,-2.4236841E-1,3.200447E-1,-4.0527952E-1,-7.3796794E-2,1.1960432E-1,4.6124524E-1,-4.7280702E-1,-3.073048E-1,-1.5614887E-1,8.647799E-2,-0E0,2.747934E-1,3.219697E-1,4.8856708E-1,-2.3895761E-2,1.0000001E-2,-1.7954545E-2,-2.5735295E-3,-9.801137E-3,3.846154E-3,2.0833334E-3,1.8604651E-2,5.9602647E-3,-5.4545454E-3,7.7083334E-3,1.9512195E-2,2.15625E-2,7.54717E-3,1.25E-2,2.4650078E-2],"categories":[],"categories_nodes":[],"categories_segments":[],"categories_sizes":[],"default_left":[0,0,0,0,0,0,0,0,0,0,0,0,0,0,0,0,0,0,0,0,0,0,0,0,0,0,0,0,0,0,0],"id":25,"left_children":[1,3,5,7,9,11,13,15,17,19,21,23,25,27,29,-1,-1,-1,-1,-1,-1,-1,-1,-1,-1,-1,-1,-1,-1,-1,-1],"loss_changes":[2.4877335E2,5.2148254E1,3.7926514E1,6.245743E0,1.2354532E1,1.0320072E1,2.8374481E0,2.0545654E0,5.241234E0,5.7584486E0,4.05451E0,4.109332E0,3.31003E0,2.4019604E0,5.7073975E-1,0E0,0E0,0E0,0E0,0E0,0E0,0E0,0E0,0E0,0E0,0E0,0E0,0E0,0E0,0E0,0E0],"parents":[2147483647,0,0,1,1,2,2,3,3,4,4,5,5,6,6,7,7,8,8,9,9,10,10,11,11,12,12,13,13,14,14],"right_children":[2,4,6,8,10,12,14,16,18,20,22,24,26,28,30,-1,-1,-1,-1,-1,-1,-1,-1,-1,-1,-1,-1,-1,-1,-1,-1],"split_conditions":[9.56E0,5E0,1.603E1,2.02E0,1.023E1,1.316E1,1.25E1,7.867917E1,3E0,1E0,1.629E1,1.163E1,1.5899285E1,1.215E1,1.606E1,-1.8486767E-1,1.1647058E-2,-4.586767E-2,-1.648811E-2,-1.8326903E-2,2.5250793E-3,6.112194E-3,3.5021424E-2,8.091616E-3,-7.431984E-3,2.4439622E-2,6.363096E-2,5.526991E-2,1.6926622E-2,5.8988478E-2,3.2799402E-1],"split_indices":[1,20,0,20,20,1,1,7,29,11,0,18,35,18,0,0,0,0,0,0,0,0,0,0,0,0,0,0,0,0,0],"split_type":[0,0,0,0,0,0,0,0,0,0,0,0,0,0,0,0,0,0,0,0,0,0,0,0,0,0,0,0,0,0,0],"sum_hessian":[3.24E3,1.899E3,1.341E3,9.65E2,9.34E2,5.55E2,7.86E2,5.69E2,3.96E2,6.17E2,3.17E2,3.14E2,2.41E2,1.31E2,6.55E2,5.65E2,4E0,3.29E2,6.7E1,5.27E2,9E1,2.75E2,4.2E1,1.5E2,1.64E2,1.19E2,1.22E2,7.9E1,5.2E1,1.3E1,6.42E2],"tree_param":{"num_deleted":"0","num_feature":"36","num_nodes":"31","size_leaf_vector":"1"}},{"base_weights":[-9.543179E-3,-3.224149E-1,2.875E-1,-4.6201745E-1,-1.7350994E-1,1.6747104E-1,4.92562E-1,-4.9087894E-1,-3.7313432E-1,-1.1200717E-1,-3.459596E-1,2.5682592E-1,5.0997782E-2,2.5E-1,4.9580538E-1,-2.4707846E-2,-0E0,-2.1207865E-2,1.0416667E-3,1.2264151E-2,-7.4604745E-3,-2.0261439E-2,-7.0652175E-3,5.2980133E-3,1.5424313E-2,1.3927577E-4,1.1827957E-2,-6.25E-3,2.1428572E-2,6.25E-3,2.4873525E-2],"categories":[],"categories_nodes":[],"categories_segments":[],"categories_sizes":[],"default_left":[0,0,0,0,0,0,0,0,0,0,0,0,0,0,0,0,0,0,0,0,0,0,0,0,0,0,0,0,0,0,0],"id":26,"left_children":[1,3,5,7,9,11,13,15,17,19,21,23,25,27,29,-1,-1,-1,-1,-1,-1,-1,-1,-1,-1,-1,-1,-1,-1,-1,-1],"loss_changes":[2.9711743E2,3.228598E1,4.0283463E1,1.8767853E0,7.9688797E0,1.076903E1,3.52005E-1,9.702759E-1,4.049219E0,7.4535465E0,2.344429E0,4.534458E0,4.0341377E0,7.2321427E-1,3.0581665E-1,0E0,0E0,0E0,0E0,0E0,0E0,0E0,0E0,0E0,0E0,0E0,0E0,0E0,0E0,0E0,0E0],"parents":[2147483647,0,0,1,1,2,2,3,3,4,4,5,5,6,6,7,7,8,8,9,9,10,10,11,11,12,12,13,13,14,14],"right_children":[2,4,6,8,10,12,14,16,18,20,22,24,26,28,30,-1,-1,-1,-1,-1,-1,-1,-1,-1,-1,-1,-1,-1,-1,-1,-1],"split_conditions":[8.87E0,3.84E0,2.157E1,2.4E0,8.05E0,1.133E1,5E-2,3.46E1,6E0,3.96E0,1.582E1,1.04E1,1.95E1,1.709E1,1.5737143E1,-1.6912429E-1,-2.9879177E-2,-5.14758E-2,1.1089921E-3,1.7808331E-2,-1.1218048E-2,-3.597044E-2,-2.2508336E-2,8.349395E-3,3.4579087E-2,1.4133453E-4,3.756566E-2,-1.5563965E-4,8.784504E-2,1.173624E-1,3.213443E-1],"split_indices":[14,14,14,14,18,21,25,2,29,20,0,14,14,0,35,0,0,0,0,0,0,0,0,0,0,0,0,0,0,0,0],"split_type":[0,0,0,0,0,0,0,0,0,0,0,0,0,0,0,0,0,0,0,0,0,0,0,0,0,0,0,0,0,0,0],"sum_hessian":[3.195E3,1.556E3,1.639E3,8.02E2,7.54E2,1.035E3,6.04E2,6.02E2,2E2,5.57E2,1.97E2,5.85E2,4.5E2,9E0,5.95E2,5.98E2,4E0,1.77E2,2.3E1,5.2E1,5.05E2,1.52E2,4.5E1,1.5E2,4.35E2,3.58E2,9.2E1,3E0,6E0,3E0,5.92E2],"tree_param":{"num_deleted":"0","num_feature":"36","num_nodes":"31","size_leaf_vector":"1"}},{"base_weights":[-5.812175E-3,-3.004189E-1,3.020638E-1,-4.7720996E-1,-1.6508439E-1,1.8200621E-1,4.849921E-1,-4.7856155E-1,1.25E-2,-2.2411242E-1,-1.831502E-2,2.8E-1,1.0497238E-1,3.5576922E-1,4.9570447E-1,-2.3995845E-2,1.25E-2,-1.5479452E-2,-6.169872E-3,2.1052632E-2,-2.5490196E-3,-4.3103448E-4,1.6236413E-2,2.3726854E-3,1.6294643E-2,2.0312501E-2,-1.0000001E-2,-0E0,2.487069E-2],"categories":[],"categories_nodes":[],"categories_segments":[],"categories_sizes":[],"default_left":[0,0,0,0,0,0,0,0,0,0,0,0,0,0,0,0,0,0,0,0,0,0,0,0,0,0,0,0,0],"id":27,"left_children":[1,3,5,7,9,11,13,15,-1,17,19,21,23,25,27,-1,-1,-1,-1,-1,-1,-1,-1,-1,-1,-1,-1,-1,-1],"loss_changes":[2.9659665E2,3.990146E1,3.502887E1,8.3125305E-1,8.208902E0,7.2703323E0,6.9989014E-1,8.339081E-1,0E0,5.78133E0,3.939591E0,5.489338E0,6.8844647E0,1.540144E0,4.9313354E-1,0E0,0E0,0E0,0E0,0E0,0E0,0E0,0E0,0E0,0E0,0E0,0E0,0E0,0E0],"parents":[2147483647,0,0,1,1,2,2,3,3,4,4,5,5,6,6,7,7,9,9,10,10,11,11,12,12,13,13,14,14],"right_children":[2,4,6,8,10,12,14,16,-1,18,20,22,24,26,28,-1,-1,-1,-1,-1,-1,-1,-1,-1,-1,-1,-1,-1,-1],"split_conditions":[9.52E0,3.19E0,2.138E1,7E0,7E-1,1.0591071E1,2.207E1,9.5958336E1,2.968353E-2,6.32E0,2.82E0,1.014E1,1.535E1,1.9302143E1,1.5737143E1,-1.472781E-1,2.305684E-2,-2.7972925E-2,-1.1523652E-2,1.9626975E-2,-3.7034273E-3,-2.8281214E-4,3.3314086E-2,4.887724E-3,3.6307335E-2,5.3777125E-2,-3.935337E-3,6.133733E-2,3.062771E-1],"split_indices":[14,14,14,4,29,34,14,5,0,14,17,14,1,35,35,0,0,0,0,0,0,0,0,0,0,0,0,0,0],"split_type":[0,0,0,0,0,0,0,0,0,0,0,0,0,0,0,0,0,0,0,0,0,0,0,0,0,0,0,0,0],"sum_hessian":[3.268E3,1.67E3,1.598E3,7.23E2,9.47E2,9.66E2,6.32E2,7.22E2,1E0,6.75E2,2.72E2,4.24E2,5.42E2,5.1E1,5.81E2,7.21E2,1E0,3.64E2,3.11E2,1.8E1,2.54E2,5.7E1,3.67E2,4.31E2,1.11E2,4.7E1,4E0,2E0,5.79E2],"tree_param":{"num_deleted":"0","num_feature":"36","num_nodes":"29","size_leaf_vector":"1"}},{"base_weights":[-5.7417755E-3,-2.7809343E-1,2.5747406E-1,-4.64404E-1,-1.6309887E-1,9.0193704E-2,4.2690417E-1,-4.7078463E-1,2.5E-1,-2.2601745E-1,-1.5306123E-2,5.277402E-2,4.034091E-1,2.2695035E-1,4.6810088E-1,-2.3773266E-2,-5.5555557E-3,-1.25E-2,2.0000001E-2,-1.7298577E-2,-8.629708E-3,-5.367232E-3,6.1440677E-3,6.3920454E-3,-6.7216977E-3,-2.5000002E-3,2.278481E-2,2.198276E-2,3.8690479E-3,1.7821783E-2,2.434669E-2],"categories":[],"categories_nodes":[],"categories_segments":[],"categories_sizes":[],"default_left":[0,0,0,0,0,0,0,0,0,0,0,0,0,0,0,0,0,0,0,0,0,0,0,0,0,0,0,0,0,0,0],"id":28,"left_children":[1,3,5,7,9,11,13,15,17,19,21,23,25,27,29,-1,-1,-1,-1,-1,-1,-1,-1,-1,-1,-1,-1,-1,-1,-1,-1],"loss_changes":[2.31048E2,3.3860985E1,4.6414574E1,2.8709564E0,9.118771E0,9.659779E0,6.599045E0,9.555969E-1,5.5E-1,4.349228E0,3.7524502E0,1.0402442E1,2.1090403E0,4.4517717E0,1.2438354E0,0E0,0E0,0E0,0E0,0E0,0E0,0E0,0E0,0E0,0E0,0E0,0E0,0E0,0E0,0E0,0E0],"parents":[2147483647,0,0,1,1,2,2,3,3,4,4,5,5,6,6,7,7,8,8,9,9,10,10,11,11,12,12,13,13,14,14],"right_children":[2,4,6,8,10,12,14,16,18,20,22,24,26,28,30,-1,-1,-1,-1,-1,-1,-1,-1,-1,-1,-1,-1,-1,-1,-1,-1],"split_conditions":[9.02E0,2.4E0,1.342E1,7.473333E1,8E-1,1.735E1,1.5899285E1,7.24E0,2.72E0,4.64E0,6.49E0,1.163E1,3.4960693E-1,1.508E1,1.477E1,-1.5305416E-1,-5.6845374E-2,-2.7284766E-2,1.3504922E-2,-4.0094327E-2,-1.675005E-2,-1.109947E-2,1.1714649E-2,1.1584091E-2,-9.8135E-3,-3.9634705E-4,7.646399E-2,9.153481E-2,1.1839772E-2,4.9004745E-2,2.891124E-1],"split_indices":[17,17,1,7,29,13,35,1,1,17,1,18,10,18,1,0,0,0,0,0,0,0,0,0,0,0,0,0,0,0,0],"split_type":[0,0,0,0,0,0,0,0,0,0,0,0,0,0,0,0,0,0,0,0,0,0,0,0,0,0,0,0,0,0,0],"sum_hessian":[3.221E3,1.583E3,1.638E3,6.03E2,9.8E2,8.25E2,8.13E2,5.98E2,5E0,6.87E2,2.93E2,7.38E2,8.7E1,1.4E2,6.73E2,5.9E2,8E0,1E0,4E0,2.1E2,4.77E2,1.76E2,1.17E2,5.27E2,2.11E2,9E0,7.8E1,5.7E1,8.3E1,1E2,5.73E2],"tree_param":{"num_deleted":"0","num_feature":"36","num_nodes":"31","size_leaf_vector":"1"}},{"base_weights":[-5.287714E-3,-3.1634748E-1,2.539909E-1,-4.840336E-1,-2.0103687E-1,1.2938596E-1,4.8455286E-1,-4.856661E-1,-0E0,-3.5678393E-1,-1.5447761E-1,2.0208023E-1,2.457265E-2,3.7333333E-1,2.495379E-2,-2.4364408E-2,-6.25E-3,1.25E-2,-1.25E-2,-1.904762E-2,4.545455E-3,-9.017713E-3,8.5E-3,6.491416E-3,1.8149039E-2,-3.4802785E-4,1.9078948E-2,2.2033898E-2,5.882353E-3],"categories":[],"categories_nodes":[],"categories_segments":[],"categories_sizes":[],"default_left":[0,0,0,0,0,0,0,0,0,0,0,0,0,0,0,0,0,0,0,0,0,0,0,0,0,0,0,0,0],"id":29,"left_children":[1,3,5,7,9,11,13,15,17,19,21,23,25,27,-1,-1,-1,-1,-1,-1,-1,-1,-1,-1,-1,-1,-1,-1,-1],"loss_changes":[2.5937372E2,2.817192E1,5.032823E1,4.701538E-1,6.2391586E0,8.6810665E0,8.070526E-1,2.8599548E-1,2.5E-1,2.1878242E0,5.656245E0,7.7767506E0,5.2711906E0,1.2395887E0,0E0,0E0,0E0,0E0,0E0,0E0,0E0,0E0,0E0,0E0,0E0,0E0,0E0,0E0,0E0],"parents":[2147483647,0,0,1,1,2,2,3,3,4,4,5,5,6,6,7,7,8,8,9,9,10,10,11,11,12,12,13,13],"right_children":[2,4,6,8,10,12,14,16,18,20,22,24,26,28,-1,-1,-1,-1,-1,-1,-1,-1,-1,-1,-1,-1,-1,-1,-1],"split_conditions":[7.99E0,2.4E0,2.138E1,5.07E1,1.554E1,1.125E1,2.242E1,2.58125E1,1.581E1,8.3E0,8.8E1,1.0105E1,1.858E1,2.38E1,2.9070815E-1,-1.4683698E-1,-7.435145E-2,2.7524102E-2,-1.3226148E-1,-3.8384717E-2,9.561348E-3,-1.734271E-2,1.1711383E-2,1.139946E-2,5.5025388E-2,-6.496906E-4,5.810814E-2,4.5954276E-2,2.95372E-3],"split_indices":[14,14,14,29,0,21,14,6,0,29,5,1,1,20,0,0,0,0,0,0,0,0,0,0,0,0,0,0,0],"split_type":[0,0,0,0,0,0,0,0,0,0,0,0,0,0,0,0,0,0,0,0,0,0,0,0,0,0,0,0,0],"sum_hessian":[3.214E3,1.461E3,1.753E3,5.94E2,8.67E2,1.139E3,6.14E2,5.92E2,2E0,1.98E2,6.69E2,6.72E2,4.67E2,7.4E1,5.4E2,5.89E2,3E0,1E0,1E0,1.88E2,1E1,6.2E2,4.9E1,4.65E2,2.07E2,4.3E2,3.7E1,5.8E1,1.6E1],"tree_param":{"num_deleted":"0","num_feature":"36","num_nodes":"29","size_leaf_vector":"1"}},{"base_weights":[-4.605465E-3,-3.1413263E-1,2.5722378E-1,-4.5046234E-1,-1.7367707E-1,1.233945E-1,4.7263312E-1,-4.7790506E-1,-3.3333334E-1,-3.3519554E-1,-1.2164579E-1,2.0015338E-1,9.111618E-3,3.382353E-1,2.478261E-2,-2.4052719E-2,-0E0,-3.6764708E-3,-2.0394737E-2,-2.2635136E-2,-1.25E-2,5.3977272E-3,-8.209745E-3,6.6037737E-3,1.9176137E-2,-6.3414634E-3,6.382979E-3,2.0170456E-2,-3.3333336E-3],"categories":[],"categories_nodes":[],"categories_segments":[],"categories_sizes":[],"default_left":[0,0,0,0,0,0,0,0,0,0,0,0,0,0,0,0,0,0,0,0,0,0,0,0,0,0,0,0,0],"id":30,"left_children":[1,3,5,7,9,11,13,15,17,19,21,23,25,27,-1,-1,-1,-1,-1,-1,-1,-1,-1,-1,-1,-1,-1,-1,-1],"loss_changes":[2.640387E2,2.8510132E1,5.0823242E1,2.273941E0,6.1529827E0,9.559902E0,1.9236908E0,9.1960144E-1,2.8175945E0,1.6788082E0,5.47876E0,8.088526E0,7.0909014E0,2.7185717E0,0E0,0E0,0E0,0E0,0E0,0E0,0E0,0E0,0E0,0E0,0E0,0E0,0E0,0E0,0E0],"parents":[2147483647,0,0,1,1,2,2,3,3,4,4,5,5,6,6,7,7,8,8,9,9,10,10,11,11,12,12,13,13],"right_children":[2,4,6,8,10,12,14,16,18,20,22,24,26,28,-1,-1,-1,-1,-1,-1,-1,-1,-1,-1,-1,-1,-1,-1,-1],"split_conditions":[8.2E0,3.46E0,2.102E1,2.4E0,2.3E0,1.133E1,2.269E1,3.24E1,2.48E0,1.565E1,4.23E0,1.031E1,1.259E1,1.9302143E1,2.9097223E-1,-1.380596E-1,-1.0285139E-2,-1.3248229E-2,-4.6252478E-2,-3.8706303E-2,-2.1118259E-2,3.7078857E-3,-1.3825441E-2,1.1149788E-2,6.051607E-2,-9.124184E-3,1.6846633E-2,3.8708117E-2,-3.6049366E-3],"split_indices":[14,14,14,14,7,18,14,2,17,13,18,1,1,35,0,0,0,0,0,0,0,0,0,0,0,0,0,0,0],"split_type":[0,0,0,0,0,0,0,0,0,0,0,0,0,0,0,0,0,0,0,0,0,0,0,0,0,0,0,0,0],"sum_hessian":[3.256E3,1.492E3,1.764E3,7.56E2,7.36E2,1.089E3,6.75E2,6.1E2,1.46E2,1.78E2,5.58E2,6.51E2,4.38E2,1.01E2,5.74E2,6.06E2,4E0,3.3E1,1.13E2,7.3E1,1.05E2,8.7E1,4.71E2,4.76E2,1.75E2,2.04E2,2.34E2,8.7E1,1.4E1],"tree_param":{"num_deleted":"0","num_feature":"36","num_nodes":"29","size_leaf_vector":"1"}},{"base_weights":[-9.680393E-3,-3.1617647E-1,2.2988506E-1,-4.5201668E-1,-1.7816901E-1,1.010952E-1,4.680187E-1,-4.7049442E-1,-3.2258064E-1,-2.9757786E-1,-9.597156E-2,3.3613446E-1,7.48363E-2,3.464567E-1,2.485437E-2,-2.368E-2,1.6666668E-2,-1.1363637E-3,-2.048611E-2,1.4285715E-2,-1.5547703E-2,-3.2299743E-3,-2.1527778E-2,-1.875E-2,1.7887931E-2,-5.1219515E-3,5.83815E-3,1.923077E-2,-4.545455E-3],"categories":[],"categories_nodes":[],"categories_segments":[],"categories_sizes":[],"default_left":[0,0,0,0,0,0,0,0,0,0,0,0,0,0,0,0,0,0,0,0,0,0,0,0,0,0,0,0,0],"id":31,"left_children":[1,3,5,7,9,11,13,15,17,19,21,23,25,27,-1,-1,-1,-1,-1,-1,-1,-1,-1,-1,-1,-1,-1,-1,-1],"loss_changes":[2.3900047E2,2.6690125E1,5.5985306E1,1.5678406E0,6.9401646E0,7.3008575E0,2.092865E0,1.7230682E0,2.4207497E0,2.3436909E0,4.4017496E0,1.9641047E0,7.957379E0,2.1545067E0,0E0,0E0,0E0,0E0,0E0,0E0,0E0,0E0,0E0,0E0,0E0,0E0,0E0,0E0,0E0],"parents":[2147483647,0,0,1,1,2,2,3,3,4,4,5,5,6,6,7,7,8,8,9,9,10,10,11,11,12,12,13,13],"right_children":[2,4,6,8,10,12,14,16,18,20,22,24,26,28,-1,-1,-1,-1,-1,-1,-1,-1,-1,-1,-1,-1,-1,-1,-1],"split_conditions":[7.61E0,3.1E0,2.138E1,2.46E0,1.565E1,7.92E0,2.345E1,3.46E1,2.48E0,1.519E1,7.43E0,4.025E0,9.96E0,2.0050714E1,2.9717365E-1,-1.3055037E-1,1.24541596E-1,-1.2753367E-3,-4.3902017E-2,1.477468E-2,-2.455802E-2,-5.9081973E-3,-3.886955E-2,-2.2058964E-3,3.5003018E-2,-9.8041175E-3,1.3024163E-2,4.386554E-2,-3.4246922E-3],"split_indices":[14,14,14,14,0,20,14,2,17,19,17,26,14,35,0,0,0,0,0,0,0,0,0,0,0,0,0,0,0],"split_type":[0,0,0,0,0,0,0,0,0,0,0,0,0,0,0,0,0,0,0,0,0,0,0,0,0,0,0,0,0],"sum_hessian":[3.253E3,1.427E3,1.826E3,7.18E2,7.09E2,1.186E3,6.4E2,6.26E2,9.2E1,2.88E2,4.21E2,1.18E2,1.068E3,1.26E2,5.14E2,6.24E2,2E0,2.1E1,7.1E1,6E0,2.82E2,3.86E2,3.5E1,3E0,1.15E2,2.04E2,8.64E2,1.16E2,1E1],"tree_param":{"num_deleted":"0","num_feature":"36","num_nodes":"29","size_leaf_vector":"1"}},{"base_weights":[-8.062015E-3,-3.0503795E-1,2.3410241E-1,-4.3378714E-1,-1.4252336E-1,1.0940246E-1,4.5546874E-1,-4.737288E-1,-3.242009E-1,3.448276E-1,-1.6530944E-1,4.539106E-2,2.1749409E-1,3.5E-1,2.4944568E-2,-2.3769101E-2,1.25E-2,-3.6458333E-3,-1.9622093E-2,2.173913E-2,-0E0,-1.399177E-2,-4.5026885E-3,5.427632E-3,-3.2567051E-3,1.609756E-2,5.936073E-3,-1.0227273E-2,2.1005917E-2],"categories":[],"categories_nodes":[],"categories_segments":[],"categories_sizes":[],"default_left":[0,0,0,0,0,0,0,0,0,0,0,0,0,0,0,0,0,0,0,0,0,0,0,0,0,0,0,0,0],"id":32,"left_children":[1,3,5,7,9,11,13,15,17,19,21,23,25,27,-1,-1,-1,-1,-1,-1,-1,-1,-1,-1,-1,-1,-1,-1,-1],"loss_changes":[2.3200377E2,3.02565E1,4.9003136E1,3.383072E0,7.1862984E0,7.8640604E0,2.756424E0,8.2476807E-1,3.7267704E0,8.995502E-1,5.266699E0,5.0054255E0,4.326082E0,7.473856E0,0E0,0E0,0E0,0E0,0E0,0E0,0E0,0E0,0E0,0E0,0E0,0E0,0E0,0E0,0E0],"parents":[2147483647,0,0,1,1,2,2,3,3,4,4,5,5,6,6,7,7,8,8,9,9,10,10,11,11,12,12,13,13],"right_children":[2,4,6,8,10,12,14,16,18,20,22,24,26,28,-1,-1,-1,-1,-1,-1,-1,-1,-1,-1,-1,-1,-1,-1,-1],"split_conditions":[7.99E0,3.84E0,2.102E1,2.19E0,3.65E0,3E-1,1.779E1,9.5958336E1,2.56E0,7.54E0,1.565E1,1.153E1,1.0170714E1,1.332E1,3.0931497E-1,-1.2402286E-1,3.11857E-2,-9.2646E-3,-4.078528E-2,3.4142066E-2,-3.7513615E-3,-1.9787228E-2,-8.069563E-3,9.015179E-3,-4.493666E-3,3.265498E-2,1.593349E-2,-5.720425E-3,8.738794E-2],"split_indices":[14,14,14,14,17,29,0,5,17,15,0,18,34,1,0,0,0,0,0,0,0,0,0,0,0,0,0,0,0],"split_type":[0,0,0,0,0,0,0,0,0,0,0,0,0,0,0,0,0,0,0,0,0,0,0,0,0,0,0,0,0],"sum_hessian":[3.224E3,1.448E3,1.776E3,8.07E2,6.41E2,1.137E3,6.39E2,5.89E2,2.18E2,2.8E1,6.13E2,7.15E2,4.22E2,1.89E2,4.5E2,5.88E2,1E0,4.7E1,1.71E2,2.2E1,6E0,2.42E2,3.71E2,4.55E2,2.6E2,2.04E2,2.18E2,2.1E1,1.68E2],"tree_param":{"num_deleted":"0","num_feature":"36","num_nodes":"29","size_leaf_vector":"1"}},{"base_weights":[-1.0314039E-2,-2.6194742E-1,2.5714287E-1,-4.1485506E-1,-1.1216056E-1,1.3532339E-1,4.7110334E-1,-4.826884E-1,-3.1508875E-1,-2.7322406E-1,-6.7669176E-2,8.3333336E-2,3.866279E-1,3.472222E-1,2.4946121E-2,-2.4332648E-2,-0E0,-1.7725753E-2,-6.2500004E-4,-1.5384616E-2,6.6666673E-3,-4.1407868E-4,-1.1202185E-2,1.2034162E-2,-7.797271E-4,-1.1111111E-2,2.0884147E-2,2.15625E-2,5.1724142E-3],"categories":[],"categories_nodes":[],"categories_segments":[],"categories_sizes":[],"default_left":[0,0,0,0,0,0,0,0,0,0,0,0,0,0,0,0,0,0,0,0,0,0,0,0,0,0,0,0,0],"id":33,"left_children":[1,3,5,7,9,11,13,15,17,19,21,23,25,27,-1,-1,-1,-1,-1,-1,-1,-1,-1,-1,-1,-1,-1,-1,-1],"loss_changes":[2.1866129E2,3.829403E1,4.0987907E1,5.4513855E0,6.0510626E0,1.3098442E1,1.7945862E0,9.396057E-1,4.0278893E0,2.605464E0,6.173805E0,1.298604E1,3.3449688E0,2.1676369E0,0E0,0E0,0E0,0E0,0E0,0E0,0E0,0E0,0E0,0E0,0E0,0E0,0E0,0E0,0E0],"parents":[2147483647,0,0,1,1,2,2,3,3,4,4,5,5,6,6,7,7,8,8,9,9,10,10,11,11,12,12,13,13],"right_children":[2,4,6,8,10,12,14,16,18,20,22,24,26,28,-1,-1,-1,-1,-1,-1,-1,-1,-1,-1,-1,-1,-1,-1,-1],"split_conditions":[9.76E0,4.03E0,1.7E1,1.4E0,1.4208333E0,1.613E1,1.38E1,9.4416664E1,4.7E0,3.0379168E1,8.12E0,1.003E1,3.7083334E-1,1.631E1,2.970992E-1,-1.3567796E-1,-4.2904224E-2,-3.3140663E-2,-1.5268564E-3,-2.1237982E-2,9.224427E-3,-4.0984154E-4,-2.2363579E-2,2.3201276E-2,-1.6650915E-3,-1.827383E-2,1.0141974E-1,3.908625E-2,1.773162E-2],"split_indices":[14,14,0,14,7,1,1,5,29,3,18,18,7,23,0,0,0,0,0,0,0,0,0,0,0,0,0,0,0],"split_type":[0,0,0,0,0,0,0,0,0,0,0,0,0,0,0,0,0,0,0,0,0,0,0,0,0,0,0,0,0],"sum_hessian":[3.247E3,1.673E3,1.574E3,8.27E2,8.46E2,1.004E3,5.7E2,4.9E2,3.37E2,1.82E2,6.64E2,8.33E2,1.71E2,1.07E2,4.63E2,4.86E2,4E0,2.98E2,3.9E1,1.68E2,1.4E1,4.82E2,1.82E2,3.21E2,5.12E2,8E0,1.63E2,7.9E1,2.8E1],"tree_param":{"num_deleted":"0","num_feature":"36","num_nodes":"29","size_leaf_vector":"1"}},{"base_weights":[-1.4485981E-2,-2.567649E-1,2.4580103E-1,-4.136646E-1,-1.0942957E-1,1.3249063E-1,2.4844075E-2,-4.768145E-1,-3.1129032E-1,-5.7753164E-2,-2.5219297E-1,2.2647059E-1,4.6511628E-2,-2.3939393E-2,1.25E-2,-1.8055556E-2,1.2195122E-3,-5.9273425E-3,1.1590909E-2,-1.597633E-2,-2.9166667E-3,7.590759E-3,1.6706731E-2,-1.3189449E-3,1.2937063E-2],"categories":[],"categories_nodes":[],"categories_segments":[],"categories_sizes":[],"default_left":[0,0,0,0,0,0,0,0,0,0,0,0,0,0,0,0,0,0,0,0,0,0,0,0,0],"id":34,"left_children":[1,3,5,7,9,11,-1,13,15,17,19,21,23,-1,-1,-1,-1,-1,-1,-1,-1,-1,-1,-1,-1],"loss_changes":[2.024923E2,3.839808E1,4.3974815E1,5.055847E0,6.322707E0,8.61923E0,0E0,8.3109283E-1,5.193207E0,1.1153278E1,2.957508E0,4.0485E0,8.654292E0,0E0,0E0,0E0,0E0,0E0,0E0,0E0,0E0,0E0,0E0,0E0,0E0],"parents":[2147483647,0,0,1,1,2,2,3,3,4,4,5,5,7,7,8,8,9,9,10,10,11,11,12,12],"right_children":[2,4,6,8,10,12,-1,14,16,18,20,22,24,-1,-1,-1,-1,-1,-1,-1,-1,-1,-1,-1,-1],"split_conditions":[9.76E0,3.84E0,2.38E1,1.55E0,8.12E0,1.125E1,2.654942E-1,9.5958336E1,4.7E0,7.39E0,1.018E1,1.031E1,1.535E1,-1.256442E-1,3.1771637E-2,-3.0457998E-2,1.7479778E-3,-9.230566E-3,1.7162157E-2,-2.9558493E-2,-5.351567E-3,1.2723493E-2,5.1959753E-2,-1.7957211E-3,4.3599296E-2],"split_indices":[14,14,14,14,18,21,0,5,29,1,12,1,1,0,0,0,0,0,0,0,0,0,0,0,0],"split_type":[0,0,0,0,0,0,0,0,0,0,0,0,0,0,0,0,0,0,0,0,0,0,0,0,0],"sum_hessian":[3.209E3,1.662E3,1.547E3,8.04E2,8.58E2,1.067E3,4.8E2,4.95E2,3.09E2,6.31E2,2.27E2,5.09E2,5.58E2,4.94E2,1E0,2.69E2,4E1,5.22E2,1.09E2,1.68E2,5.9E1,3.02E2,2.07E2,4.16E2,1.42E2],"tree_param":{"num_deleted":"0","num_feature":"36","num_nodes":"25","size_leaf_vector":"1"}},{"base_weights":[-1.5137615E-2,-2.7258065E-1,2.1673445E-1,-4.6318492E-1,-1.5718718E-1,1.1388889E-1,2.4837663E-2,-4.6483704E-1,1.25E-2,-3.142202E-1,-1.1133333E-1,8.637578E-2,3.3695653E-1,-2.447307E-2,-1.9745223E-2,-1.7435899E-2,-1.0416667E-3,5.952381E-4,-9.5186E-3,6.25E-3,-6.107955E-3,2.3641305E-2,3.1914895E-3],"categories":[],"categories_nodes":[],"categories_segments":[],"categories_sizes":[],"default_left":[0,0,0,0,0,0,0,0,0,0,0,0,0,0,0,0,0,0,0,0,0,0,0],"id":35,"left_children":[1,3,5,7,9,11,-1,13,-1,15,17,19,21,-1,-1,-1,-1,-1,-1,-1,-1,-1,-1],"loss_changes":[1.9525795E2,3.4018654E1,4.950598E1,8.0431366E-1,6.927965E0,7.7038727E0,0E0,8.106613E-1,0E0,2.199154E0,7.3076954E0,9.060471E0,5.090946E0,0E0,0E0,0E0,0E0,0E0,0E0,0E0,0E0,0E0,0E0],"parents":[2147483647,0,0,1,1,2,2,3,3,4,4,5,5,7,7,9,9,10,10,11,11,12,12],"right_children":[2,4,6,8,10,12,-1,14,-1,16,18,20,22,-1,-1,-1,-1,-1,-1,-1,-1,-1,-1],"split_conditions":[8.35E0,2.1E0,2.397E1,9.5958336E1,1.553E1,1.697E1,2.6419145E-1,8.3E-1,3.0183053E-2,4.6E0,1.5737143E1,1.551E1,1.9E1,-1.3507295E-1,-3.9341774E-2,-2.8993918E-2,-2.51472E-3,5.9471134E-4,-1.992762E-2,1.0017491E-2,-5.669308E-3,1.0037937E-1,3.1873703E-3],"split_indices":[14,14,14,5,0,1,0,14,0,2,35,21,21,0,0,0,0,0,0,0,0,0,0],"split_type":[0,0,0,0,0,0,0,0,0,0,0,0,0,0,0,0,0,0,0,0,0,0,0],"sum_hessian":[3.269E3,1.549E3,1.72E3,5.83E2,9.66E2,1.259E3,4.61E2,5.82E2,1E0,2.17E2,7.49E2,1.122E3,1.37E2,4.26E2,1.56E2,1.94E2,2.3E1,2.93E2,4.56E2,9.47E2,1.75E2,9.1E1,4.6E1],"tree_param":{"num_deleted":"0","num_feature":"36","num_nodes":"23","size_leaf_vector":"1"}},{"base_weights":[-1.2530941E-2,-2.4759325E-1,2.3615532E-1,-4.071602E-1,-9.058403E-2,1.24423966E-1,4.845996E-1,-4.7908366E-1,-2.9411766E-1,-2.268431E-2,-2.0578778E-1,2.6142856E-1,5.910326E-2,2.5E-1,4.9050632E-1,-2.4051895E-2,1.25E-2,-1.7843138E-2,-2.8985508E-3,-1.9042969E-3,2.0833334E-2,-1.3568376E-2,-3.2051283E-4,9.4318185E-3,1.908397E-2,-1.7694064E-3,9.866221E-3,-1.875E-2,2.2727273E-2,6.25E-3,2.4628451E-2],"categories":[],"categories_nodes":[],"categories_segments":[],"categories_sizes":[],"default_left":[0,0,0,0,0,0,0,0,0,0,0,0,0,0,0,0,0,0,0,0,0,0,0,0,0,0,0,0,0,0,0],"id":36,"left_children":[1,3,5,7,9,11,13,15,17,19,21,23,25,27,29,-1,-1,-1,-1,-1,-1,-1,-1,-1,-1,-1,-1,-1,-1,-1,-1],"loss_changes":[1.8899075E2,4.1602005E1,4.354911E1,6.558548E0,6.5582438E0,9.694469E0,5.522232E-1,8.355179E-1,4.765217E0,3.595464E0,4.064625E0,2.991665E0,9.619665E0,1.9602273E0,2.95784E-1,0E0,0E0,0E0,0E0,0E0,0E0,0E0,0E0,0E0,0E0,0E0,0E0,0E0,0E0,0E0,0E0],"parents":[2147483647,0,0,1,1,2,2,3,3,4,4,5,5,6,6,7,7,8,8,9,9,10,10,11,11,12,12,13,13,14,14],"right_children":[2,4,6,8,10,12,14,16,18,20,22,24,26,28,30,-1,-1,-1,-1,-1,-1,-1,-1,-1,-1,-1,-1,-1,-1,-1,-1],"split_conditions":[9.52E0,4.03E0,2.397E1,1.55E0,7.51E0,9.9E0,1.589E1,9.5958336E1,2E0,2E1,8E-1,2E-1,1.849E1,1.946E1,3.77E1,-1.168582E-1,2.8673911E-2,-2.9422348E-2,-9.614813E-3,-2.2308826E-3,2.6383925E-2,-2.3648549E-2,-1.5573263E-3,1.5892124E-2,3.7543606E-2,-2.9959201E-3,2.5400115E-2,-8.574868E-3,1.2794118E-1,1.09286405E-1,2.6851E-1],"split_indices":[14,14,14,14,21,18,0,5,2,29,29,29,14,15,9,0,0,0,0,0,0,0,0,0,0,0,0,0,0,0,0],"split_type":[0,0,0,0,0,0,0,0,0,0,0,0,0,0,0,0,0,0,0,0,0,0,0,0,0,0,0,0,0,0,0],"sum_hessian":[3.231E3,1.661E3,1.57E3,8.23E2,8.38E2,1.084E3,4.86E2,5.01E2,3.22E2,5.28E2,3.1E2,3.49E2,7.35E2,1.3E1,4.73E2,5E2,1E0,2.54E2,6.8E1,5.11E2,1.7E1,2.33E2,7.7E1,2.19E2,1.3E2,4.37E2,2.98E2,3E0,1E1,3E0,4.7E2],"tree_param":{"num_deleted":"0","num_feature":"36","num_nodes":"31","size_leaf_vector":"1"}},{"base_weights":[-2.1503713E-2,-2.8054607E-1,1.9315611E-1,-4.6299484E-1,-1.6045198E-1,1.0302807E-1,4.86747E-1,-4.7972974E-1,-3.203125E-1,-3.1400967E-1,-1.1340206E-1,7.243378E-2,3.537415E-1,-1.25E-2,4.8913044E-1,-2.4261812E-2,-9.09091E-3,-1.8032787E-2,1.875E-2,-1.7607527E-2,1.1363637E-3,1.5625E-2,-6.4405487E-3,5.5583003E-3,-6.3451775E-3,2.2877358E-2,4.166667E-3,1.0416667E-2,2.4813896E-2],"categories":[],"categories_nodes":[],"categories_segments":[],"categories_sizes":[],"default_left":[0,0,0,0,0,0,0,0,0,0,0,0,0,0,0,0,0,0,0,0,0,0,0,0,0,0,0,0,0],"id":37,"left_children":[1,3,5,7,9,11,13,15,17,19,21,23,25,-1,27,-1,-1,-1,-1,-1,-1,-1,-1,-1,-1,-1,-1,-1,-1],"loss_changes":[1.7977274E2,3.2025352E1,4.673249E1,1.233635E0,6.358404E0,1.0360098E1,8.510208E-1,7.61528E-1,1.93052E0,2.6665974E0,4.496319E0,9.340809E0,4.088146E0,0E0,7.2750854E-1,0E0,0E0,0E0,0E0,0E0,0E0,0E0,0E0,0E0,0E0,0E0,0E0,0E0,0E0],"parents":[2147483647,0,0,1,1,2,2,3,3,4,4,5,5,6,6,7,7,8,8,9,9,10,10,11,11,12,12,14,14],"right_children":[2,4,6,8,10,12,14,16,18,20,22,24,26,-1,28,-1,-1,-1,-1,-1,-1,-1,-1,-1,-1,-1,-1,-1,-1],"split_conditions":[7.99E0,2.01E0,2.472E1,7.4E0,1.553E1,1.685E1,1.56E1,1.6117144E1,9.3583336E1,4.6E0,1.1E0,1.517E1,1.9E1,-5.516205E-2,1.589E1,-1.05515294E-1,-8.057781E-2,-5.9265286E-2,2.7240206E-2,-2.6775528E-2,4.130602E-4,1.5405822E-2,-1.3354397E-2,9.959459E-3,-5.498004E-3,9.215565E-2,3.6045553E-3,1.332941E-1,2.7002463E-1],"split_indices":[14,14,14,29,0,1,13,33,5,29,20,21,21,0,0,0,0,0,0,0,0,0,0,0,0,0,0,0,0],"split_type":[0,0,0,0,0,0,0,0,0,0,0,0,0,0,0,0,0,0,0,0,0,0,0,0,0,0,0,0,0],"sum_hessian":[3.231E3,1.464E3,1.767E3,5.8E2,8.84E2,1.353E3,4.14E2,5.17E2,6.3E1,2.06E2,6.78E2,1.207E3,1.46E2,1E0,4.13E2,5.07E2,1E1,6E1,3E0,1.85E2,2.1E1,2.3E1,6.55E2,1.011E3,1.96E2,1.05E2,4.1E1,1.1E1,4.02E2],"tree_param":{"num_deleted":"0","num_feature":"36","num_nodes":"29","size_leaf_vector":"1"}},{"base_weights":[-1.5944272E-2,-1.4904459E-1,3.4189498E-1,-4.3112245E-1,-5.514706E-2,1.8897638E-1,4.5866936E-1,-4.375E-1,2.0000001E-2,-8.817702E-2,1.4117648E-1,1.0921501E-1,4.494382E-1,1.40625E-1,4.7956988E-1,-2.211704E-2,1.875E-2,-1.23554915E-2,-2.0530368E-3,-6.6666673E-3,9.952608E-3,1.4417178E-2,-5.725191E-3,-1.25E-2,2.3011364E-2,2.0833334E-2,-1.0000001E-2,1.0526316E-2,2.4496645E-2],"categories":[],"categories_nodes":[],"categories_segments":[],"categories_sizes":[],"default_left":[0,0,0,0,0,0,0,0,0,0,0,0,0,0,0,0,0,0,0,0,0,0,0,0,0,0,0,0,0],"id":38,"left_children":[1,3,5,7,9,11,13,15,-1,17,19,21,23,25,27,-1,-1,-1,-1,-1,-1,-1,-1,-1,-1,-1,-1,-1,-1],"loss_changes":[1.5389105E2,6.235173E1,1.555603E1,3.29171E0,1.1477146E1,7.866109E0,3.229622E0,2.4628372E0,0E0,1.1327173E1,4.0778365E0,1.1774823E1,7.866764E-1,3.0921874E0,1.1933212E0,0E0,0E0,0E0,0E0,0E0,0E0,0E0,0E0,0E0,0E0,0E0,0E0,0E0,0E0],"parents":[2147483647,0,0,1,1,2,2,3,3,4,4,5,5,6,6,7,7,9,9,10,10,11,11,12,12,13,13,14,14],"right_children":[2,4,6,8,10,12,14,16,-1,18,20,22,24,26,28,-1,-1,-1,-1,-1,-1,-1,-1,-1,-1,-1,-1,-1,-1],"split_conditions":[1.304E1,2.2E0,1.697E1,7.54E0,4.2E0,1.851E1,2.6849055E-1,7.867917E1,2.0866109E-2,5.08E0,7.9E0,1.517E1,3.77E1,1.9776428E1,1.565E1,-9.03033E-2,7.4433805E-3,-1.9886112E-2,-3.1764985E-3,-8.719462E-3,1.6250301E-2,3.9379217E-2,-6.093836E-3,-8.424091E-3,8.183318E-2,1.8565531E-1,-8.763003E-3,5.6367304E-2,2.4546996E-1],"split_indices":[1,17,1,15,29,13,28,25,0,17,6,18,9,34,13,0,0,0,0,0,0,0,0,0,0,0,0,0,0],"split_type":[0,0,0,0,0,0,0,0,0,0,0,0,0,0,0,0,0,0,0,0,0,0,0,0,0,0,0,0,0],"sum_hessian":[3.229E3,2.354E3,8.75E2,5.87E2,1.767E3,3.8E2,4.95E2,5.83E2,4E0,1.513E3,2.54E2,2.92E2,8.8E1,3.1E1,4.64E2,5.8E2,3E0,3.45E2,1.168E3,4.4E1,2.1E2,1.62E2,1.3E2,1E0,8.7E1,1.7E1,1.4E1,1.8E1,4.46E2],"tree_param":{"num_deleted":"0","num_feature":"36","num_nodes":"29","size_leaf_vector":"1"}},{"base_weights":[-1.2595663E-2,-2.2359481E-1,2.124506E-1,-4.4722223E-1,-1.11574076E-1,1.1410602E-1,4.815271E-1,-4.820144E-1,-3.266129E-1,-1.7660551E-1,-1.1709602E-2,3.068182E-1,6.655481E-2,2.96875E-1,4.96E-1,-2.433414E-2,-0E0,1.875E-2,-1.7355373E-2,-9.538951E-3,8.653847E-3,7.1428576E-3,-4.0677967E-3,1.234375E-2,2.2950819E-2,1.1795544E-3,1.5719697E-2,-7.5000003E-3,2.3913044E-2,2.4932977E-2,-0E0],"categories":[],"categories_nodes":[],"categories_segments":[],"categories_sizes":[],"default_left":[0,0,0,0,0,0,0,0,0,0,0,0,0,0,0,0,0,0,0,0,0,0,0,0,0,0,0,0,0,0,0],"id":39,"left_children":[1,3,5,7,9,11,13,15,17,19,21,23,25,27,29,-1,-1,-1,-1,-1,-1,-1,-1,-1,-1,-1,-1,-1,-1,-1,-1],"loss_changes":[1.489591E2,4.0507523E1,4.0114693E1,2.108551E0,7.0118074E0,1.0178774E1,9.377594E-1,9.3834686E-1,1.9131899E0,3.274393E0,4.60828E0,1.8937931E0,9.511976E0,2.665557E0,4.9467468E-1,0E0,0E0,0E0,0E0,0E0,0E0,0E0,0E0,0E0,0E0,0E0,0E0,0E0,0E0,0E0,0E0],"parents":[2147483647,0,0,1,1,2,2,3,3,4,4,5,5,6,6,7,7,8,8,9,9,10,10,11,11,12,12,13,13,14,14],"right_children":[2,4,6,8,10,12,14,16,18,20,22,24,26,28,30,-1,-1,-1,-1,-1,-1,-1,-1,-1,-1,-1,-1,-1,-1,-1,-1],"split_conditions":[9.86E0,2.01E0,2.503E1,8.3E-1,1E-1,8.39E0,1.659E1,3.46E1,1.522E1,1.33E1,4.99E0,9.73E0,1.733E1,1.876E1,8.9416664E1,-1.1077424E-1,3.2769858E-3,3.720158E-2,-2.9620258E-2,-1.541425E-2,1.5273238E-2,6.2470916E-3,-7.6285126E-3,1.9816447E-2,7.351346E-2,3.4917833E-3,5.684967E-2,-4.0959357E-3,1.3837734E-1,2.7105972E-1,1.9118261E-1],"split_indices":[14,14,14,14,29,18,0,2,24,2,18,1,1,1,5,0,0,0,0,0,0,0,0,0,0,0,0,0,0,0,0],"split_type":[0,0,0,0,0,0,0,0,0,0,0,0,0,0,0,0,0,0,0,0,0,0,0,0,0,0,0,0,0,0,0],"sum_hessian":[3.135E3,1.618E3,1.517E3,5.39E2,1.079E3,1.112E3,4.05E2,4.16E2,1.23E2,6.53E2,4.26E2,2.19E2,8.93E2,3.1E1,3.74E2,4.12E2,4E0,3E0,1.2E2,6.28E2,2.5E1,1.32E2,2.94E2,1.59E2,6E1,7.62E2,1.31E2,9E0,2.2E1,3.72E2,2E0],"tree_param":{"num_deleted":"0","num_feature":"36","num_nodes":"31","size_leaf_vector":"1"}},{"base_weights":[-2.359375E-2,-2.5622058E-1,1.7823803E-1,-4.4806337E-1,-1.375E-1,9.040178E-2,2.4797844E-2,-4.8127753E-1,-3.1304348E-1,-9.167842E-2,-2.9009435E-1,5.3826746E-2,3.6858973E-1,-2.4276169E-2,-4.166667E-3,-1.775E-2,-1.5625E-3,-1.1522634E-2,-9.635975E-4,-1.0326087E-2,-2.2E-2,4.787785E-3,-6.3616075E-3,5.813954E-3,2.3026315E-2],"categories":[],"categories_nodes":[],"categories_segments":[],"categories_sizes":[],"default_left":[0,0,0,0,0,0,0,0,0,0,0,0,0,0,0,0,0,0,0,0,0,0,0,0,0],"id":40,"left_children":[1,3,5,7,9,11,-1,13,15,17,19,21,23,-1,-1,-1,-1,-1,-1,-1,-1,-1,-1,-1,-1],"loss_changes":[1.5029044E2,3.3805832E1,4.7788162E1,2.3965836E0,6.406149E0,1.3655005E1,0E0,7.2662354E-1,1.3485594E0,7.1197E0,2.5650692E0,9.038606E0,3.565117E0,0E0,0E0,0E0,0E0,0E0,0E0,0E0,0E0,0E0,0E0,0E0,0E0],"parents":[2147483647,0,0,1,1,2,2,3,3,4,4,5,5,7,7,8,8,9,9,10,10,11,11,12,12],"right_children":[2,4,6,8,10,12,-1,14,16,18,20,22,24,-1,-1,-1,-1,-1,-1,-1,-1,-1,-1,-1,-1],"split_conditions":[8.09E0,2.01E0,1.876E1,1E0,7.9E0,1.824E1,2.5700673E-1,3.46E1,5.1E0,4.03E0,1.5747857E1,1.517E1,2.8575626E-1,-1.0410776E-1,-2.4003243E-2,-2.4201035E-2,-9.842396E-3,-2.1105682E-2,-7.3655846E-4,-1.7001748E-2,-3.530364E-2,8.629513E-3,-5.8466913E-3,2.7932692E-2,9.910317E-2],"split_indices":[14,14,0,14,18,1,0,2,29,14,35,21,10,0,0,0,0,0,0,0,0,0,0,0,0],"split_type":[0,0,0,0,0,0,0,0,0,0,0,0,0,0,0,0,0,0,0,0,0,0,0,0,0],"sum_hessian":[3.199E3,1.486E3,1.713E3,5.67E2,9.19E2,1.343E3,3.7E2,4.53E2,1.14E2,7.08E2,2.11E2,1.188E3,1.55E2,4.48E2,5E0,9.9E1,1.5E1,2.42E2,4.66E2,1.37E2,7.4E1,9.65E2,2.23E2,4.2E1,1.13E2],"tree_param":{"num_deleted":"0","num_feature":"36","num_nodes":"25","size_leaf_vector":"1"}},{"base_weights":[-1.4237078E-2,-2.1789536E-1,2.0677419E-1,-4.597826E-1,-1.2673753E-1,1.07206404E-1,4.683841E-1,-4.6389496E-1,1.25E-1,-2.4368687E-1,-7.065217E-2,2.4207492E-1,4.6915166E-2,3.483146E-1,2.4926255E-2,-2.4644887E-2,-1.8160379E-2,-1.25E-2,1.6666668E-2,-7.635468E-3,-1.6881444E-2,-9.5514953E-4,-1.0352423E-2,7.5854706E-3,2.127193E-2,-3.109137E-3,7.9220785E-3,1.9940477E-2,-2.0833334E-2],"categories":[],"categories_nodes":[],"categories_segments":[],"categories_sizes":[],"default_left":[0,0,0,0,0,0,0,0,0,0,0,0,0,0,0,0,0,0,0,0,0,0,0,0,0,0,0,0,0],"id":41,"left_children":[1,3,5,7,9,11,13,15,17,19,21,23,25,27,-1,-1,-1,-1,-1,-1,-1,-1,-1,-1,-1,-1,-1,-1,-1],"loss_changes":[1.4547487E2,3.7029686E1,4.032406E1,1.1642151E0,8.004618E0,9.128325E0,1.3716812E0,1.15551E0,3.9583334E-1,3.3328972E0,5.81781E0,5.6851616E0,9.476009E0,3.6040335E0,0E0,0E0,0E0,0E0,0E0,0E0,0E0,0E0,0E0,0E0,0E0,0E0,0E0,0E0,0E0],"parents":[2147483647,0,0,1,1,2,2,3,3,4,4,5,5,6,6,7,7,8,8,9,9,10,10,11,11,12,12,13,13],"right_children":[2,4,6,8,10,12,14,16,18,20,22,24,26,28,-1,-1,-1,-1,-1,-1,-1,-1,-1,-1,-1,-1,-1,-1,-1],"split_conditions":[9.76E0,1E0,2.489E1,9.4416664E1,4.21E0,9.9E0,2.647E1,1.3E-1,1.538E1,2.82E0,8.12E0,9.28E0,1.77E1,2.78E1,2.619973E-1,-1.1448026E-1,-4.4980258E-2,-7.387585E-2,1.341438E-1,-1.3221586E-2,-2.9522752E-2,-6.52051E-4,-1.9225765E-2,9.66835E-3,5.531578E-2,-4.2764666E-3,1.6826486E-2,4.9343586E-2,-1.4388466E-2],"split_indices":[14,14,14,5,14,18,14,14,0,17,18,1,14,17,0,0,0,0,0,0,0,0,0,0,0,0,0,0,0],"split_type":[0,0,0,0,0,0,0,0,0,0,0,0,0,0,0,0,0,0,0,0,0,0,0,0,0,0,0,0,0],"sum_hessian":[3.23E3,1.681E3,1.549E3,4.59E2,1.222E3,1.123E3,4.26E2,4.56E2,3E0,3.95E2,8.27E2,3.46E2,7.77E2,8.8E1,3.38E2,3.51E2,1.05E2,1E0,2E0,2.02E2,1.93E2,6.01E2,2.26E2,2.33E2,1.13E2,3.93E2,3.84E2,8.3E1,5E0],"tree_param":{"num_deleted":"0","num_feature":"36","num_nodes":"29","size_leaf_vector":"1"}},{"base_weights":[-1.4343623E-2,-2.7736318E-1,1.441059E-1,-4.643678E-1,-1.7163213E-1,6.076826E-2,4.626506E-1,-4.7313085E-1,6.25E-2,-1.9417475E-1,1.4423077E-1,2.9850746E-2,2.9945055E-1,3.116883E-1,2.4778761E-2,-2.4080884E-2,-1.4285715E-2,2.0000001E-2,-1.875E-2,-1.0942368E-2,3.1250002E-4,-1.4583333E-2,1.3414635E-2,5.417847E-3,-2.457265E-3,-1.8518519E-3,1.778846E-2,1.722973E-2,-1.875E-2],"categories":[],"categories_nodes":[],"categories_segments":[],"categories_sizes":[],"default_left":[0,0,0,0,0,0,0,0,0,0,0,0,0,0,0,0,0,0,0,0,0,0,0,0,0,0,0,0,0],"id":42,"left_children":[1,3,5,7,9,11,13,15,17,19,21,23,25,27,-1,-1,-1,-1,-1,-1,-1,-1,-1,-1,-1,-1,-1,-1,-1],"loss_changes":[1.3369273E2,2.3765572E1,5.3118504E1,2.0379486E0,5.5249386E0,1.1709648E1,1.9082413E0,5.431595E-1,1.33125E0,3.5667114E0,2.8903222E0,8.731087E0,3.4621735E0,1.8691425E0,0E0,0E0,0E0,0E0,0E0,0E0,0E0,0E0,0E0,0E0,0E0,0E0,0E0,0E0,0E0],"parents":[2147483647,0,0,1,1,2,2,3,3,4,4,5,5,6,6,7,7,8,8,9,9,10,10,11,11,12,12,13,13],"right_children":[2,4,6,8,10,12,14,16,18,20,22,24,26,28,-1,-1,-1,-1,-1,-1,-1,-1,-1,-1,-1,-1,-1,-1,-1],"split_conditions":[6.32E0,1E0,1.823E1,2.1845833E1,8.8791664E1,1.709E1,2.489E1,5.95E0,9.654166E0,6E0,4.1E0,9.8E0,2.6849055E-1,2.142E1,2.4564743E-1,-9.65755E-2,-3.5957314E-2,3.8535506E-3,-5.6068745E-2,-1.8024398E-2,7.581711E-6,-3.585714E-2,2.1419669E-2,8.267403E-3,-3.463459E-3,-2.1126033E-3,6.6635326E-2,2.7166653E-2,-1.6481305E-2],"split_indices":[14,14,0,6,5,1,14,12,25,29,25,18,28,22,0,0,0,0,0,0,0,0,0,0,0,0,0,0,0],"split_type":[0,0,0,0,0,0,0,0,0,0,0,0,0,0,0,0,0,0,0,0,0,0,0,0,0,0,0,0,0],"sum_hessian":[3.206E3,1.205E3,2.001E3,4.34E2,7.71E2,1.587E3,4.14E2,4.27E2,7E0,7.2E2,5.1E1,1.406E3,1.81E2,7.6E1,3.38E2,4.07E2,2E1,4E0,3E0,6.41E2,7.9E1,1.1E1,4E1,7.05E2,7.01E2,2.6E1,1.55E2,7.3E1,3E0],"tree_param":{"num_deleted":"0","num_feature":"36","num_nodes":"29","size_leaf_vector":"1"}},{"base_weights":[-1.6334785E-2,-1.0782406E-1,3.475232E-1,-3.8330495E-1,-2.6222894E-2,1.7204301E-1,4.7961956E-1,-4.555921E-1,-3.0457747E-1,-4.001046E-2,3.402778E-1,3.4013605E-1,-1.5037594E-2,4E-1,2.4914967E-2,-2.3255816E-2,1.875E-2,-1.6765874E-2,-3.0303032E-3,-3.5465483E-3,5.3143715E-3,2.8846154E-3,2.4468085E-2,1.7881945E-2,-1.875E-2,-7.2164945E-3,1.6216217E-2,2.1691177E-2,3.125E-3],"categories":[],"categories_nodes":[],"categories_segments":[],"categories_sizes":[],"default_left":[0,0,0,0,0,0,0,0,0,0,0,0,0,0,0,0,0,0,0,0,0,0,0,0,0,0,0,0,0],"id":43,"left_children":[1,3,5,7,9,11,13,15,17,19,21,23,25,27,-1,-1,-1,-1,-1,-1,-1,-1,-1,-1,-1,-1,-1,-1,-1],"loss_changes":[1.0702865E2,5.7739944E1,1.489196E1,3.2018433E0,1.0034016E1,8.778814E0,3.4799194E-1,2.5792732E0,2.1095867E0,8.656672E0,3.0050526E0,1.9741001E0,5.8824353E0,8.2904434E-1,0E0,0E0,0E0,0E0,0E0,0E0,0E0,0E0,0E0,0E0,0E0,0E0,0E0,0E0,0E0],"parents":[2147483647,0,0,1,1,2,2,3,3,4,4,5,5,6,6,7,7,8,8,9,9,10,10,11,11,12,12,13,13],"right_children":[2,4,6,8,10,12,14,16,18,20,22,24,26,28,-1,-1,-1,-1,-1,-1,-1,-1,-1,-1,-1,-1,-1,-1,-1],"split_conditions":[1.653E1,2.2E0,1.893E1,-5E-2,1.996E1,1.755E1,1.613E1,6.12E0,1.607E1,1E0,2.8575626E-1,1.822E1,1.709E1,3.7870834E1,2.6027414E-1,-1.06677465E-1,6.722367E-3,-3.9853252E-2,-1.4985442E-3,-5.5357697E-3,1.3430047E-2,2.1815969E-2,7.195168E-2,3.9319325E-2,-7.856846E-3,-5.867243E-3,4.068003E-2,3.459406E-2,3.461361E-3],"split_indices":[0,17,0,17,12,19,12,15,13,11,10,33,12,7,0,0,0,0,0,0,0,0,0,0,0,0,0,0,0],"split_type":[0,0,0,0,0,0,0,0,0,0,0,0,0,0,0,0,0,0,0,0,0,0,0,0,0,0,0,0,0],"sum_hessian":[3.213E3,2.568E3,6.45E2,5.86E2,1.982E3,2.78E2,3.67E2,3.03E2,2.83E2,1.911E3,7.1E1,1.46E2,1.32E2,7.4E1,2.93E2,3E2,3E0,2.51E2,3.2E1,1.578E3,3.33E2,2.5E1,4.6E1,1.43E2,3E0,9.6E1,3.6E1,6.7E1,7E0],"tree_param":{"num_deleted":"0","num_feature":"36","num_nodes":"29","size_leaf_vector":"1"}},{"base_weights":[-2.5624802E-2,-2.8541666E-1,1.3328236E-1,-4.561028E-1,-1.7643052E-1,5.517669E-2,4.9285713E-1,1.6666668E-2,-4.6021506E-1,-2.9015544E-1,-1.3560885E-1,2.8552005E-2,3.2867134E-1,-1.25E-2,2.47851E-2,-2.3114225E-2,1.25E-2,5.357143E-3,-1.5972223E-2,4.5833336E-3,-8.178054E-3,-7.875E-3,2.889151E-3,2.3177084E-2,2.6041667E-3],"categories":[],"categories_nodes":[],"categories_segments":[],"categories_sizes":[],"default_left":[0,0,0,0,0,0,0,0,0,0,0,0,0,0,0,0,0,0,0,0,0,0,0,0,0],"id":44,"left_children":[1,3,5,7,9,11,13,-1,15,17,19,21,23,-1,-1,-1,-1,-1,-1,-1,-1,-1,-1,-1,-1],"loss_changes":[1.3053294E2,2.224244E1,5.507525E1,1.6694641E0,3.368204E0,1.1736011E1,8.635864E-1,0E0,7.98996E-1,2.2800655E0,3.4582405E0,8.009117E0,5.31026E0,0E0,0E0,0E0,0E0,0E0,0E0,0E0,0E0,0E0,0E0,0E0,0E0],"parents":[2147483647,0,0,1,1,2,2,3,3,4,4,5,5,6,6,8,8,9,9,10,10,11,11,12,12],"right_children":[2,4,6,8,10,12,14,-1,16,18,20,22,24,-1,-1,-1,-1,-1,-1,-1,-1,-1,-1,-1,-1],"split_conditions":[6.32E0,1.09E0,2.594E1,9.2E0,1.555E1,1.779E1,1.56E1,1.0338947E-2,7.9E0,1.525E1,1.551E1,1.3791667E0,1.9E1,-6.4619064E-2,2.250104E-1,-8.05936E-2,8.292878E-3,1.0764814E-2,-2.1426274E-2,3.9911987E-3,-1.4329839E-2,-1.0202027E-2,5.736399E-3,7.2430514E-2,1.7002106E-3],"split_indices":[14,14,14,27,13,1,13,0,1,24,19,3,21,0,0,0,0,0,0,0,0,0,0,0,0],"split_type":[0,0,0,0,0,0,0,0,0,0,0,0,0,0,0,0,0,0,0,0,0,0,0,0,0],"sum_hessian":[3.16E3,1.199E3,1.961E3,4.66E2,7.33E2,1.612E3,3.49E2,2E0,4.64E2,1.92E2,5.41E2,1.47E3,1.42E2,1E0,3.48E2,4.63E2,1E0,1.3E1,1.79E2,5.9E1,4.82E2,1.99E2,1.271E3,9.5E1,4.7E1],"tree_param":{"num_deleted":"0","num_feature":"36","num_nodes":"25","size_leaf_vector":"1"}},{"base_weights":[-1.842023E-2,-2.0939393E-1,1.8436293E-1,-4.6715328E-1,-1.23790324E-1,1.0122449E-1,4.9242425E-1,1.25E-2,-4.695122E-1,-2.4429968E-1,-8.404711E-2,6.99172E-2,3.4532374E-1,-1.25E-2,2.4772037E-2,-2.3703704E-2,-4.166667E-3,-1.3981481E-2,6.5789477E-4,-1.4821428E-2,-2.327044E-3,6.4087063E-3,-5.7471264E-3,8.928572E-4,2.1205356E-2],"categories":[],"categories_nodes":[],"categories_segments":[],"categories_sizes":[],"default_left":[0,0,0,0,0,0,0,0,0,0,0,0,0,0,0,0,0,0,0,0,0,0,0,0,0],"id":45,"left_children":[1,3,5,7,9,11,13,-1,15,17,19,21,23,-1,-1,-1,-1,-1,-1,-1,-1,-1,-1,-1,-1],"loss_changes":[1.240788E2,3.634964E1,3.975079E1,8.1266785E-1,5.9183598E0,9.337409E0,8.628998E-1,0E0,6.8279266E-1,2.7961407E0,7.4261E0,1.1721025E1,3.5784798E0,0E0,0E0,0E0,0E0,0E0,0E0,0E0,0E0,0E0,0E0,0E0,0E0],"parents":[2147483647,0,0,1,1,2,2,3,3,4,4,5,5,6,6,8,8,9,9,10,10,11,11,12,12],"right_children":[2,4,6,8,10,12,14,-1,16,18,20,22,24,-1,-1,-1,-1,-1,-1,-1,-1,-1,-1,-1,-1],"split_conditions":[9.52E0,7.2E-1,2.647E1,9.2E0,1.555E1,1.824E1,1.534E1,2.2025227E-3,6.45E0,1.57E1,3.54E0,1.477E1,7.9E0,-7.962227E-3,2.2675987E-1,-8.519563E-2,-3.2863177E-2,-1.9958114E-2,4.3437482E-4,-1.8384933E-2,-4.6491027E-3,1.2536669E-2,-5.8781863E-3,1.3456345E-4,6.842537E-2],"split_indices":[14,14,14,27,0,1,24,0,1,13,1,18,7,0,0,0,0,0,0,0,0,0,0,0,0],"split_type":[0,0,0,0,0,0,0,0,0,0,0,0,0,0,0,0,0,0,0,0,0,0,0,0,0],"sum_hessian":[3.202E3,1.649E3,1.553E3,4.1E2,1.239E3,1.224E3,3.29E2,1E0,4.09E2,3.06E2,9.33E2,1.086E3,1.38E2,1E0,3.28E2,4.04E2,5E0,2.69E2,3.7E1,1.39E2,7.94E2,8.26E2,2.6E2,2.7E1,1.11E2],"tree_param":{"num_deleted":"0","num_feature":"36","num_nodes":"25","size_leaf_vector":"1"}},{"base_weights":[-1.4396285E-2,-1.8362705E-1,1.8783967E-1,-4.5112783E-1,-1.050698E-1,9.7969994E-2,4.867647E-1,-4.5812184E-1,8.3333336E-2,-2.1682465E-1,-5.4787233E-2,2.7075812E-1,4.2007003E-2,-1.25E-2,4.8967552E-1,-2.4237288E-2,-1.875E-2,-1.6666668E-2,1.875E-2,-7.6271184E-3,-1.8164063E-2,3.0737706E-3,-6.434783E-3,1.4901961E-2,-2.1739132E-3,2.9220778E-4,1.7897727E-2,1.8269232E-2,2.4920382E-2],"categories":[],"categories_nodes":[],"categories_segments":[],"categories_sizes":[],"default_left":[0,0,0,0,0,0,0,0,0,0,0,0,0,0,0,0,0,0,0,0,0,0,0,0,0,0,0,0,0],"id":46,"left_children":[1,3,5,7,9,11,13,15,17,19,21,23,25,-1,27,-1,-1,-1,-1,-1,-1,-1,-1,-1,-1,-1,-1,-1,-1],"loss_changes":[1.1057979E2,3.6916447E1,3.9496555E1,1.5296402E0,7.636016E0,1.0944444E1,8.5157776E-1,6.90155E-1,8.541667E-1,3.91753E0,8.085133E0,2.387598E0,9.789615E0,0E0,1.858139E-1,0E0,0E0,0E0,0E0,0E0,0E0,0E0,0E0,0E0,0E0,0E0,0E0,0E0,0E0],"parents":[2147483647,0,0,1,1,2,2,3,3,4,4,5,5,6,6,7,7,8,8,9,9,10,10,11,11,12,12,14,14],"right_children":[2,4,6,8,10,12,14,16,18,20,22,24,26,-1,28,-1,-1,-1,-1,-1,-1,-1,-1,-1,-1,-1,-1,-1,-1],"split_conditions":[1.04E1,6.3E-1,2.647E1,3.24E1,4.03E0,9.48E0,1.534E1,-5E-2,8.0125E0,3.19E0,6.27E0,1.367E1,1.92E1,-7.5641633E-3,2.696E1,-9.5018506E-2,-4.1620344E-2,-1.8288624E-1,4.3174602E-2,-1.0348921E-2,-3.081788E-2,2.7474165E-3,-8.985854E-3,2.7029682E-2,-1.4133453E-3,3.0097962E-4,6.785031E-2,3.0171966E-2,2.2417192E-1],"split_indices":[14,14,14,2,14,21,24,14,7,17,20,18,1,0,14,0,0,0,0,0,0,0,0,0,0,0,0,0,0],"split_type":[0,0,0,0,0,0,0,0,0,0,0,0,0,0,0,0,0,0,0,0,0,0,0,0,0,0,0,0,0],"sum_hessian":[3.229E3,1.758E3,1.471E3,3.98E2,1.36E3,1.132E3,3.39E2,3.93E2,5E0,4.21E2,9.39E2,2.76E2,8.56E2,1E0,3.38E2,2.94E2,9.9E1,2E0,3E0,2.94E2,1.27E2,3.65E2,5.74E2,2.54E2,2.2E1,7.69E2,8.7E1,2.5E1,3.13E2],"tree_param":{"num_deleted":"0","num_feature":"36","num_nodes":"29","size_leaf_vector":"1"}},{"base_weights":[-1.8455336E-2,-3.2446808E-1,9.0374105E-2,-4.4457546E-1,-2.033097E-1,2.1425012E-2,4.61126E-1,-4.53125E-1,-0E0,-1.4638157E-1,-3.4583333E-1,-3.280543E-2,1.2683284E-1,-1.25E-1,4.662162E-1,-2.29927E-2,4.166667E-3,2.0000001E-2,-2.0000001E-2,-1.003861E-2,8.152175E-3,-2.2115385E-2,-8.139535E-3,-2.2815159E-3,2.2794118E-2,7.3552425E-3,-8.5227275E-3,-1.6666668E-2,1.25E-2,1.5625E-2,2.4169184E-2],"categories":[],"categories_nodes":[],"categories_segments":[],"categories_sizes":[],"default_left":[0,0,0,0,0,0,0,0,0,0,0,0,0,0,0,0,0,0,0,0,0,0,0,0,0,0,0,0,0,0,0],"id":47,"left_children":[1,3,5,7,9,11,13,15,17,19,21,23,25,27,29,-1,-1,-1,-1,-1,-1,-1,-1,-1,-1,-1,-1,-1,-1,-1,-1],"loss_changes":[1.07398834E2,1.2220619E1,6.0804512E1,1.6115875E0,3.3814297E0,1.1476802E1,1.1711197E0,1.5400085E0,1.6E0,5.1489997E0,2.0470657E0,8.331329E0,4.1352243E0,3.9583334E-1,8.253479E-1,0E0,0E0,0E0,0E0,0E0,0E0,0E0,0E0,0E0,0E0,0E0,0E0,0E0,0E0,0E0,0E0],"parents":[2147483647,0,0,1,1,2,2,3,3,4,4,5,5,6,6,7,7,8,8,9,9,10,10,11,11,12,12,13,13,14,14],"right_children":[2,4,6,8,10,12,14,16,18,20,22,24,26,28,30,-1,-1,-1,-1,-1,-1,-1,-1,-1,-1,-1,-1,-1,-1,-1,-1],"split_conditions":[4.03E0,7.2E-1,1.893E1,9.2791664E1,3.19E0,4E-1,4.22125E1,2.245E1,1.3904166E1,3.01E0,3.0323473E-1,2.204E1,1.823E1,1E-1,1.942E1,-7.521798E-2,4.173416E-3,2.3087574E-2,-5.2485503E-2,-1.3869065E-2,6.435168E-3,-3.7425198E-2,-2.2452498E-2,-2.9325248E-3,8.563109E-2,1.2540269E-2,-5.937195E-3,-5.654812E-3,1.8412208E-2,2.739172E-2,1.9771333E-1],"split_indices":[14,14,0,5,17,29,9,6,6,14,28,12,22,2,0,0,0,0,0,0,0,0,0,0,0,0,0,0,0,0,0],"split_type":[0,0,0,0,0,0,0,0,0,0,0,0,0,0,0,0,0,0,0,0,0,0,0,0,0,0,0,0,0,0,0],"sum_hessian":[3.223E3,8.45E2,2.378E3,4.23E2,4.22E2,2.006E3,3.72E2,4.15E2,8E0,3.03E2,1.19E2,1.325E3,6.81E2,3E0,3.69E2,4.1E2,5E0,4E0,4E0,2.58E2,4.5E1,7.7E1,4.2E1,1.292E3,3.3E1,6.38E2,4.3E1,2E0,1E0,3.9E1,3.3E2],"tree_param":{"num_deleted":"0","num_feature":"36","num_nodes":"31","size_leaf_vector":"1"}},{"base_weights":[-1.8899815E-2,-2.7144203E-1,1.032361E-1,-4.6577382E-1,-1.8112947E-1,4.379947E-2,4.7833332E-1,-4.7147146E-1,1.25E-1,-2.3423423E-1,-8.720931E-3,3.787879E-3,1.7454955E-1,2.962963E-1,4.9452555E-1,-2.3716012E-2,-0E0,1.6666668E-2,-1.25E-2,-1.4307693E-2,-8.008658E-3,-8.441559E-3,5.989583E-3,9.570313E-3,-7.169812E-4,2.3809525E-3,1.3378906E-2,2.3684211E-2,-5.5555557E-3,-0E0,2.4908088E-2],"categories":[],"categories_nodes":[],"categories_segments":[],"categories_sizes":[],"default_left":[0,0,0,0,0,0,0,0,0,0,0,0,0,0,0,0,0,0,0,0,0,0,0,0,0,0,0,0,0,0,0],"id":48,"left_children":[1,3,5,7,9,11,13,15,17,19,21,23,25,27,29,-1,-1,-1,-1,-1,-1,-1,-1,-1,-1,-1,-1,-1,-1,-1,-1],"loss_changes":[1.0039595E2,1.853682E1,4.8893208E1,1.1899185E0,6.645006E0,9.913067E0,7.377472E-1,4.47258E-1,3.9583334E-1,2.0882645E0,3.5593278E0,4.9410725E0,5.2300835E0,2.0038986E0,4.927063E-1,0E0,0E0,0E0,0E0,0E0,0E0,0E0,0E0,0E0,0E0,0E0,0E0,0E0,0E0,0E0,0E0],"parents":[2147483647,0,0,1,1,2,2,3,3,4,4,5,5,6,6,7,7,8,8,9,9,10,10,11,11,12,12,13,13,14,14],"right_children":[2,4,6,8,10,12,14,16,18,20,22,24,26,28,30,-1,-1,-1,-1,-1,-1,-1,-1,-1,-1,-1,-1,-1,-1,-1,-1],"split_conditions":[5.39E0,1.3E-1,2.696E1,2.4641666E1,2E0,1.9E0,2.734E1,6.59E0,1.612E1,3.0326858E-1,1.165E1,6.32E0,1.589E1,1.7660715E1,1.458E1,-8.079231E-2,2.129677E-2,1.4331752E-2,-9.622401E-2,-1.9827435E-2,-1.3738689E-2,-9.357569E-3,9.09819E-3,1.2427688E-2,-7.83515E-4,3.371811E-3,3.2723524E-2,3.6924552E-2,-1.0866165E-3,1.4548874E-2,2.110776E-1],"split_indices":[14,14,14,6,2,29,14,1,0,10,7,20,0,34,12,0,0,0,0,0,0,0,0,0,0,0,0,0,0,0,0],"split_type":[0,0,0,0,0,0,0,0,0,0,0,0,0,0,0,0,0,0,0,0,0,0,0,0,0,0,0,0,0,0,0],"sum_hessian":[3.253E3,1.06E3,2.193E3,3.35E2,7.25E2,1.894E3,2.99E2,3.32E2,3E0,5.54E2,1.71E2,1.451E3,4.43E2,2.6E1,2.73E2,3.3E2,2E0,2E0,1E0,3.24E2,2.3E2,7.6E1,9.5E1,1.27E2,1.324E3,1.88E2,2.55E2,1.8E1,8E0,2E0,2.71E2],"tree_param":{"num_deleted":"0","num_feature":"36","num_nodes":"31","size_leaf_vector":"1"}},{"base_weights":[-2.2951325E-2,-1.08438335E-1,3.3359873E-1,-4.2061856E-1,-3.7470724E-2,2.1680216E-1,2.4903847E-2,-4.789644E-1,-3.1638417E-1,-1.3189772E-1,1.29217515E-2,4.3867925E-1,1.2689394E-1,-2.4257427E-2,-7.1428576E-3,-1.9866072E-2,-8.712121E-3,-1.2377451E-2,-4.398148E-3,1.30718965E-2,-8.86382E-4,2.3214286E-2,5.5555557E-3,-1.7730497E-3,1.5524194E-2],"categories":[],"categories_nodes":[],"categories_segments":[],"categories_sizes":[],"default_left":[0,0,0,0,0,0,0,0,0,0,0,0,0,0,0,0,0,0,0,0,0,0,0,0,0],"id":49,"left_children":[1,3,5,7,9,11,-1,13,15,17,19,21,23,-1,-1,-1,-1,-1,-1,-1,-1,-1,-1,-1,-1],"loss_changes":[9.897554E1,5.8007355E1,1.1956207E1,2.7980652E0,1.016091E1,7.305359E0,0E0,5.729599E-1,1.9670773E0,3.7534904E0,1.0614933E1,8.375263E-1,7.8799877E0,0E0,0E0,0E0,0E0,0E0,0E0,0E0,0E0,0E0,0E0,0E0,0E0],"parents":[2147483647,0,0,1,1,2,2,3,3,4,4,5,5,7,7,8,8,9,9,10,10,11,11,12,12],"right_children":[2,4,6,8,10,12,-1,14,16,18,20,22,24,-1,-1,-1,-1,-1,-1,-1,-1,-1,-1,-1,-1],"split_conditions":[1.535E1,1.24E0,2.734E1,-5E-2,6.32E0,1.458E1,2.0852375E-1,2.55E1,3E-1,1.555E1,7.14E0,1.709E1,1.858E1,-8.539645E-2,-9.867476E-2,-3.4379E-2,-1.7482758E-2,-1.6712904E-2,-8.0595855E-3,1.4258551E-2,-8.3692075E-4,7.97101E-2,2.8422832E-2,-2.2046089E-3,5.105543E-2],"split_indices":[1,14,14,14,14,18,0,2,2,13,20,15,1,0,0,0,0,0,0,0,0,0,0,0,0],"split_type":[0,0,0,0,0,0,0,0,0,0,0,0,0,0,0,0,0,0,0,0,0,0,0,0,0],"sum_hessian":[3.245E3,2.618E3,6.27E2,4.84E2,2.134E3,3.68E2,2.59E2,3.08E2,1.76E2,7.42E2,1.392E3,1.05E2,2.63E2,3.02E2,6E0,1.11E2,6.5E1,2.03E2,5.39E2,1.52E2,1.24E3,9.7E1,8E0,1.4E2,1.23E2],"tree_param":{"num_deleted":"0","num_feature":"36","num_nodes":"25","size_leaf_vector":"1"}},{"base_weights":[-2.1827253E-2,-1.2146773E-1,2.60454E-1,-3.6044177E-1,-5.7897545E-2,1.333992E-1,4.5331326E-1,-3.8029662E-1,-0E0,-3.0252102E-1,-4.1287016E-2,3.5493827E-1,2.8985508E-2,1.6129032E-1,4.8178807E-1,-2.0976253E-2,-1.0904255E-2,8.82353E-3,-1.3636365E-2,-1.7676769E-2,-2.3809525E-3,-4.333606E-3,3.1367042E-3,1.8829113E-2,-2.0000001E-2,-3.5071943E-3,2.1691177E-2,-1.4583333E-2,2.125E-2,1.796875E-2,2.4723247E-2],"categories":[],"categories_nodes":[],"categories_segments":[],"categories_sizes":[],"default_left":[0,0,0,0,0,0,0,0,0,0,0,0,0,0,0,0,0,0,0,0,0,0,0,0,0,0,0,0,0,0,0],"id":50,"left_children":[1,3,5,7,9,11,13,15,17,19,21,23,25,27,29,-1,-1,-1,-1,-1,-1,-1,-1,-1,-1,-1,-1,-1,-1,-1,-1],"loss_changes":[9.023377E1,3.599847E1,2.0449123E1,3.5639496E0,7.602182E0,1.169436E1,2.6829681E0,2.9119797E0,1.3475935E0,1.5305996E0,8.295528E0,2.7976933E0,1.3875745E1,3.8268816E0,2.9094696E-1,0E0,0E0,0E0,0E0,0E0,0E0,0E0,0E0,0E0,0E0,0E0,0E0,0E0,0E0,0E0,0E0],"parents":[2147483647,0,0,1,1,2,2,3,3,4,4,5,5,6,6,7,7,8,8,9,9,10,10,11,11,12,12,13,13,14,14],"right_children":[2,4,6,8,10,12,14,16,18,20,22,24,26,28,30,-1,-1,-1,-1,-1,-1,-1,-1,-1,-1,-1,-1,-1,-1,-1,-1],"split_conditions":[1.332E1,1.41E0,1.92E1,5.95E0,3.28E0,1.458E1,5.23E1,1.597E1,5.15E0,1.6620832E1,1.593E1,2.096E1,2.052E1,9.654166E0,7.36E1,-6.1982878E-2,-2.5324082E-2,1.649023E-2,-1.5902678E-2,-2.2110013E-2,-2.924058E-3,-6.599039E-3,4.2743683E-3,4.9974155E-2,-9.905696E-3,-2.7047158E-3,8.653154E-2,-1.9160032E-2,5.674229E-2,6.9597624E-2,2.028811E-1],"split_indices":[1,17,1,1,1,15,27,13,23,6,0,23,0,25,9,0,0,0,0,0,0,0,0,0,0,0,0,0,0,0,0],"split_type":[0,0,0,0,0,0,0,0,0,0,0,0,0,0,0,0,0,0,0,0,0,0,0,0,0,0,0,0,0,0,0],"sum_hessian":[3.206E3,2.37E3,8.36E2,4.97E2,1.873E3,5.05E2,3.31E2,4.71E2,2.6E1,1.18E2,1.755E3,1.61E2,3.44E2,3E1,3.01E2,3.78E2,9.3E1,1.6E1,1E1,9.8E1,2E1,1.222E3,5.33E2,1.57E2,4E0,2.77E2,6.7E1,1.1E1,1.9E1,3.1E1,2.7E2],"tree_param":{"num_deleted":"0","num_feature":"36","num_nodes":"31","size_leaf_vector":"1"}},{"base_weights":[-2.057998E-2,-1.02514505E-1,3.1942216E-1,-3.7959558E-1,-2.8648384E-2,1.9498608E-1,4.8679245E-1,-4.521605E-1,-2.7149323E-1,-9.475375E-2,2.7051399E-2,3.84E-1,9.361702E-2,1.25E-1,4.90458E-1,-2.2897197E-2,6.25E-3,-1.5850516E-2,2.6785715E-3,-3.755734E-3,-1.8253969E-2,1.5656566E-2,-4.9455983E-5,2.0512821E-2,-0E0,-1.1666667E-3,1.4825582E-2,-1.25E-2,1.6666668E-2,2.4707032E-2,1.4285715E-2],"categories":[],"categories_nodes":[],"categories_segments":[],"categories_sizes":[],"default_left":[0,0,0,0,0,0,0,0,0,0,0,0,0,0,0,0,0,0,0,0,0,0,0,0,0,0,0,0,0,0,0],"id":51,"left_children":[1,3,5,7,9,11,13,15,17,19,21,23,25,27,29,-1,-1,-1,-1,-1,-1,-1,-1,-1,-1,-1,-1,-1,-1,-1,-1],"loss_changes":[8.937308E1,5.289608E1,1.2880245E1,4.144623E0,7.521318E0,6.8425484E0,2.901268E-1,1.1387405E0,3.2868977E0,4.9311304E0,8.896518E0,1.2603092E0,5.5831385E0,3.9583334E-1,5.6365967E-2,0E0,0E0,0E0,0E0,0E0,0E0,0E0,0E0,0E0,0E0,0E0,0E0,0E0,0E0,0E0,0E0],"parents":[2147483647,0,0,1,1,2,2,3,3,4,4,5,5,6,6,7,7,8,8,9,9,10,10,11,11,12,12,13,13,14,14],"right_children":[2,4,6,8,10,12,14,16,18,20,22,24,26,28,30,-1,-1,-1,-1,-1,-1,-1,-1,-1,-1,-1,-1,-1,-1,-1,-1],"split_conditions":[1.535E1,1.82E0,2.734E1,6E-2,8.09E0,1.568E1,1.508E1,6.11E0,1.604E1,1.031E1,8.35E0,1.779E1,1.946E1,2.075E1,3.25E1,-7.5148925E-2,1.5195161E-3,-2.2683606E-2,7.189536E-3,-6.226826E-3,-3.1399477E-2,2.164786E-2,-5.5623055E-5,6.495271E-2,2.672863E-3,-1.541996E-3,4.543667E-2,-1.3263035E-2,9.998693E-2,1.9895363E-1,2.4170361E-1],"split_indices":[1,14,14,14,14,18,12,12,0,21,20,15,1,0,29,0,0,0,0,0,0,0,0,0,0,0,0,0,0,0,0],"split_type":[0,0,0,0,0,0,0,0,0,0,0,0,0,0,0,0,0,0,0,0,0,0,0,0,0,0,0,0,0,0,0],"sum_hessian":[3.206E3,2.584E3,6.22E2,5.43E2,2.041E3,3.58E2,2.64E2,3.23E2,2.2E2,9.33E2,1.108E3,1.24E2,2.34E2,3E0,2.61E2,3.2E2,3E0,1.93E2,2.7E1,8.71E2,6.2E1,9.8E1,1.01E3,1.16E2,8E0,1.49E2,8.5E1,1E0,2E0,2.55E2,6E0],"tree_param":{"num_deleted":"0","num_feature":"36",