{"learner":{"attributes":{"scikit_learn":"{\"_estimator_type\": \"regressor\"}"},"feature_names":["grafton_level","hermann_level","daily_precip","daily_temp_avg","daily_snowfall","daily_humidity","daily_wind","precip_7d","precip_14d","precip_30d","soil_deep_30d","heavy_rain_48h","hermann_lag2d","grafton_lag2d","target_lag2d","hermann_lag3d","grafton_lag3d","target_lag3d","hermann_lag4d","grafton_lag4d","target_lag4d","hermann_lag6d","grafton_lag6d","hermann_lag8d","grafton_lag8d","precip_7d_lag2d","precip_14d_lag2d","precip_30d_lag2d","soil_deep_30d_lag2d","daily_precip_lag2d","hermann_ma3d","grafton_ma3d","hermann_ma7d","grafton_ma7d","hermann_ma14d","grafton_ma14d"],"feature_types":["float","float","float","float","float","float","float","float","float","float","float","int","float","float","float","float","float","float","float","float","float","float","float","float","float","float","float","float","float","float","float","float","float","float","float","float"],"gradient_booster":{"model":{"cats":{"enc":[],"feature_segments":[],"sorted_idx":[]},"gbtree_model_param":{"num_parallel_tree":"1","num_trees":"300"},"iteration_indptr":[0,1,2,3,4,5,6,7,8,9,10,11,12,13,14,15,16,17,18,19,20,21,22,23,24,25,26,27,28,29,30,31,32,33,34,35,36,37,38,39,40,41,42,43,44,45,46,47,48,49,50,51,52,53,54,55,56,57,58,59,60,61,62,63,64,65,66,67,68,69,70,71,72,73,74,75,76,77,78,79,80,81,82,83,84,85,86,87,88,89,90,91,92,93,94,95,96,97,98,99,100,101,102,103,104,105,106,107,108,109,110,111,112,113,114,115,116,117,118,119,120,121,122,123,124,125,126,127,128,129,130,131,132,133,134,135,136,137,138,139,140,141,142,143,144,145,146,147,148,149,150,151,152,153,154,155,156,157,158,159,160,161,162,163,164,165,166,167,168,169,170,171,172,173,174,175,176,177,178,179,180,181,182,183,184,185,186,187,188,189,190,191,192,193,194,195,196,197,198,199,200,201,202,203,204,205,206,207,208,209,210,211,212,213,214,215,216,217,218,219,220,221,222,223,224,225,226,227,228,229,230,231,232,233,234,235,236,237,238,239,240,241,242,243,244,245,246,247,248,249,250,251,252,253,254,255,256,257,258,259,260,261,262,263,264,265,266,267,268,269,270,271,272,273,274,275,276,277,278,279,280,281,282,283,284,285,286,287,288,289,290,291,292,293,294,295,296,297,298,299,300],"tree_info":[0,0,0,0,0,0,0,0,0,0,0,0,0,0,0,0,0,0,0,0,0,0,0,0,0,0,0,0,0,0,0,0,0,0,0,0,0,0,0,0,0,0,0,0,0,0,0,0,0,0,0,0,0,0,0,0,0,0,0,0,0,0,0,0,0,0,0,0,0,0,0,0,0,0,0,0,0,0,0,0,0,0,0,0,0,0,0,0,0,0,0,0,0,0,0,0,0,0,0,0,0,0,0,0,0,0,0,0,0,0,0,0,0,0,0,0,0,0,0,0,0,0,0,0,0,0,0,0,0,0,0,0,0,0,0,0,0,0,0,0,0,0,0,0,0,0,0,0,0,0,0,0,0,0,0,0,0,0,0,0,0,0,0,0,0,0,0,0,0,0,0,0,0,0,0,0,0,0,0,0,0,0,0,0,0,0,0,0,0,0,0,0,0,0,0,0,0,0,0,0,0,0,0,0,0,0,0,0,0,0,0,0,0,0,0,0,0,0,0,0,0,0,0,0,0,0,0,0,0,0,0,0,0,0,0,0,0,0,0,0,0,0,0,0,0,0,0,0,0,0,0,0,0,0,0,0,0,0,0,0,0,0,0,0,0,0,0,0,0,0,0,0,0,0,0,0,0,0,0,0,0,0,0,0,0,0,0,0,0,0,0,0,0,0,0,0,0,0,0,0],"trees":[{"base_weights":[3.1542822E-3,-4.8916155E-1,9.185704E-2,-5.43722E-1,7.5E-2,-4.536082E-2,9.6906036E-2,-6.6821426E-1,-3.317365E-1,4.8809526E-3,-2.6666665E-1,-1.3114753E-1,4.864865E-3,7.45E-2,9.871848E-2,-3.7136927E-2,-1.0124999E-2,-2.2434782E-2,-3.5849053E-3,2.5000002E-3,-2.2499999E-2,-1.2903226E-2,1.8025598E-10,3.9646467E-3,-1.3333333E-2,4.0094345E-3,4.9762316E-3],"categories":[],"categories_nodes":[],"categories_segments":[],"categories_sizes":[],"default_left":[0,0,0,0,0,0,0,0,0,0,0,0,0,0,0,0,0,0,0,0,0,0,0,0,0,0,0],"id":0,"left_children":[1,3,5,7,9,11,13,15,17,-1,19,21,-1,23,25,-1,-1,-1,-1,-1,-1,-1,-1,-1,-1,-1,-1],"loss_changes":[1.3987553E2,1.50926285E1,1.8846893E0,1.1548508E1,3.6607146E-1,1.1998628E0,9.896088E-2,9.567558E0,5.0469456E0,0E0,1.9666664E-1,1.0153359E0,0E0,3.4818232E-1,2.8154373E-2,0E0,0E0,0E0,0E0,0E0,0E0,0E0,0E0,0E0,0E0,0E0,0E0],"parents":[2147483647,0,0,1,1,2,2,3,3,4,4,5,5,6,6,7,7,8,8,10,10,11,11,13,13,14,14],"right_children":[2,4,6,8,10,12,14,16,18,-1,20,22,-1,24,26,-1,-1,-1,-1,-1,-1,-1,-1,-1,-1,-1,-1],"split_conditions":[1.41E0,5.77E0,2.24E0,2E-2,1.604E1,1.2483334E1,3.8E0,3.0145834E1,3.142442E-1,1.54E-2,5.8E0,4.47E0,1.4649999E-2,3.9908084E-1,4.05E0,-1.445E-1,-1.105E-1,-7.175E-2,-2.0899998E-2,1.395E-1,-6.4999997E-3,-4.8649997E-2,-1.39E-2,7.610001E-2,-5E-4,1.456E-1,2.4469998E-1],"split_indices":[20,1,20,20,24,6,20,7,28,0,1,1,0,28,23,0,0,0,0,0,0,0,0,0,0,0,0],"split_type":[0,0,0,0,0,0,0,0,0,0,0,0,0,0,0,0,0,0,0,0,0,0,0,0,0,0,0],"sum_hessian":[3.201E3,4.88E2,2.713E3,4.45E2,4.3E1,9.6E1,2.617E3,2.79E2,1.66E2,4.1E1,2E0,6E1,3.6E1,1.99E2,2.418E3,2.4E2,3.9E1,1.14E2,5.2E1,1E0,1E0,3E1,3E1,1.97E2,2E0,1.05E2,2.313E3],"tree_param":{"num_deleted":"0","num_feature":"36","num_nodes":"27","size_leaf_vector":"1"}},{"base_weights":[2.720454E-3,-6.0451126E-1,8.925E-2,-7.330472E-1,-4.2155686E-1,-9.637681E-2,9.88359E-2,-7.866337E-1,-3.71875E-1,-2.4555555E-1,-6.1923075E-1,-5.1E-1,-6.356589E-2,-1.2E-1,9.921023E-2,-3.9775E-2,3.3333336E-3,-3.0588234E-2,-4.6874997E-3,-1.7734375E-2,1.1111113E-3,-3.5227273E-2,-6.9230767E-3,3.7500001E-3,-3.857143E-2,-1.895161E-3,-2.9166667E-2,-2.2499999E-2,3.7500001E-3,3.636364E-3,4.9980646E-3],"categories":[],"categories_nodes":[],"categories_segments":[],"categories_sizes":[],"default_left":[0,0,0,0,0,0,0,0,0,0,0,0,0,0,0,0,0,0,0,0,0,0,0,0,0,0,0,0,0,0,0],"id":1,"left_children":[1,3,5,7,9,11,13,15,17,19,21,23,25,27,29,-1,-1,-1,-1,-1,-1,-1,-1,-1,-1,-1,-1,-1,-1,-1,-1],"loss_changes":[1.6808803E2,9.073944E0,4.991844E0,4.216942E0,5.658018E0,1.8404286E0,2.3005295E-1,1.5812912E0,2.0776658E0,2.6379619E0,3.1017494E0,1.587214E0,1.6985714E0,3.5549998E-1,4.561615E-2,0E0,0E0,0E0,0E0,0E0,0E0,0E0,0E0,0E0,0E0,0E0,0E0,0E0,0E0,0E0,0E0],"parents":[2147483647,0,0,1,1,2,2,3,3,4,4,5,5,6,6,7,7,8,8,9,9,10,10,11,11,12,12,13,13,14,14],"right_children":[2,4,6,8,10,12,14,16,18,20,22,24,26,28,30,-1,-1,-1,-1,-1,-1,-1,-1,-1,-1,-1,-1,-1,-1,-1,-1],"split_conditions":[5.5E-1,-5.7E-1,1.73E0,3.9E0,3.04875E1,3.3E0,1.57E0,5.8E0,6.7E1,1.055E1,5.59E0,1.555E1,1.3446666E2,4.3125E1,2.4E0,-1.46275E-1,7.7299997E-3,-1.14975E-1,-1.07795015E-1,-4.46575E-2,3.837503E-4,-8.2387E-2,-2.6354998E-2,6.5195E-2,-5.2067496E-2,-6.6175E-3,-5.07325E-2,-8.3955E-2,3.5025E-2,3.956675E-2,1.9776501E-1],"split_indices":[14,14,14,29,26,26,12,1,9,7,12,13,27,5,14,0,0,0,0,0,0,0,0,0,0,0,0,0,0,0,0],"split_type":[0,0,0,0,0,0,0,0,0,0,0,0,0,0,0,0,0,0,0,0,0,0,0,0,0,0,0,0,0,0,0],"sum_hessian":[3.197E3,3.98E2,2.799E3,2.32E2,1.66E2,1.37E2,2.662E3,2.01E2,3.1E1,8.9E1,7.7E1,9E0,1.28E2,4E0,2.658E3,1.99E2,2E0,1.6E1,1.5E1,6.3E1,2.6E1,6.5E1,1.2E1,3E0,6E0,1.23E2,5E0,1E0,3E0,7.6E1,2.582E3],"tree_param":{"num_deleted":"0","num_feature":"36","num_nodes":"31","size_leaf_vector":"1"}},{"base_weights":[1.0273126E-2,-6.0283285E-1,8.567944E-2,-6.8582374E-1,-3.6344084E-1,-1.3985507E-1,9.703623E-2,-7.4977165E-1,-3.4418604E-1,-4.192771E-1,4.545455E-3,-5.454545E-1,-1.03906244E-1,-2.4999999E-1,9.776393E-2,-3.7880182E-2,3.3333336E-3,-2.9473683E-2,-7.2E-3,-1.2702703E-2,-2.7021278E-2,3.7500001E-3,-3.9375E-2,-1.0253164E-2,2.9000002E-3,-3E-2,3.7500001E-3,3.3057854E-3,4.9597393E-3],"categories":[],"categories_nodes":[],"categories_segments":[],"categories_sizes":[],"default_left":[0,0,0,0,0,0,0,0,0,0,0,0,0,0,0,0,0,0,0,0,0,0,0,0,0,0,0,0,0],"id":2,"left_children":[1,3,5,7,9,11,13,15,17,19,-1,21,23,25,27,-1,-1,-1,-1,-1,-1,-1,-1,-1,-1,-1,-1,-1,-1],"loss_changes":[1.4901135E2,6.763916E0,7.3646336E0,5.444008E0,2.3974504E0,1.9554777E0,7.1463394E-1,1.4508743E0,2.0265522E0,1.5240736E0,0E0,1.7110229E0,2.108272E0,7.2749996E-1,1.1697769E-1,0E0,0E0,0E0,0E0,0E0,0E0,0E0,0E0,0E0,0E0,0E0,0E0,0E0,0E0],"parents":[2147483647,0,0,1,1,2,2,3,3,4,4,5,5,6,6,7,7,8,8,9,9,11,11,12,12,13,13,14,14],"right_children":[2,4,6,8,10,12,14,16,18,20,-1,22,24,26,28,-1,-1,-1,-1,-1,-1,-1,-1,-1,-1,-1,-1,-1,-1],"split_conditions":[2.4E-1,-2.8E-1,1.55E0,3.9E0,1E0,3.3E0,1.57E0,5.77E0,3.6470833E1,2.66125E1,3.0750125E-3,1.555E1,2.7821615E-1,1.96E1,2.56E0,-1.3385749E-1,3.04375E-3,-1.3277625E-1,-8.980575E-2,-4.4579625E-2,-5.69619E-2,6.1935246E-2,-4.946412E-2,-4.4782937E-2,1.2855875E-2,-7.975725E-2,3.3273753E-2,3.1998202E-2,1.9577675E-1],"split_indices":[14,14,14,29,11,26,12,1,8,26,0,13,28,8,14,0,0,0,0,0,0,0,0,0,0,0,0,0,0],"split_type":[0,0,0,0,0,0,0,0,0,0,0,0,0,0,0,0,0,0,0,0,0,0,0,0,0,0,0,0,0],"sum_hessian":[3.221E3,3.52E2,2.869E3,2.6E2,9.2E1,1.37E2,2.732E3,2.18E2,4.2E1,8.2E1,1E1,1E1,1.27E2,5E0,2.727E3,2.16E2,2E0,1.8E1,2.4E1,3.6E1,4.6E1,3E0,7E0,7.8E1,4.9E1,2E0,3E0,1.2E2,2.607E3],"tree_param":{"num_deleted":"0","num_feature":"36","num_nodes":"29","size_leaf_vector":"1"}},{"base_weights":[1.066667E-2,-5.87069E-1,8.293954E-2,-6.751908E-1,-3.149425E-1,-1.3935483E-1,9.5558E-2,-7.5537634E-1,-4.7272727E-1,4.5833336E-3,-3.75E-1,-7.4999996E-2,-4.8749998E-1,-2.4999999E-1,9.62854E-2,-3.8994253E-2,-1.8461538E-2,-3.736842E-2,-1.881356E-2,-3.533333E-2,-1.4435484E-2,-7.905405E-3,1.5254238E-3,-3.533333E-2,-5.4999995E-3,-3E-2,3.7500001E-3,-2.2499999E-2,4.8325974E-3],"categories":[],"categories_nodes":[],"categories_segments":[],"categories_sizes":[],"default_left":[0,0,0,0,0,0,0,0,0,0,0,0,0,0,0,0,0,0,0,0,0,0,0,0,0,0,0,0,0],"id":3,"left_children":[1,3,5,7,9,11,13,15,17,-1,19,21,23,25,27,-1,-1,-1,-1,-1,-1,-1,-1,-1,-1,-1,-1,-1,-1],"loss_changes":[1.3936893E2,8.132492E0,8.086145E0,3.8963852E0,2.158907E0,3.4361856E0,7.0876884E-1,1.4723358E0,1.7585793E0,0E0,1.9710703E0,1.1622801E0,1.9079161E0,7.2749996E-1,5.8794975E-1,0E0,0E0,0E0,0E0,0E0,0E0,0E0,0E0,0E0,0E0,0E0,0E0,0E0,0E0],"parents":[2147483647,0,0,1,1,2,2,3,3,4,4,5,5,6,6,7,7,8,8,10,10,11,11,12,12,13,13,14,14],"right_children":[2,4,6,8,10,12,14,16,18,-1,20,22,24,26,28,-1,-1,-1,-1,-1,-1,-1,-1,-1,-1,-1,-1,-1,-1],"split_conditions":[2.4E-1,-2.8E-1,1.55E0,1.3958333E1,-5.7E-1,5.64E0,1.57E0,3.437087E-1,-1.93E0,1.9813278E-3,3.6583333E0,2.7821615E-1,5.81E0,1.4804167E1,1.27E0,-1.3896838E-1,-4.8706125E-2,-1.03688374E-1,-8.7368384E-2,-9.969505E-2,-5.554953E-2,-4.434064E-2,2.099281E-3,-6.008525E-2,-2.2678103E-2,-7.576939E-2,5.2546873E-3,-3.4120858E-3,1.4908792E-1],"split_indices":[14,14,14,7,17,18,12,10,14,0,3,28,12,7,1,0,0,0,0,0,0,0,0,0,0,0,0,0,0],"split_type":[0,0,0,0,0,0,0,0,0,0,0,0,0,0,0,0,0,0,0,0,0,0,0,0,0,0,0,0,0],"sum_hessian":[3.224E3,3.47E2,2.877E3,2.61E2,8.6E1,1.54E2,2.723E3,1.85E2,7.6E1,1.1E1,7.5E1,1.31E2,2.3E1,5E0,2.718E3,1.73E2,1.2E1,1.8E1,5.8E1,1.4E1,6.1E1,7.3E1,5.8E1,1.4E1,9E0,2E0,3E0,1E0,2.717E3],"tree_param":{"num_deleted":"0","num_feature":"36","num_nodes":"29","size_leaf_vector":"1"}},{"base_weights":[1.7488375E-2,-5.502941E-1,8.437283E-2,-7.848214E-1,-4.3318775E-1,-1.2214764E-1,9.558072E-2,-8.091743E-1,3.7500001E-3,-6.775862E-1,-3.482558E-1,-9.3571424E-2,-5.1E-1,-2.6666665E-1,9.594298E-2,-4.2880435E-2,-2.5833333E-2,4.166667E-3,-3.7547167E-2,-1.9703947E-2,1.7739478E-10,-2.05E-2,-3.4351144E-3,-3.857143E-2,3.7500001E-3,-2.2499999E-2,2.5000002E-3,-1.3333333E-2,4.8152893E-3],"categories":[],"categories_nodes":[],"categories_segments":[],"categories_sizes":[],"default_left":[0,0,0,0,0,0,0,0,0,0,0,0,0,0,0,0,0,0,0,0,0,0,0,0,0,0,0,0,0],"id":4,"left_children":[1,3,5,7,9,11,13,15,-1,17,19,21,23,25,27,-1,-1,-1,-1,-1,-1,-1,-1,-1,-1,-1,-1,-1,-1],"loss_changes":[1.2251846E2,8.998001E0,6.6917744E0,2.4058685E0,4.5174294E0,1.6036985E0,3.8489342E-1,1.1011505E0,0E0,3.3000774E0,2.7448063E0,1.0735348E0,1.587214E0,1.9666664E-1,3.8561058E-1,0E0,0E0,0E0,0E0,0E0,0E0,0E0,0E0,0E0,0E0,0E0,0E0,0E0,0E0],"parents":[2147483647,0,0,1,1,2,2,3,3,4,4,5,5,6,6,7,7,9,9,10,10,11,11,12,12,13,13,14,14],"right_children":[2,4,6,8,10,12,14,16,-1,18,20,22,24,26,28,-1,-1,-1,-1,-1,-1,-1,-1,-1,-1,-1,-1,-1,-1],"split_conditions":[2.4E-1,-1.48E0,1.55E0,5.77E0,1.564E1,1.244125E2,1.16E0,1E0,1.1559732E-2,1.73E1,5.6054165E1,3.3E0,1.589E1,1.589E1,1.9102709E-1,-1.4331521E-1,-8.871055E-2,8.680043E-3,-9.533521E-2,-5.359862E-2,-9.24393E-3,-4.4773884E-2,-1.5375616E-2,-6.454974E-2,6.7228037E-3,-2.073431E-3,4.4068534E-2,-4.8376434E-3,1.4476874E-1],"split_indices":[14,14,14,1,0,27,1,11,0,27,8,26,22,0,10,0,0,0,0,0,0,0,0,0,0,0,0,0,0],"split_type":[0,0,0,0,0,0,0,0,0,0,0,0,0,0,0,0,0,0,0,0,0,0,0,0,0,0,0,0,0],"sum_hessian":[3.224E3,3.39E2,2.885E3,1.11E2,2.28E2,1.48E2,2.737E3,1.08E2,3E0,5.7E1,1.71E2,1.39E2,9E0,2E0,2.735E3,9.1E1,1.7E1,5E0,5.2E1,1.51E2,2E1,9E0,1.3E2,6E0,3E0,1E0,1E0,2E0,2.733E3],"tree_param":{"num_deleted":"0","num_feature":"36","num_nodes":"29","size_leaf_vector":"1"}},{"base_weights":[1.4961364E-2,-5.437326E-1,8.4671535E-2,-6.604E-1,-2.7363634E-1,-9.022988E-2,9.589497E-2,-8.344444E-1,-5.590062E-1,-6.55E-1,-1.8681318E-1,-6.2275443E-2,-6.6249996E-1,3.0769235E-2,9.8802164E-2,-4.275862E-2,-8.75E-3,-3.3142857E-2,-1.7894736E-2,-1E-2,-4.1785713E-2,-1.881579E-2,-2.5E-3,-2.1296295E-3,-2.9166667E-2,-3.857143E-2,2.5000002E-3,2.3478263E-3,-3E-2,-2.2499999E-2,4.959413E-3],"categories":[],"categories_nodes":[],"categories_segments":[],"categories_sizes":[],"default_left":[0,0,0,0,0,0,0,0,0,0,0,0,0,0,0,0,0,0,0,0,0,0,0,0,0,0,0,0,0,0,0],"id":5,"left_children":[1,3,5,7,9,11,13,15,17,19,21,23,25,27,29,-1,-1,-1,-1,-1,-1,-1,-1,-1,-1,-1,-1,-1,-1,-1,-1],"loss_changes":[1.2603845E2,1.1131882E1,5.656189E0,3.9452972E0,3.5198698E0,2.7423055E0,5.0891685E-1,1.0805511E0,3.125351E0,1.4773569E0,2.3404915E0,1.6878908E0,6.594641E-1,1.222796E0,5.929928E-1,0E0,0E0,0E0,0E0,0E0,0E0,0E0,0E0,0E0,0E0,0E0,0E0,0E0,0E0,0E0,0E0],"parents":[2147483647,0,0,1,1,2,2,3,3,4,4,5,5,6,6,7,7,8,8,9,9,10,10,11,11,12,12,13,13,14,14],"right_children":[2,4,6,8,10,12,14,16,18,20,22,24,26,28,30,-1,-1,-1,-1,-1,-1,-1,-1,-1,-1,-1,-1,-1,-1,-1,-1],"split_conditions":[2.4E-1,1.5991667E1,1.73E0,-1.48E0,-1.93E0,6.5935717E0,2.65E0,1.4804167E1,1.584E1,1.534E1,2E-1,8.54E1,3.9815104E-1,3.9908084E-1,1.27E0,-1.3860421E-1,-4.60557E-2,-6.334661E-2,-4.9049206E-2,-5.5648435E-2,-9.59382E-2,-7.387355E-2,-2.7701503E-2,-6.7112683E-3,-4.638475E-2,-3.999421E-2,4.813577E-2,1.7335748E-2,-2.4460992E-2,-1.04799215E-2,1.6969608E-1],"split_indices":[14,7,14,14,14,34,14,7,0,16,29,26,10,28,1,0,0,0,0,0,0,0,0,0,0,0,0,0,0,0,0],"split_type":[0,0,0,0,0,0,0,0,0,0,0,0,0,0,0,0,0,0,0,0,0,0,0,0,0,0,0,0,0,0,0],"sum_hessian":[3.234E3,3.58E2,2.876E3,2.49E2,1.09E2,1.73E2,2.703E3,8.9E1,1.6E2,1.9E1,9E1,1.66E2,7E0,1.16E2,2.587E3,8.6E1,3E0,1.04E2,5.6E1,6E0,1.3E1,3.7E1,5.3E1,1.61E2,5E0,6E0,1E0,1.14E2,2E0,1E0,2.586E3],"tree_param":{"num_deleted":"0","num_feature":"36","num_nodes":"31","size_leaf_vector":"1"}},{"base_weights":[1.8037386E-2,-5.206799E-1,8.456963E-2,-6.324E-1,-2.4711537E-1,-6.724137E-2,9.437617E-2,-8.168421E-1,-5.160256E-1,-5.7E-1,-1.1466666E-1,-1.3173077E-1,2.8169017E-2,4.0990993E-2,9.914773E-2,-4.1329786E-2,2.5000002E-3,-3.014423E-2,-1.6792452E-2,-5.4999995E-3,-3.8095236E-2,-1.6041666E-2,-8.653844E-4,-1.1764705E-2,-1.5740739E-3,2.6515152E-3,-1.2499999E-2,2.694064E-3,-3.3749998E-2,3.2258069E-3,4.9774037E-3],"categories":[],"categories_nodes":[],"categories_segments":[],"categories_sizes":[],"default_left":[0,0,0,0,0,0,0,0,0,0,0,0,0,0,0,0,0,0,0,0,0,0,0,0,0,0,0,0,0,0,0],"id":6,"left_children":[1,3,5,7,9,11,13,15,17,19,21,23,25,27,29,-1,-1,-1,-1,-1,-1,-1,-1,-1,-1,-1,-1,-1,-1,-1,-1],"loss_changes":[1.1509707E2,1.0632347E1,4.2611656E0,4.944565E0,4.3822675E0,1.0743256E0,6.798878E-1,8.4453964E-1,2.2389145E0,2.564477E0,1.4998602E0,1.0723361E0,5.0426805E-1,2.085281E0,2.7740479E-2,0E0,0E0,0E0,0E0,0E0,0E0,0E0,0E0,0E0,0E0,0E0,0E0,0E0,0E0,0E0,0E0],"parents":[2147483647,0,0,1,1,2,2,3,3,4,4,5,5,6,6,7,7,8,8,9,9,10,10,11,11,12,12,13,13,14,14],"right_children":[2,4,6,8,10,12,14,16,18,20,22,24,26,28,30,-1,-1,-1,-1,-1,-1,-1,-1,-1,-1,-1,-1,-1,-1,-1,-1],"split_conditions":[2.4E-1,1.5991667E1,1.73E0,-1.33E0,-1.48E0,1E-1,3.46E0,1.612E1,1.2145833E1,1.554E1,9.129167E0,1.58E1,6.03E0,3.9908084E-1,4.366667E0,-1.2899543E-1,2.1338357E-2,-5.263641E-2,-4.7353666E-2,-5.2866008E-2,-8.539128E-2,-6.6481344E-2,-1.4162607E-2,-4.4428453E-2,-1.4229165E-3,4.0070717E-3,-3.3994164E-2,3.370328E-2,-2.3237944E-2,1.6911028E-1,1.9058229E-1],"split_indices":[14,7,14,14,14,2,14,0,6,19,6,24,18,28,6,0,0,0,0,0,0,0,0,0,0,0,0,0,0,0,0],"split_type":[0,0,0,0,0,0,0,0,0,0,0,0,0,0,0,0,0,0,0,0,0,0,0,0,0,0,0,0,0,0,0],"sum_hessian":[3.209E3,3.52E2,2.857E3,2.49E2,1.03E2,1.73E2,2.684E3,9.4E1,1.55E2,2.9E1,7.4E1,1.03E2,7E1,2.21E2,2.463E3,9.3E1,1E0,1.03E2,5.2E1,9E0,2E1,2.3E1,5.1E1,5E1,5.3E1,6.5E1,5E0,2.18E2,3E0,3E1,2.433E3],"tree_param":{"num_deleted":"0","num_feature":"36","num_nodes":"31","size_leaf_vector":"1"}},{"base_weights":[2.3235751E-2,-4.728767E-1,8.608122E-2,-5.90873E-1,-2.0789473E-1,-7.030302E-2,9.554656E-2,-8.233766E-1,-4.8579544E-1,-5.84E-1,-1.0111111E-1,-5.3749996E-1,-4.6202525E-2,4.62766E-2,9.916996E-2,-4.2957745E-2,-1.7142856E-2,-1.5747126E-2,-3.2277778E-2,-5.4999995E-3,-4.21875E-2,-2.2307692E-2,-2.1153844E-3,-3.75E-2,3.3333336E-3,-1.3245031E-3,-2.0625E-2,3.0810812E-3,-3.3749998E-2,3.382353E-3,4.9779736E-3],"categories":[],"categories_nodes":[],"categories_segments":[],"categories_sizes":[],"default_left":[0,0,0,0,0,0,0,0,0,0,0,0,0,0,0,0,0,0,0,0,0,0,0,0,0,0,0,0,0,0,0],"id":7,"left_children":[1,3,5,7,9,11,13,15,17,19,21,23,25,27,29,-1,-1,-1,-1,-1,-1,-1,-1,-1,-1,-1,-1,-1,-1,-1,-1],"loss_changes":[1.0121468E2,1.1289581E1,4.2712593E0,5.756592E0,4.5194054E0,1.8330133E0,4.8046303E-1,1.0292282E0,4.6006927E0,2.9852247E0,1.8071966E0,1.0770831E0,1.1299317E0,2.1223798E0,2.4328232E-2,0E0,0E0,0E0,0E0,0E0,0E0,0E0,0E0,0E0,0E0,0E0,0E0,0E0,0E0,0E0,0E0],"parents":[2147483647,0,0,1,1,2,2,3,3,4,4,5,5,6,6,7,7,8,8,9,9,10,10,11,11,12,12,13,13,14,14],"right_children":[2,4,6,8,10,12,14,16,18,20,22,24,26,28,30,-1,-1,-1,-1,-1,-1,-1,-1,-1,-1,-1,-1,-1,-1,-1,-1],"split_conditions":[3.5E-1,1.5991667E1,1.73E0,-1.48E0,-1.75E0,1.527E1,3.11E0,1.2708333E1,3.93E0,1.557E1,1.554E1,2.6323664E-1,6.5935717E0,3.986099E-1,4.366667E0,-1.2057421E-1,-1.2027421E-1,-5.7106998E-2,-6.1754048E-2,-5.0222706E-2,-8.568223E-2,-7.169457E-2,-1.2341064E-2,-8.951121E-2,8.73216E-2,-3.5555088E-3,-3.6294796E-2,1.765822E-2,-2.2076046E-2,1.06312774E-1,1.6923116E-1],"split_indices":[14,7,14,14,14,24,14,7,18,31,24,10,34,28,6,0,0,0,0,0,0,0,0,0,0,0,0,0,0,0,0],"split_type":[0,0,0,0,0,0,0,0,0,0,0,0,0,0,0,0,0,0,0,0,0,0,0,0,0,0,0,0,0,0,0],"sum_hessian":[3.244E3,3.64E2,2.88E3,2.51E2,1.13E2,1.64E2,2.716E3,7.6E1,1.75E2,2.4E1,8.9E1,7E0,1.57E2,1.87E2,2.529E3,7E1,6E0,8.6E1,8.9E1,9E0,1.5E1,1.2E1,7.7E1,5E0,2E0,1.5E2,7E0,1.84E2,3E0,3.3E1,2.496E3],"tree_param":{"num_deleted":"0","num_feature":"36","num_nodes":"31","size_leaf_vector":"1"}},{"base_weights":[2.3614535E-2,-4.4476438E-1,8.601326E-2,-7.213675E-1,-3.2142857E-1,-2.7983535E-2,9.6533336E-2,-8.159574E-1,-3.2083333E-1,-4.0591398E-1,-1.2345678E-1,-1.4345988E-2,-4.8571426E-1,6.1413046E-2,9.914005E-2,-4.1290324E-2,2.5000002E-3,-3.181818E-2,-2.5E-3,-2.535433E-2,-9.249999E-3,-1.5740739E-3,-1.4821428E-2,-3.44E-3,2.3008853E-3,-3.6E-2,3.3333336E-3,-3E-2,3.5989012E-3,3.3333336E-3,4.9771788E-3],"categories":[],"categories_nodes":[],"categories_segments":[],"categories_sizes":[],"default_left":[0,0,0,0,0,0,0,0,0,0,0,0,0,0,0,0,0,0,0,0,0,0,0,0,0,0,0,0,0,0,0],"id":8,"left_children":[1,3,5,7,9,11,13,15,17,19,21,23,25,27,29,-1,-1,-1,-1,-1,-1,-1,-1,-1,-1,-1,-1,-1,-1,-1,-1],"loss_changes":[9.49651E1,1.2800087E1,3.4409676E0,4.170929E0,4.3989296E0,1.5099168E0,2.3422623E-1,8.430023E-1,2.0191283E0,4.0633736E0,1.2793077E0,7.821956E-1,9.539046E-1,1.3289446E0,2.5363922E-2,0E0,0E0,0E0,0E0,0E0,0E0,0E0,0E0,0E0,0E0,0E0,0E0,0E0,0E0,0E0,0E0],"parents":[2147483647,0,0,1,1,2,2,3,3,4,4,5,5,6,6,7,7,8,8,9,9,10,10,11,11,12,12,13,13,14,14],"right_children":[2,4,6,8,10,12,14,16,18,20,22,24,26,28,30,-1,-1,-1,-1,-1,-1,-1,-1,-1,-1,-1,-1,-1,-1,-1,-1],"split_conditions":[3.5E-1,-1.48E0,2.4E0,1E0,1.2525E1,6.84E0,3.79E0,2.6625E1,1.44E1,2E-1,4.48E0,1.41E0,1.067125E2,1.0041667E0,1.514E1,-1.1833123E-1,2.4254499E-2,-8.8925734E-2,-5.9064955E-2,-6.456977E-2,-3.4587104E-2,-6.6710836E-3,-4.601958E-2,-8.5886605E-3,1.3361558E-2,-4.136878E-2,4.878276E-2,-2.0972243E-2,4.1572206E-2,2.916196E-1,1.803746E-1],"split_indices":[14,14,14,11,6,32,14,3,26,29,23,14,9,8,0,0,0,0,0,0,0,0,0,0,0,0,0,0,0,0,0],"split_type":[0,0,0,0,0,0,0,0,0,0,0,0,0,0,0,0,0,0,0,0,0,0,0,0,0,0,0,0,0,0,0],"sum_hessian":[3.247E3,3.81E2,2.866E3,1.16E2,2.65E2,2.42E2,2.624E3,9.3E1,2.3E1,1.85E2,8E1,2.36E2,6E0,1.83E2,2.441E3,9.2E1,1E0,1E1,1.3E1,1.26E2,5.9E1,5.3E1,2.7E1,1.24E2,1.12E2,4E0,2E0,2E0,1.81E2,3.2E1,2.409E3],"tree_param":{"num_deleted":"0","num_feature":"36","num_nodes":"31","size_leaf_vector":"1"}},{"base_weights":[2.7829604E-2,-4.3919307E-1,8.4285714E-2,-6.909091E-1,-2.614634E-1,-7.637362E-2,9.5128305E-2,-7.242647E-1,-3.7499994E-2,-1.0510203E-1,-4.009259E-1,-3.5256404E-2,-3.111111E-1,5.470852E-2,9.874342E-2,-3.8739495E-2,-1.75E-2,4.2857146E-3,-2.2499999E-2,4.814815E-3,-8.958333E-3,-3.2972973E-2,-1.3125E-2,-5.1369844E-4,-1.8181818E-2,-3.0769228E-3,-2.5333334E-2,3.1590909E-3,-2.125E-2,2.6086958E-3,4.957055E-3],"categories":[],"categories_nodes":[],"categories_segments":[],"categories_sizes":[],"default_left":[0,0,0,0,0,0,0,0,0,0,0,0,0,0,0,0,0,0,0,0,0,0,0,0,0,0,0,0,0,0,0],"id":9,"left_children":[1,3,5,7,9,11,13,15,17,19,21,23,25,27,29,-1,-1,-1,-1,-1,-1,-1,-1,-1,-1,-1,-1,-1,-1,-1,-1],"loss_changes":[8.4830986E1,1.5343231E1,5.0066986E0,3.0895004E0,4.4282045E0,1.74565E0,3.8751984E-1,2.3005676E0,4.4517857E-1,1.4790694E0,3.691967E0,1.276046E0,1.2865641E0,9.332833E-1,4.0517807E-2,0E0,0E0,0E0,0E0,0E0,0E0,0E0,0E0,0E0,0E0,0E0,0E0,0E0,0E0,0E0,0E0],"parents":[2147483647,0,0,1,1,2,2,3,3,4,4,5,5,6,6,7,7,8,8,9,9,10,10,11,11,12,12,13,13,14,14],"right_children":[2,4,6,8,10,12,14,16,18,20,22,24,26,28,30,-1,-1,-1,-1,-1,-1,-1,-1,-1,-1,-1,-1,-1,-1,-1,-1],"split_conditions":[2.4E-1,-1.22E0,1.73E0,2.0720833E1,2.6310006E-1,1.0249167E2,3.46E0,3.9E0,-2.8E-1,-6.6E-1,2.8215647E-1,1.614E1,1E0,3.9908084E-1,4.125E0,-1.0783128E-1,-9.48444E-2,2.687818E-3,-4.9288552E-2,1.0589153E-3,-2.6639864E-2,-7.017722E-2,-4.450963E-2,-1.7181367E-3,-7.2743736E-2,-4.519305E-2,-3.9808396E-2,2.3170982E-2,-1.9923631E-2,1.340714E-1,1.5990089E-1],"split_indices":[14,14,14,6,28,27,14,29,17,20,28,16,17,28,6,0,0,0,0,0,0,0,0,0,0,0,0,0,0,0,0],"split_type":[0,0,0,0,0,0,0,0,0,0,0,0,0,0,0,0,0,0,0,0,0,0,0,0,0,0,0,0,0,0,0],"sum_hessian":[3.215E3,3.46E2,2.869E3,1.42E2,2.04E2,1.81E2,2.688E3,1.35E2,7E0,9.7E1,1.07E2,1.55E2,2.6E1,2.22E2,2.466E3,1.18E2,1.7E1,6E0,1E0,2.6E1,7.1E1,3.6E1,7.1E1,1.45E2,1E1,1.2E1,1.4E1,2.19E2,3E0,2.2E1,2.444E3],"tree_param":{"num_deleted":"0","num_feature":"36","num_nodes":"31","size_leaf_vector":"1"}},{"base_weights":[3.144556E-2,-3.7512562E-1,8.924616E-2,-6.7394954E-1,-2.467857E-1,-2.7464785E-2,9.5447704E-2,-7.5959593E-1,-2.3809522E-1,-3.266272E-1,-1.2410714E-1,-3.6764669E-3,-4.8571426E-1,5.842697E-2,9.954014E-2,-3.9263155E-2,-6E-3,-2.7272725E-2,4.545455E-3,-1.8993055E-2,-9.6153823E-4,-3.1182794E-3,-2.025E-2,4.51128E-4,-2.125E-2,-3.6E-2,3.3333336E-3,3.9375E-3,-5.892857E-3,4.1791047E-3,4.997851E-3],"categories":[],"categories_nodes":[],"categories_segments":[],"categories_sizes":[],"default_left":[0,0,0,0,0,0,0,0,0,0,0,0,0,0,0,0,0,0,0,0,0,0,0,0,0,0,0,0,0,0,0],"id":10,"left_children":[1,3,5,7,9,11,13,15,17,19,21,23,25,27,29,-1,-1,-1,-1,-1,-1,-1,-1,-1,-1,-1,-1,-1,-1,-1,-1],"loss_changes":[7.513966E1,1.5097385E1,2.0285053E0,4.2613373E0,2.7020187E0,1.546154E0,3.9688492E-1,1.5310135E0,2.17316E0,2.7581959E0,1.917131E0,7.314888E-1,9.539046E-1,9.6584284E-1,7.555008E-3,0E0,0E0,0E0,0E0,0E0,0E0,0E0,0E0,0E0,0E0,0E0,0E0,0E0,0E0,0E0,0E0],"parents":[2147483647,0,0,1,1,2,2,3,3,4,4,5,5,6,6,7,7,8,8,9,9,10,10,11,11,12,12,13,13,14,14],"right_children":[2,4,6,8,10,12,14,16,18,20,22,24,26,28,30,-1,-1,-1,-1,-1,-1,-1,-1,-1,-1,-1,-1,-1,-1,-1,-1],"split_conditions":[5.5E-1,-1.48E0,1.73E0,1E0,6.9875E1,1.244125E2,3.79E0,5.2E0,3.85E0,5.17E0,5.05E0,2.74E0,3E-1,1.067125E2,2.1136388E-1,-9.994488E-2,-2.8437382E-2,-7.908788E-2,2.700186E-3,-4.7776997E-2,-4.537071E-3,-1.1269361E-2,-3.1790968E-2,1.7188423E-3,-3.730992E-2,-3.57957E-2,9.388735E-3,2.810504E-2,-4.5229603E-2,1.15734816E-1,1.6240583E-1],"split_indices":[14,14,14,11,5,27,14,1,25,1,18,17,2,27,10,0,0,0,0,0,0,0,0,0,0,0,0,0,0,0,0],"split_type":[0,0,0,0,0,0,0,0,0,0,0,0,0,0,0,0,0,0,0,0,0,0,0,0,0,0,0,0,0,0,0],"sum_hessian":[3.195E3,3.97E2,2.798E3,1.18E2,2.79E2,1.41E2,2.657E3,9.8E1,2E1,1.68E2,1.11E2,1.35E2,6E0,2.66E2,2.391E3,9.4E1,4E0,1E1,1E1,1.43E2,2.5E1,9.2E1,1.9E1,1.32E2,3E0,4E0,2E0,2.39E2,2.7E1,6.6E1,2.325E3],"tree_param":{"num_deleted":"0","num_feature":"36","num_nodes":"31","size_leaf_vector":"1"}},{"base_weights":[3.2616153E-2,-3.7972602E-1,8.554344E-2,-7.2625E-1,-2.814685E-1,-5.0624996E-2,9.362891E-2,-8.144927E-1,-1.5833333E-1,-3.6958763E-1,-9.462365E-2,-2.6490062E-2,-4.1E-1,-1.3846153E-1,9.472305E-2,-4.139706E-2,2.5000002E-3,4.375E-3,-2.5999999E-2,-1.19375E-2,-2.2869565E-2,-3.4831457E-3,-2.5999999E-2,-1.8181818E-2,1.8494349E-10,-3.75E-2,4E-3,4.4444446E-3,-2.5999999E-2,-1.3333333E-2,4.754682E-3],"categories":[],"categories_nodes":[],"categories_segments":[],"categories_sizes":[],"default_left":[0,0,0,0,0,0,0,0,0,0,0,0,0,0,0,0,0,0,0,0,0,0,0,0,0,0,0,0,0,0,0],"id":11,"left_children":[1,3,5,7,9,11,13,15,17,19,21,23,25,27,29,-1,-1,-1,-1,-1,-1,-1,-1,-1,-1,-1,-1,-1,-1,-1,-1],"loss_changes":[7.002254E1,1.2223309E1,3.1348438E0,3.8802032E0,4.6739044E0,1.3768978E0,6.946907E-1,8.435974E-1,1.1124166E0,2.1194725E0,9.51222E-1,1.3485851E0,1.7259998E0,1.1738803E0,3.832016E-1,0E0,0E0,0E0,0E0,0E0,0E0,0E0,0E0,0E0,0E0,0E0,0E0,0E0,0E0,0E0,0E0],"parents":[2147483647,0,0,1,1,2,2,3,3,4,4,5,5,6,6,7,7,8,8,9,9,10,10,11,11,12,12,13,13,14,14],"right_children":[2,4,6,8,10,12,14,16,18,20,22,24,26,28,30,-1,-1,-1,-1,-1,-1,-1,-1,-1,-1,-1,-1,-1,-1,-1,-1],"split_conditions":[3.5E-1,-1.93E0,1.73E0,1.592E1,2E-1,6.5935717E0,1.79E0,3.255106E-1,-2.72E0,2.6310006E-1,1.611E1,1.527E1,6.79E0,1.614E1,1.57E0,-1.0225487E-1,9.451534E-2,5.9860944E-5,-5.0940145E-2,-3.4657054E-2,-5.1809113E-2,-2.1049997E-2,-1.0894014E-1,-7.940235E-2,-3.6601519E-4,-3.0201418E-2,1.2207082E-2,1.882968E-2,-3.2752197E-2,-8.58861E-2,1.0428553E-1],"split_indices":[14,14,14,0,29,34,1,10,14,28,24,24,23,16,12,0,0,0,0,0,0,0,0,0,0,0,0,0,0,0,0],"split_type":[0,0,0,0,0,0,0,0,0,0,0,0,0,0,0,0,0,0,0,0,0,0,0,0,0,0,0,0,0,0,0],"sum_hessian":[3.206E3,3.64E2,2.842E3,7.9E1,2.85E2,1.59E2,2.683E3,6.8E1,1.1E1,1.93E2,9.2E1,1.5E2,9E0,1.2E1,2.671E3,6.7E1,1E0,7E0,4E0,7.9E1,1.14E2,8.8E1,4E0,1E1,1.4E2,5E0,4E0,8E0,4E0,2E0,2.669E3],"tree_param":{"num_deleted":"0","num_feature":"36","num_nodes":"31","size_leaf_vector":"1"}},{"base_weights":[3.4375004E-2,-3.3775E-1,8.690435E-2,-6.860215E-1,-2.314935E-1,3.4246946E-4,9.681354E-2,-7.383721E-1,-3.7499994E-2,-3.0976743E-1,-4.9999997E-2,2.6122453E-2,-1.3125E-1,6.755319E-2,9.910828E-2,-3.835366E-2,-6E-3,4.2857146E-3,-2.2499999E-2,-1.9510489E-2,-7.39726E-3,-9.852941E-3,1.6393444E-3,-1.5267174E-3,4.521739E-3,-2.4285713E-2,-3.452381E-3,4.3712575E-3,-4.3181814E-3,1.9444445E-3,4.9764756E-3],"categories":[],"categories_nodes":[],"categories_segments":[],"categories_sizes":[],"default_left":[0,0,0,0,0,0,0,0,0,0,0,0,0,0,0,0,0,0,0,0,0,0,0,0,0,0,0,0,0,0,0],"id":12,"left_children":[1,3,5,7,9,11,13,15,17,19,21,23,25,27,29,-1,-1,-1,-1,-1,-1,-1,-1,-1,-1,-1,-1,-1,-1,-1,-1],"loss_changes":[6.320681E1,1.4643635E1,2.4299965E0,3.1297035E0,4.3600254E0,9.9402434E-1,1.6398811E-1,1.4342728E0,4.4517857E-1,2.741005E0,1.1508679E0,8.9547545E-1,1.0247917E0,5.825725E-1,5.586624E-2,0E0,0E0,0E0,0E0,0E0,0E0,0E0,0E0,0E0,0E0,0E0,0E0,0E0,0E0,0E0,0E0],"parents":[2147483647,0,0,1,1,2,2,3,3,4,4,5,5,6,6,7,7,8,8,9,9,10,10,11,11,12,12,13,13,14,14],"right_children":[2,4,6,8,10,12,14,16,18,20,22,24,26,28,30,-1,-1,-1,-1,-1,-1,-1,-1,-1,-1,-1,-1,-1,-1,-1,-1],"split_conditions":[5.5E-1,-1.75E0,2.93E0,5.2E0,1.3095834E1,9.715E1,4.26E0,2.0720833E1,1.9970833E1,2E-1,1.5788571E1,4.56E0,7.1375E0,1.0520417E2,4.125E0,-9.08274E-2,-3.6714144E-2,7.0972326E-3,-2.2063786E-2,-5.2451182E-2,-1.9481607E-2,-4.529588E-2,2.1924153E-3,-9.761981E-3,2.0568278E-2,-3.979037E-2,-1.599211E-2,3.2641243E-2,-5.4740407E-2,1.3127325E-1,1.6497126E-1],"split_indices":[14,14,14,1,6,27,14,6,3,29,35,1,6,27,6,0,0,0,0,0,0,0,0,0,0,0,0,0,0,0,0],"split_type":[0,0,0,0,0,0,0,0,0,0,0,0,0,0,0,0,0,0,0,0,0,0,0,0,0,0,0,0,0,0,0],"sum_hessian":[3.231E3,3.99E2,2.832E3,9.2E1,3.07E2,2.91E2,2.541E3,8.5E1,7E0,2.14E2,9.3E1,2.44E2,4.7E1,1.87E2,2.354E3,8.1E1,4E0,6E0,1E0,1.42E2,7.2E1,3.3E1,6E1,1.3E2,1.14E2,6E0,4.1E1,1.66E2,2.1E1,1.7E1,2.337E3],"tree_param":{"num_deleted":"0","num_feature":"36","num_nodes":"31","size_leaf_vector":"1"}},{"base_weights":[3.9485116E-2,-3.1301937E-1,8.390363E-2,-6.0090905E-1,-1.8611111E-1,-1.00890165E-2,9.640032E-2,-6.71875E-1,-1.0666666E-1,-2.4914284E-1,-4.2307686E-2,1.8947372E-2,-1.6603772E-1,6.403162E-2,4.9978034E-3,-3.8550723E-2,-2.0178571E-2,4.5000003E-3,-2.0833334E-2,-1.6096491E-2,-5.564516E-3,-1.4615384E-2,3.7878807E-4,1.527273E-3,-1.3636363E-2,-2.0312501E-2,-3.0263157E-3,-2.125E-2,3.5800003E-3],"categories":[],"categories_nodes":[],"categories_segments":[],"categories_sizes":[],"default_left":[0,0,0,0,0,0,0,0,0,0,0,0,0,0,0,0,0,0,0,0,0,0,0,0,0,0,0,0,0],"id":13,"left_children":[1,3,5,7,9,11,13,15,17,19,21,23,25,27,-1,-1,-1,-1,-1,-1,-1,-1,-1,-1,-1,-1,-1,-1,-1],"loss_changes":[5.050678E1,1.3077511E1,3.365015E0,3.7865143E0,2.273632E0,1.5291451E0,2.8455734E-1,2.2423859E0,9.5199996E-1,1.7200985E0,9.749417E-1,9.724478E-1,1.3187033E0,9.668275E-1,0E0,0E0,0E0,0E0,0E0,0E0,0E0,0E0,0E0,0E0,0E0,0E0,0E0,0E0,0E0],"parents":[2147483647,0,0,1,1,2,2,3,3,4,4,5,5,6,6,7,7,8,8,9,9,10,10,11,11,12,12,13,13],"right_children":[2,4,6,8,10,12,14,16,18,20,22,24,26,28,-1,-1,-1,-1,-1,-1,-1,-1,-1,-1,-1,-1,-1,-1,-1],"split_conditions":[3.5E-1,-1.48E0,3.11E0,5.7E0,1.2525E1,9.715E1,4.81E0,1.4166667E1,1.568E1,2E-1,1.03E0,3.986099E-1,8.325E0,1.514E1,1.8102284E-1,-8.963602E-2,-8.008604E-2,9.366867E-3,-9.205445E-2,-5.0294187E-2,-1.6664026E-2,-4.6507683E-2,-3.2609035E-4,4.477789E-3,-2.4537055E-2,-3.51823E-2,-1.8688807E-2,-8.023955E-2,2.9394198E-2],"split_indices":[14,14,14,29,6,27,14,6,22,29,15,28,6,0,0,0,0,0,0,0,0,0,0,0,0,0,0,0,0],"split_type":[0,0,0,0,0,0,0,0,0,0,0,0,0,0,0,0,0,0,0,0,0,0,0,0,0,0,0,0,0],"sum_hessian":[3.223E3,3.6E2,2.863E3,1.09E2,2.51E2,3.36E2,2.527E3,9.5E1,1.4E1,1.74E2,7.7E1,2.84E2,5.2E1,2.52E2,2.275E3,6.8E1,2.7E1,9E0,5E0,1.13E2,6.1E1,1.2E1,6.5E1,2.74E2,1E1,1.5E1,3.7E1,3E0,2.49E2],"tree_param":{"num_deleted":"0","num_feature":"36","num_nodes":"29","size_leaf_vector":"1"}},{"base_weights":[4.3171946E-2,-3.6830187E-1,8.0020286E-2,-6.9589037E-1,-2.4248704E-1,-6.712963E-2,9.1578566E-2,-8.0925924E-1,-3.55E-1,-5.576923E-1,-1.9226189E-1,-5.5399057E-2,-3.3749998E-2,4.0498447E-2,9.8307885E-2,-4.215686E-2,-8.75E-3,-2.875E-2,-1.111111E-3,-3.2173913E-2,3.7500001E-3,-2.9605262E-3,-1.4946236E-2,-2.369668E-3,-3E-2,-2.125E-2,2.311321E-3,3.1896555E-3,4.9556214E-3],"categories":[],"categories_nodes":[],"categories_segments":[],"categories_sizes":[],"default_left":[0,0,0,0,0,0,0,0,0,0,0,0,0,0,0,0,0,0,0,0,0,0,0,0,0,0,0,0,0],"id":14,"left_children":[1,3,5,7,9,11,13,15,17,19,21,23,-1,25,27,-1,-1,-1,-1,-1,-1,-1,-1,-1,-1,-1,-1,-1,-1],"loss_changes":[4.8881847E1,1.0753361E1,5.0371113E0,2.5338974E0,2.948205E0,1.5028292E0,9.388828E-1,1.0127716E0,1.4514444E0,1.4594393E0,2.3664951E0,9.002247E-1,0E0,8.755485E-1,6.0958862E-2,0E0,0E0,0E0,0E0,0E0,0E0,0E0,0E0,0E0,0E0,0E0,0E0,0E0,0E0],"parents":[2147483647,0,0,1,1,2,2,3,3,4,4,5,5,6,6,7,7,8,8,9,9,10,10,11,11,13,13,14,14],"right_children":[2,4,6,8,10,12,14,16,18,20,22,24,-1,26,28,-1,-1,-1,-1,-1,-1,-1,-1,-1,-1,-1,-1,-1,-1],"split_conditions":[-1.8E-1,-1.93E0,1.41E0,1.581E1,2.7916667E-1,8.27E0,3.84E0,5.7E0,9.854167E0,1.6979166E1,1.577E1,1.644E1,-4.758702E-2,-8.845834E0,2.1043305E-1,-8.4705725E-2,-4.095924E-2,-1.2129972E-1,-3.663543E-2,-5.7512153E-2,2.0044995E-2,-2.5997166E-2,-4.6358995E-2,-1.1027946E-2,-7.6682866E-3,-1.8613802E-2,1.5343784E-2,9.947024E-2,1.3675354E-1],"split_indices":[14,14,14,0,7,21,14,29,7,6,19,0,0,3,28,0,0,0,0,0,0,0,0,0,0,0,0,0,0],"split_type":[0,0,0,0,0,0,0,0,0,0,0,0,0,0,0,0,0,0,0,0,0,0,0,0,0,0,0,0,0],"sum_hessian":[3.221E3,2.64E2,2.957E3,7.2E1,1.92E2,2.15E2,2.742E3,5.3E1,1.9E1,2.5E1,1.67E2,2.12E2,3E0,3.2E2,2.422E3,5E1,3E0,1.1E1,8E0,2.2E1,3E0,7.5E1,9.2E1,2.1E2,2E0,3E0,3.17E2,5.7E1,2.365E3],"tree_param":{"num_deleted":"0","num_feature":"36","num_nodes":"29","size_leaf_vector":"1"}},{"base_weights":[4.355239E-2,-1.8698113E-1,8.883946E-2,-5.905405E-1,-1.2122538E-1,2.2222225E-2,9.70429E-2,-7.0166665E-1,-1.0666666E-1,-1.7408758E-1,-4.184782E-2,-1.5277778E-1,4.618321E-2,7.5684935E-2,4.9976306E-3,-3.9787233E-2,-1.6785715E-2,4.545455E-3,-2.5999999E-2,-1.0837209E-2,-9.1666647E-4,-7.010869E-3,2.795699E-3,-3.3125E-2,-3.448274E-4,2.6550388E-3,-1.6E-2,-3E-2,4.12069E-3],"categories":[],"categories_nodes":[],"categories_segments":[],"categories_sizes":[],"default_left":[0,0,0,0,0,0,0,0,0,0,0,0,0,0,0,0,0,0,0,0,0,0,0,0,0,0,0,0,0],"id":15,"left_children":[1,3,5,7,9,11,13,15,17,19,21,23,25,27,-1,-1,-1,-1,-1,-1,-1,-1,-1,-1,-1,-1,-1,-1,-1],"loss_changes":[3.3696655E1,1.3992678E1,1.4717293E0,3.9042091E0,1.9103198E0,1.2524278E0,1.4164734E-1,1.798542E0,1.2722424E0,1.8164673E0,1.7773287E0,2.6723514E0,6.806639E-1,1.3770527E0,0E0,0E0,0E0,0E0,0E0,0E0,0E0,0E0,0E0,0E0,0E0,0E0,0E0,0E0,0E0],"parents":[2147483647,0,0,1,1,2,2,3,3,4,4,5,5,6,6,7,7,8,8,9,9,10,10,11,11,12,12,13,13],"right_children":[2,4,6,8,10,12,14,16,18,20,22,24,26,28,-1,-1,-1,-1,-1,-1,-1,-1,-1,-1,-1,-1,-1,-1,-1],"split_conditions":[1.74E0,-1.93E0,3.96E0,5.7E0,1.586E1,2.51E0,5.63E0,1.592E1,1.578E1,5.17E0,2.98E0,1.96E1,3.9908084E-1,1.514E1,1.9438887E-1,-8.221894E-2,-5.2136876E-2,1.1820224E-2,-5.0337214E-2,-3.327666E-2,-3.942078E-3,-3.8677864E-2,6.1236904E-3,-8.209477E-2,-1.666303E-3,1.9987464E-2,-1.7683111E-2,-8.306525E-2,4.6933867E-2],"split_indices":[17,17,17,29,0,1,17,0,16,1,1,8,28,0,0,0,0,0,0,0,0,0,0,0,0,0,0,0,0],"split_type":[0,0,0,0,0,0,0,0,0,0,0,0,0,0,0,0,0,0,0,0,0,0,0,0,0,0,0,0,0],"sum_hessian":[3.225E3,5.29E2,2.696E3,7.3E1,4.56E2,2.96E2,2.4E3,5.9E1,1.4E1,2.73E2,1.83E2,3.5E1,2.61E2,2.91E2,2.109E3,4.6E1,1.3E1,1E1,4E0,2.14E2,5.9E1,9.1E1,9.2E1,7E0,2.8E1,2.57E2,4E0,2E0,2.89E2],"tree_param":{"num_deleted":"0","num_feature":"36","num_nodes":"29","size_leaf_vector":"1"}},{"base_weights":[3.8521525E-2,-1.1145218E-1,9.233051E-2,-1.8903106E-1,2.9900335E-2,4.6376813E-2,9.6703805E-2,-1.4809321E-1,-4.4078946E-1,4.6453904E-2,-2.05E-1,8.645161E-2,-7.169811E-2,3.1111114E-2,9.8056875E-2,-4.0948257E-4,-1.4107883E-2,-1.1770832E-2,-3.8275864E-2,-1.4375E-2,2.8000001E-3,4.5833336E-3,-2.8888887E-2,4.6381583E-3,-8.75E-3,-1.2244896E-3,-2.5999999E-2,3.6585368E-3,-1.6E-2,4.1666682E-4,4.926156E-3],"categories":[],"categories_nodes":[],"categories_segments":[],"categories_sizes":[],"default_left":[0,0,0,0,0,0,0,0,0,0,0,0,0,0,0,0,0,0,0,0,0,0,0,0,0,0,0,0,0,0,0],"id":16,"left_children":[1,3,5,7,9,11,13,15,17,19,21,23,25,27,29,-1,-1,-1,-1,-1,-1,-1,-1,-1,-1,-1,-1,-1,-1,-1,-1],"loss_changes":[2.5882496E1,9.293829E0,4.6980286E-1,5.5723495E0,1.1799431E0,9.856869E-1,1.8811989E-1,8.850564E0,4.8882437E0,9.151038E-1,2.2647777E0,2.720089E-1,1.1089349E0,6.8795663E-1,8.7444305E-2,0E0,0E0,0E0,0E0,0E0,0E0,0E0,0E0,0E0,0E0,0E0,0E0,0E0,0E0,0E0,0E0],"parents":[2147483647,0,0,1,1,2,2,3,3,4,4,5,5,6,6,7,7,8,8,9,9,10,10,11,11,12,12,13,13,14,14],"right_children":[2,4,6,8,10,12,14,16,18,20,22,24,26,28,30,-1,-1,-1,-1,-1,-1,-1,-1,-1,-1,-1,-1,-1,-1,-1,-1],"split_conditions":[5.17E0,3.255106E-1,5.77E0,1.00458336E2,3.986099E-1,9.18E1,2.1136388E-1,2.6310006E-1,4.9E0,1.5279285E1,6.4166665E-1,8.088572E0,7.5958336E1,1.25E1,-1.0254167E1,-1.4889736E-3,-5.482892E-2,-3.7905794E-2,-5.800995E-2,-6.5957494E-2,1.5483257E-2,4.996861E-2,-2.6126578E-2,3.0749237E-2,-2.855778E-4,-2.3058366E-3,-1.5940858E-2,9.965854E-4,-1.0313367E-1,-5.1974333E-3,1.3652323E-1],"split_indices":[1,10,1,27,28,27,10,28,1,35,25,32,5,23,3,0,0,0,0,0,0,0,0,0,0,0,0,0,0,0,0],"split_type":[0,0,0,0,0,0,0,0,0,0,0,0,0,0,0,0,0,0,0,0,0,0,0,0,0,0,0,0,0,0,0],"sum_hessian":[3.205E3,8.46E2,2.359E3,5.46E2,3E2,2.06E2,2.153E3,4.71E2,7.5E1,2.81E2,1.9E1,1.54E2,5.2E1,4.4E1,2.109E3,2.31E2,2.4E2,4.7E1,2.8E1,7E0,2.74E2,1.1E1,8E0,1.51E2,3E0,4.8E1,4E0,4E1,4E0,1.1E1,2.098E3],"tree_param":{"num_deleted":"0","num_feature":"36","num_nodes":"31","size_leaf_vector":"1"}},{"base_weights":[4.164315E-2,-4.373684E-1,7.196667E-2,-6.705128E-1,-2.7256635E-1,-4.5294113E-2,9.59454E-2,-4.3875E-2,-4.410256E-1,-2.0215052E-1,-5.7142854E-1,-4.023668E-2,-3.3749998E-2,7.589499E-2,4.997588E-3,-2.6029412E-2,4.166667E-3,-1.2345678E-2,4.6153846E-3,-3.647059E-2,4E-3,1.747312E-3,-4.1770185E-3,4.140436E-3,-1.7142856E-2],"categories":[],"categories_nodes":[],"categories_segments":[],"categories_sizes":[],"default_left":[0,0,0,0,0,0,0,0,0,0,0,0,0,0,0,0,0,0,0,0,0,0,0,0,0],"id":17,"left_children":[1,3,5,7,9,11,13,-1,15,17,19,21,-1,23,-1,-1,-1,-1,-1,-1,-1,-1,-1,-1,-1],"loss_changes":[4.6352707E1,7.117546E0,8.439641E0,3.3180695E0,2.2625284E0,1.5970343E0,1.9251442E-1,0E0,1.6704369E0,1.2486105E0,2.219563E0,1.6535583E0,0E0,1.2414546E0,0E0,0E0,0E0,0E0,0E0,0E0,0E0,0E0,0E0,0E0,0E0],"parents":[2147483647,0,0,1,1,2,2,3,3,4,4,5,5,6,6,8,8,9,9,10,10,11,11,13,13],"right_children":[2,4,6,8,10,12,14,-1,16,18,20,22,-1,24,-1,-1,-1,-1,-1,-1,-1,-1,-1,-1,-1],"split_conditions":[-8.1E-1,-1.93E0,3.11E0,1.557E1,-1.7E-1,1.037E1,5.77E0,-8.188356E-2,5.07E0,1.604E1,3.3804165E1,1.572E1,-4.164854E-2,1.118E1,1.9153826E-1,-6.879368E-2,1.8393463E-2,-3.718067E-2,1.1340247E-3,-6.862902E-2,2.483881E-2,3.0311448E-3,-1.6112003E-2,3.7387066E-2,-9.7976975E-2],"split_indices":[14,14,14,0,20,21,14,0,1,0,7,19,0,18,0,0,0,0,0,0,0,0,0,0,0],"split_type":[0,0,0,0,0,0,0,0,0,0,0,0,0,0,0,0,0,0,0,0,0,0,0,0,0],"sum_hessian":[3.188E3,1.89E2,2.999E3,7.7E1,1.12E2,5.09E2,2.49E3,3.9E1,3.8E1,9.2E1,2E1,5.06E2,3E0,4.18E2,2.072E3,3.3E1,5E0,8E1,1.2E1,1.6E1,4E0,1.85E2,3.21E2,4.12E2,6E0],"tree_param":{"num_deleted":"0","num_feature":"36","num_nodes":"25","size_leaf_vector":"1"}},{"base_weights":[4.676771E-2,-6.3108104E-1,6.2626585E-2,-6.728571E-1,4E-3,-1.0195227E-1,9.07037E-2,-6.9558823E-1,3.3333336E-3,-8.869179E-2,-6.363636E-1,-1.125E-1,9.24916E-2,-3.701613E-2,-1E-2,-5.865633E-3,4.1538463E-3,3.3333336E-3,-4E-2,1.764706E-3,-2.0625E-2,3.4656492E-3,4.9975286E-3],"categories":[],"categories_nodes":[],"categories_segments":[],"categories_sizes":[],"default_left":[0,0,0,0,0,0,0,0,0,0,0,0,0,0,0,0,0,0,0,0,0,0,0],"id":18,"left_children":[1,3,5,7,-1,9,11,13,-1,15,17,19,21,-1,-1,-1,-1,-1,-1,-1,-1,-1,-1],"loss_changes":[3.479401E1,2.2520847E0,1.4611291E1,1.2230835E0,0E0,3.2104597E0,9.913311E-1,1.3594818E0,0E0,2.2269382E0,1.318788E0,1.0786765E0,4.5589447E-1,0E0,0E0,0E0,0E0,0E0,0E0,0E0,0E0,0E0,0E0],"parents":[2147483647,0,0,1,1,2,2,3,3,5,5,6,6,7,7,9,9,10,10,11,11,12,12],"right_children":[2,4,6,8,-1,10,12,14,-1,16,18,20,22,-1,-1,-1,-1,-1,-1,-1,-1,-1,-1],"split_conditions":[-1.93E0,5.2E0,1.74E0,2.17E1,1.7473787E-2,8.84E1,1.97E0,1.6E1,5.2373227E-2,5.41E0,1.0741667E1,1.608E1,6.32E0,-7.526177E-2,-3.4567006E-2,-2.3538953E-2,3.1408914E-3,2.6873592E-2,-7.259141E-2,6.7098875E-4,-7.157958E-2,2.7288541E-2,1.9781135E-1],"split_indices":[17,1,17,29,0,26,1,0,0,1,3,31,17,0,0,0,0,0,0,0,0,0,0],"split_type":[0,0,0,0,0,0,0,0,0,0,0,0,0,0,0,0,0,0,0,0,0,0,0],"sum_hessian":[3.232E3,7.3E1,3.159E3,6.9E1,4E0,4.6E2,2.699E3,6.7E1,2E0,4.5E2,1E1,2.3E1,2.676E3,6.1E1,6E0,3.86E2,6.4E1,2E0,8E0,1.6E1,7E0,6.54E2,2.022E3],"tree_param":{"num_deleted":"0","num_feature":"36","num_nodes":"23","size_leaf_vector":"1"}},{"base_weights":[4.658133E-2,-5.563218E-1,6.339429E-2,-7.0181817E-1,-2.9696968E-1,-9.64539E-2,8.846011E-2,-8.0930233E-1,-2.9230767E-1,4.6153846E-3,-5.238095E-1,-2.340909E-1,-3.3904105E-2,-3E-2,8.919421E-2,-4.154762E-2,2.5000002E-3,-2.9166667E-2,-1.8749997E-3,-4.1666664E-3,-3.2812502E-2,-3.8970585E-3,-1.9692307E-2,-1.0416667E-2,-4.6692588E-4,1.6608393E-3,4.790283E-3],"categories":[],"categories_nodes":[],"categories_segments":[],"categories_sizes":[],"default_left":[0,0,0,0,0,0,0,0,0,0,0,0,0,0,0,0,0,0,0,0,0,0,0,0,0,0,0],"id":19,"left_children":[1,3,5,7,9,11,13,15,17,-1,19,21,23,-1,25,-1,-1,-1,-1,-1,-1,-1,-1,-1,-1,-1,-1],"loss_changes":[3.2502754E1,3.0745087E0,1.2497498E1,2.184307E0,2.9623706E0,3.6337402E0,1.4155579E0,8.415146E-1,9.421474E-1,0E0,1.1703868E0,3.2621408E0,1.2492617E0,0E0,9.9347305E-1,0E0,0E0,0E0,0E0,0E0,0E0,0E0,0E0,0E0,0E0,0E0,0E0],"parents":[2147483647,0,0,1,1,2,2,3,3,4,4,5,5,6,6,7,7,8,8,10,10,11,11,12,12,14,14],"right_children":[2,4,6,8,10,12,14,16,18,-1,20,22,24,-1,26,-1,-1,-1,-1,-1,-1,-1,-1,-1,-1,-1,-1],"split_conditions":[-1.73E0,1.575E1,1.74E0,3.9E0,1.57E1,1.567E1,1.9102709E-1,-1.46E0,2.5730294E-1,1.4278782E-2,8.4E-1,3.82E0,1.16E0,-1.5103367E-2,3.96E0,-7.199289E-2,5.576038E-2,-7.645391E-2,-4.1127693E-2,-5.2194237E-3,-9.5840454E-2,-3.0294245E-2,-4.1804872E-2,-4.0072836E-2,-4.7593424E-3,5.993012E-3,1.075713E-1],"split_indices":[17,0,17,29,22,24,10,20,10,0,12,21,12,0,17,0,0,0,0,0,0,0,0,0,0,0,0],"split_type":[0,0,0,0,0,0,0,0,0,0,0,0,0,0,0,0,0,0,0,0,0,0,0,0,0,0,0],"sum_hessian":[3.202E3,8.6E1,3.116E3,5.4E1,3.2E1,4.22E2,2.694E3,4.2E1,1.2E1,1.2E1,2E1,1.31E2,2.91E2,2E0,2.692E3,4.1E1,1E0,5E0,7E0,5E0,1.5E1,6.7E1,6.4E1,3.5E1,2.56E2,2.85E2,2.407E3],"tree_param":{"num_deleted":"0","num_feature":"36","num_nodes":"27","size_leaf_vector":"1"}},{"base_weights":[4.8351992E-2,-5.191011E-1,6.44821E-2,-6.3593745E-1,-2.1153845E-1,-8.4562205E-2,8.846011E-2,-2.4166666E-1,-7.1320754E-1,4.6875E-3,-6.363636E-1,-1.8759689E-1,-4.0849667E-2,-3E-2,8.919421E-2,-3.3749998E-2,-1.111111E-3,-3.72549E-2,3.3333336E-3,3.3333336E-3,-4E-2,-2.75641E-3,-1.9134616E-2,-2.4285713E-2,-1.5166665E-3,2.836207E-3,4.9030273E-3],"categories":[],"categories_nodes":[],"categories_segments":[],"categories_sizes":[],"default_left":[0,0,0,0,0,0,0,0,0,0,0,0,0,0,0,0,0,0,0,0,0,0,0,0,0,0,0],"id":20,"left_children":[1,3,5,7,9,11,13,15,17,-1,19,21,23,-1,25,-1,-1,-1,-1,-1,-1,-1,-1,-1,-1,-1,-1],"loss_changes":[2.9469776E1,3.0636444E0,1.1186285E1,1.777422E0,3.4317086E0,1.9470329E0,1.4155579E0,1.126111E0,1.3678131E0,0E0,1.318788E0,3.3127832E0,1.4168409E0,0E0,7.697277E-1,0E0,0E0,0E0,0E0,0E0,0E0,0E0,0E0,0E0,0E0,0E0,0E0],"parents":[2147483647,0,0,1,1,2,2,3,3,4,4,5,5,6,6,7,7,8,8,10,10,11,11,12,12,14,14],"right_children":[2,4,6,8,10,12,14,16,18,-1,20,22,24,-1,26,-1,-1,-1,-1,-1,-1,-1,-1,-1,-1,-1,-1],"split_conditions":[-1.73E0,1.2566667E1,1.74E0,8.4E-1,1.57E1,1.567E1,1.9102709E-1,8.4E-1,5.14E0,3.7967246E-2,2.7420834E1,1.567E1,3.2E-1,-1.4348197E-2,5.63E0,-6.575965E-2,-4.958451E-3,-7.07061E-2,2.8084114E-2,2.3183739E-2,-7.263121E-2,-1.7276183E-2,-4.031064E-2,-3.471041E-2,-6.807875E-3,1.9917108E-2,1.5357663E-1],"split_indices":[17,7,17,12,22,24,10,23,12,0,8,16,23,0,17,0,0,0,0,0,0,0,0,0,0,0,0],"split_type":[0,0,0,0,0,0,0,0,0,0,0,0,0,0,0,0,0,0,0,0,0,0,0,0,0,0,0],"sum_hessian":[3.215E3,8.8E1,3.127E3,6.3E1,2.5E1,4.33E2,2.694E3,1.1E1,5.2E1,1.5E1,1E1,1.28E2,3.05E2,2E0,2.692E3,3E0,8E0,5E1,2E0,2E0,8E0,7.7E1,5.1E1,6E0,2.99E2,5.79E2,2.113E3],"tree_param":{"num_deleted":"0","num_feature":"36","num_nodes":"27","size_leaf_vector":"1"}},{"base_weights":[4.6285894E-2,-5.4320985E-1,6.15557E-2,-4.4843748E-1,-4.25E-2,-7.597656E-2,8.8480674E-2,-6.0681814E-1,-9.523809E-2,-1.0317848E-1,3.173077E-2,2.0689659E-2,9.41518E-2,-3.6060605E-2,-1.2083333E-2,4.545455E-3,-1.3636363E-2,-1.8703701E-3,-1.1464286E-2,-1.7142856E-2,2.9081635E-3,1.4925374E-3,-3E-2,3.559524E-3,4.9472894E-3],"categories":[],"categories_nodes":[],"categories_segments":[],"categories_sizes":[],"default_left":[0,0,0,0,0,0,0,0,0,0,0,0,0,0,0,0,0,0,0,0,0,0,0,0,0],"id":21,"left_children":[1,3,5,7,-1,9,11,13,15,17,19,21,23,-1,-1,-1,-1,-1,-1,-1,-1,-1,-1,-1,-1],"loss_changes":[2.8874197E1,1.9739208E0,1.1575058E1,3.5223637E0,0E0,1.5033553E0,1.0026245E0,1.6636372E0,7.186147E-1,3.3837538E0,1.0496762E0,1.172208E0,2.5835037E-1,0E0,0E0,0E0,0E0,0E0,0E0,0E0,0E0,0E0,0E0,0E0,0E0],"parents":[2147483647,0,0,1,1,2,2,3,3,5,5,6,6,7,7,8,8,9,9,10,10,11,11,12,12],"right_children":[2,4,6,8,-1,10,12,14,16,18,20,22,24,-1,-1,-1,-1,-1,-1,-1,-1,-1,-1,-1,-1],"split_conditions":[-1.93E0,1.152E2,2.21E0,3.17875E1,-3.7339896E-2,5.17E0,3.84E0,4.46E1,1.54E1,4.08E0,1.8333334E-1,1.1E1,6.32E0,-5.859631E-2,-7.372577E-2,3.516991E-2,-6.352463E-2,-1.3695083E-2,-3.5202514E-2,-5.128735E-3,5.995621E-3,8.893148E-3,-3.2126267E-2,3.514402E-2,1.7137891E-1],"split_indices":[17,27,17,8,0,1,17,27,19,18,25,21,17,0,0,0,0,0,0,0,0,0,0,0,0],"split_type":[0,0,0,0,0,0,0,0,0,0,0,0,0,0,0,0,0,0,0,0,0,0,0,0,0],"sum_hessian":[3.203E3,8E1,3.123E3,6.3E1,1.7E1,5.11E2,2.612E3,4.3E1,2E1,4.08E2,1.03E2,2.02E2,2.41E3,3.2E1,1.1E1,1E1,1E1,2.69E2,1.39E2,6E0,9.7E1,2E2,2E0,4.19E2,1.991E3],"tree_param":{"num_deleted":"0","num_feature":"36","num_nodes":"25","size_leaf_vector":"1"}},{"base_weights":[4.9121156E-2,-3.218274E-1,7.354515E-2,-5.442857E-1,-1.9765624E-1,-2.5979377E-2,9.2777334E-2,-3.2083333E-1,-6.468085E-1,-3.1060606E-1,-7.619047E-2,-2.0539414E-2,-3.3749998E-2,6.306696E-2,4.973092E-3,-3.6363635E-2,1.0714288E-3,3.3333336E-3,-3.4E-2,-7.317073E-3,-2.7884616E-2,2.5581399E-3,-1.6666666E-2,-4.338393E-4,-1.340909E-2,3.4437086E-3,-9.090909E-3],"categories":[],"categories_nodes":[],"categories_segments":[],"categories_sizes":[],"default_left":[0,0,0,0,0,0,0,0,0,0,0,0,0,0,0,0,0,0,0,0,0,0,0,0,0,0,0],"id":22,"left_children":[1,3,5,7,9,11,13,15,17,19,21,23,-1,25,-1,-1,-1,-1,-1,-1,-1,-1,-1,-1,-1,-1,-1],"loss_changes":[2.8888973E1,5.3341312E0,5.7254906E0,1.3961105E0,1.7324352E0,1.6984999E0,4.9141693E-1,3.3541937E0,1.1583557E0,2.5971632E0,2.080177E0,1.4136397E0,0E0,6.709553E-1,0E0,0E0,0E0,0E0,0E0,0E0,0E0,0E0,0E0,0E0,0E0,0E0,0E0],"parents":[2147483647,0,0,1,1,2,2,3,3,4,4,5,5,6,6,7,7,8,8,9,9,10,10,11,11,13,13],"right_children":[2,4,6,8,10,12,14,16,18,20,22,24,-1,26,-1,-1,-1,-1,-1,-1,-1,-1,-1,-1,-1,-1,-1],"split_conditions":[-6.8E-1,-1.93E0,3.11E0,1.538E1,5.62E1,8.17E0,6.01E0,1.27E0,6E-1,4.85E1,3.9408333E1,1.244125E2,-3.1606037E-2,1.092E1,1.6549444E-1,-4.814452E-2,-6.123332E-2,5.6356015E-3,-6.1740715E-2,-2.011867E-2,-3.734016E-2,1.5170062E-3,-4.6579506E-2,-3.5738833E-3,-2.585279E-2,3.14848E-2,-1.0076485E-1],"split_indices":[14,14,14,22,9,18,14,1,1,27,26,27,0,18,0,0,0,0,0,0,0,0,0,0,0,0,0],"split_type":[0,0,0,0,0,0,0,0,0,0,0,0,0,0,0,0,0,0,0,0,0,0,0,0,0,0,0],"sum_hessian":[3.185E3,1.96E2,2.989E3,6.9E1,1.27E2,4.84E2,2.505E3,2.3E1,4.6E1,6.5E1,6.2E1,4.81E2,3E0,4.62E2,2.043E3,1E1,1.3E1,2E0,4.4E1,4E1,2.5E1,4.2E1,2E1,4.6E2,2.1E1,4.52E2,1E1],"tree_param":{"num_deleted":"0","num_feature":"36","num_nodes":"27","size_leaf_vector":"1"}},{"base_weights":[5.098583E-2,-1.734536E-1,8.1427075E-2,-4.360465E-1,-9.834983E-2,6.7441897E-3,9.460905E-2,-5.338235E-1,-6.3157886E-2,1.9801984E-2,-1.5665025E-1,-1.20547935E-1,3.2681566E-2,7.2992705E-2,9.89604E-2,-3.235294E-2,-9.166666E-3,1.764706E-3,-3E-2,3.561644E-3,-5.517241E-3,-3.0892855E-2,-4.119318E-3,-2.222222E-3,-2.7272725E-2,-1.2E-2,2.2238374E-3,3.884804E-3,-2.125E-2,4.1393447E-3,4.997367E-3],"categories":[],"categories_nodes":[],"categories_segments":[],"categories_sizes":[],"default_left":[0,0,0,0,0,0,0,0,0,0,0,0,0,0,0,0,0,0,0,0,0,0,0,0,0,0,0,0,0,0,0],"id":23,"left_children":[1,3,5,7,9,11,13,15,17,19,21,23,25,27,29,-1,-1,-1,-1,-1,-1,-1,-1,-1,-1,-1,-1,-1,-1,-1,-1],"loss_changes":[2.2191494E1,7.6091413E0,2.8139553E0,3.101839E0,2.0902567E0,1.4236381E0,2.21344E-1,2.5801487E0,1.0253869E0,6.839104E-1,6.9020524E0,2.3363495E0,1.1621197E0,9.956846E-1,2.396965E-2,0E0,0E0,0E0,0E0,0E0,0E0,0E0,0E0,0E0,0E0,0E0,0E0,0E0,0E0,0E0,0E0],"parents":[2147483647,0,0,1,1,2,2,3,3,4,4,5,5,6,6,7,7,8,8,9,9,10,10,11,11,12,12,13,13,14,14],"right_children":[2,4,6,8,10,12,14,16,18,20,22,24,26,28,30,-1,-1,-1,-1,-1,-1,-1,-1,-1,-1,-1,-1,-1,-1,-1,-1],"split_conditions":[6.5E-1,-1.73E0,4.04E0,1.592E1,5.1441666E1,2.85E0,6.39E0,3.9E0,8.4625E1,4.67E0,5.47E1,1.609E1,2.2083333E-1,1.232E1,-6.875E-1,-6.0610652E-2,-5.9829623E-2,-1.2239409E-2,-1.07506635E-2,4.1204677E-3,-2.159051E-2,-5.4491814E-2,-2.0219652E-2,-2.3786388E-2,-7.862284E-2,-3.4168568E-2,7.291861E-3,3.0097654E-2,-9.753594E-2,7.686188E-2,1.595665E-1],"split_indices":[20,17,20,0,27,1,20,29,5,21,9,31,7,21,3,0,0,0,0,0,0,0,0,0,0,0,0,0,0,0,0],"split_type":[0,0,0,0,0,0,0,0,0,0,0,0,0,0,0,0,0,0,0,0,0,0,0,0,0,0,0,0,0,0,0],"sum_hessian":[3.245E3,3.87E2,2.858E3,8.5E1,3.02E2,4.29E2,2.429E3,6.7E1,1.8E1,1E2,2.02E2,7.2E1,3.57E2,4.1E2,2.019E3,5E1,1.7E1,1.6E1,2E0,7.2E1,2.8E1,2.7E1,1.75E2,6.2E1,1E1,1.4E1,3.43E2,4.07E2,3E0,1.21E2,1.898E3],"tree_param":{"num_deleted":"0","num_feature":"36","num_nodes":"31","size_leaf_vector":"1"}},{"base_weights":[5.3963322E-2,-2.8882977E-1,7.521452E-2,-4.4946235E-1,-1.3020833E-1,3.7537573E-3,9.530655E-2,-7.2272724E-1,-3.597222E-1,-6.575342E-2,-3.2083333E-1,8.801217E-3,-4.125E-1,6.536586E-2,9.810273E-2,-4.025E-2,3.3333336E-3,-6.375E-3,-3.151515E-2,-1.8181818E-2,-6.349205E-4,-2.8666666E-2,4.5000003E-3,3.2314414E-3,-1.0440833E-3,-3.6E-2,3.7500001E-3,3.737624E-3,-2.125E-2,4.5514223E-3,4.9970676E-3],"categories":[],"categories_nodes":[],"categories_segments":[],"categories_sizes":[],"default_left":[0,0,0,0,0,0,0,0,0,0,0,0,0,0,0,0,0,0,0,0,0,0,0,0,0,0,0,0,0,0,0],"id":24,"left_children":[1,3,5,7,9,11,13,15,17,19,21,23,25,27,29,-1,-1,-1,-1,-1,-1,-1,-1,-1,-1,-1,-1,-1,-1,-1,-1],"loss_changes":[2.345681E1,4.7316723E0,4.350092E0,2.0206413E0,1.1584289E0,1.4029126E0,1.9158363E-1,1.4824705E0,4.4437475E0,1.1490878E0,2.5412498E0,1.0933945E0,1.2532499E0,9.7536E-1,1.9010544E-2,0E0,0E0,0E0,0E0,0E0,0E0,0E0,0E0,0E0,0E0,0E0,0E0,0E0,0E0,0E0,0E0],"parents":[2147483647,0,0,1,1,2,2,3,3,4,4,5,5,6,6,7,7,8,8,9,9,10,10,11,11,12,12,13,13,14,14],"right_children":[2,4,6,8,10,12,14,16,18,20,22,24,26,28,30,-1,-1,-1,-1,-1,-1,-1,-1,-1,-1,-1,-1,-1,-1,-1,-1],"split_conditions":[-8.1E-1,1.572E1,4.26E0,1.27E0,3.1297264E-1,1.037E1,5.46E0,3E0,4.58E0,2.0354201E-1,1.5915E1,1.568E1,6.02E0,1.079E1,8.59E0,-5.0356746E-2,4.6657445E-3,-5.3974327E-2,-3.869763E-2,-2.087218E-2,-5.7966686E-3,-7.058177E-2,8.328347E-3,1.0075617E-2,-4.310574E-3,-3.153062E-2,3.439511E-2,3.5714082E-2,-9.2659146E-2,5.888173E-2,2.8081742E-1],"split_indices":[14,0,14,1,28,21,14,2,21,10,35,16,1,21,14,0,0,0,0,0,0,0,0,0,0,0,0,0,0,0,0],"split_type":[0,0,0,0,0,0,0,0,0,0,0,0,0,0,0,0,0,0,0,0,0,0,0,0,0,0,0,0,0,0,0],"sum_hessian":[3.216E3,1.87E2,3.029E3,9.2E1,9.5E1,6.65E2,2.364E3,2.1E1,7.1E1,7.2E1,2.3E1,6.58E2,7E0,2.04E2,2.16E3,1.9E1,2E0,3.9E1,3.2E1,1E1,6.2E1,1.4E1,9E0,2.28E2,4.3E2,4E0,3E0,2.01E2,3E0,4.56E2,1.704E3],"tree_param":{"num_deleted":"0","num_feature":"36","num_nodes":"31","size_leaf_vector":"1"}},{"base_weights":[5.2746914E-2,-4.125E-1,6.5715194E-2,-7.473684E-1,-3.1571427E-1,-1.6998667E-2,9.162849E-2,2.5000002E-3,-7.9444444E-1,5.4166667E-2,-4.9787232E-1,-4.0714285E-1,-9.59459E-3,6.308068E-2,9.744105E-2,-4.235294E-2,2.5000002E-3,4.782609E-3,-2.2499999E-2,-2.8452381E-2,4.166667E-3,-3.857143E-2,-1.8749997E-3,-2.0523136E-3,2.72541E-3,3.495025E-3,-1.4375E-2,3.9375E-3,4.9971496E-3],"categories":[],"categories_nodes":[],"categories_segments":[],"categories_sizes":[],"default_left":[0,0,0,0,0,0,0,0,0,0,0,0,0,0,0,0,0,0,0,0,0,0,0,0,0,0,0,0,0],"id":25,"left_children":[1,3,5,7,9,11,13,-1,15,17,19,21,23,25,27,-1,-1,-1,-1,-1,-1,-1,-1,-1,-1,-1,-1,-1,-1],"loss_changes":[1.957549E1,2.616167E0,6.7596617E0,7.5292397E-1,4.7433434E0,2.171253E0,3.9226532E-1,0E0,8.4209156E-1,5.450181E-1,1.9916916E0,1.8562496E0,1.4941814E0,9.9797213E-1,8.5329056E-2,0E0,0E0,0E0,0E0,0E0,0E0,0E0,0E0,0E0,0E0,0E0,0E0,0E0,0E0],"parents":[2147483647,0,0,1,1,2,2,3,3,4,4,5,5,6,6,8,8,9,9,10,10,11,11,12,12,13,13,14,14],"right_children":[2,4,6,8,10,12,14,-1,16,18,20,22,24,26,28,-1,-1,-1,-1,-1,-1,-1,-1,-1,-1,-1,-1,-1,-1],"split_conditions":[-1.73E0,2.2771013E-1,4.04E0,1.9619173E-1,2.7609432E-1,1.9102709E-1,6.39E0,3.6823776E-2,8.092083E1,1.601E1,6.73E1,1E0,5.14E0,1.1E1,2.1291666E0,-5.65827E-2,7.354164E-3,1.2005246E-2,-3.7870945E-3,-6.023943E-2,1.6990472E-2,-5.7821095E-2,-2.0142198E-4,-1.0264967E-2,7.9878E-3,3.1837054E-2,-8.802619E-2,8.745551E-2,1.4757045E-1],"split_indices":[20,28,20,10,28,28,20,0,26,13,9,11,1,18,3,0,0,0,0,0,0,0,0,0,0,0,0,0,0],"split_type":[0,0,0,0,0,0,0,0,0,0,0,0,0,0,0,0,0,0,0,0,0,0,0,0,0,0,0,0,0],"sum_hessian":[3.239E3,8.7E1,3.152E3,1.8E1,6.9E1,7.52E2,2.4E3,1E0,1.7E1,2.3E1,4.6E1,1.3E1,7.39E2,4.08E2,1.992E3,1.6E1,1E0,2.2E1,1E0,4.1E1,5E0,6E0,7E0,4.96E2,2.43E2,4.01E2,7E0,2.39E2,1.753E3],"tree_param":{"num_deleted":"0","num_feature":"36","num_nodes":"29","size_leaf_vector":"1"}},{"base_weights":[5.1157698E-2,-4.488095E-1,6.463219E-2,-3.7285712E-1,-7.733333E-1,-4.6102814E-2,9.119873E-2,-5.022222E-1,-1.3461538E-1,2.5000002E-3,-4.1785713E-2,-3.9429527E-2,-5.3749996E-1,5.759494E-2,9.896958E-2,-1.275E-2,-3.3653848E-2,4.7058826E-3,-2.55E-2,-6.47619E-3,-1.0060974E-3,-3.75E-2,3.3333336E-3,-1.5500001E-2,3.2688174E-3,4.4827587E-3,4.997277E-3],"categories":[],"categories_nodes":[],"categories_segments":[],"categories_sizes":[],"default_left":[0,0,0,0,0,0,0,0,0,0,0,0,0,0,0,0,0,0,0,0,0,0,0,0,0,0,0],"id":26,"left_children":[1,3,5,7,9,11,13,15,17,-1,-1,19,21,23,25,-1,-1,-1,-1,-1,-1,-1,-1,-1,-1,-1,-1],"loss_changes":[2.155983E1,1.7821198E0,9.162169E0,2.0898046E0,8.1219006E-1,1.9561856E0,6.499977E-1,1.7291231E0,2.2804344E0,0E0,0E0,1.034137E0,1.0770831E0,1.3760992E0,9.565353E-3,0E0,0E0,0E0,0E0,0E0,0E0,0E0,0E0,0E0,0E0,0E0,0E0],"parents":[2147483647,0,0,1,1,2,2,3,3,4,4,5,5,6,6,7,7,8,8,11,11,12,12,13,13,14,14],"right_children":[2,4,6,8,10,12,14,16,18,-1,-1,20,22,24,26,-1,-1,-1,-1,-1,-1,-1,-1,-1,-1,-1,-1],"split_conditions":[-1.93E0,5.01E0,3.01E0,5.9170834E1,5.1104168E1,8.97E0,6.01E0,1.531E1,4.99E0,3.0321825E-2,-5.4347612E-2,-8.1E-1,1.067125E2,4.65E0,7.43E0,-3.362465E-2,-7.073539E-2,1.452936E-3,-5.825713E-2,-3.0624127E-2,-3.6554502E-3,-3.4288634E-2,5.2281093E-2,-7.704991E-2,2.2369338E-2,5.465121E-2,2.0531265E-1],"split_indices":[14,18,14,9,9,21,14,35,21,0,0,14,9,6,14,0,0,0,0,0,0,0,0,0,0,0,0],"split_type":[0,0,0,0,0,0,0,0,0,0,0,0,0,0,0,0,0,0,0,0,0,0,0,0,0,0,0],"sum_hessian":[3.195E3,8.3E1,3.112E3,6.9E1,1.4E1,6.02E2,2.51E3,4.4E1,2.5E1,1E0,1.3E1,5.95E2,7E0,4.73E2,2.037E3,1.9E1,2.5E1,1.6E1,9E0,1.04E2,4.91E2,5E0,2E0,9E0,4.64E2,2.02E2,1.835E3],"tree_param":{"num_deleted":"0","num_feature":"36","num_nodes":"27","size_leaf_vector":"1"}},{"base_weights":[5.3457774E-2,-2.2633928E-1,7.402299E-2,-3.7714285E-1,-9.2499994E-2,4.89209E-3,9.4427906E-2,-4.5822784E-1,-1.2592591E-1,-3.4090872E-3,-3.272727E-1,-3.6363634E-1,1.0802923E-2,5.99278E-2,9.898795E-2,-3.8095236E-2,-1.7118644E-2,-3E-2,-3.2E-3,1.8939395E-3,-6.0869562E-3,-2.6842106E-2,-1.9999999E-3,4E-3,-3.142857E-2,1.331115E-3,-5.058823E-3,-2.125E-2,3.339416E-3,4.5606694E-3,4.9972786E-3],"categories":[],"categories_nodes":[],"categories_segments":[],"categories_sizes":[],"default_left":[0,0,0,0,0,0,0,0,0,0,0,0,0,0,0,0,0,0,0,0,0,0,0,0,0,0,0,0,0,0,0],"id":27,"left_children":[1,3,5,7,9,11,13,15,17,19,21,23,25,27,29,-1,-1,-1,-1,-1,-1,-1,-1,-1,-1,-1,-1,-1,-1,-1,-1],"loss_changes":[1.882111E1,4.486205E0,4.2948456E0,2.0811386E0,2.5088181E0,1.5178539E0,3.6393356E-1,2.5185604E0,7.542518E-1,4.3454376E-1,1.965244E0,1.3431689E0,1.2161328E0,9.499248E-1,6.334305E-3,0E0,0E0,0E0,0E0,0E0,0E0,0E0,0E0,0E0,0E0,0E0,0E0,0E0,0E0,0E0,0E0],"parents":[2147483647,0,0,1,1,2,2,3,3,4,4,5,5,6,6,7,7,8,8,9,9,10,10,11,11,12,12,13,13,14,14],"right_children":[2,4,6,8,10,12,14,16,18,20,22,24,26,28,30,-1,-1,-1,-1,-1,-1,-1,-1,-1,-1,-1,-1,-1,-1,-1,-1],"split_conditions":[-6.8E-1,1.572E1,4.5E0,2.93993E-1,3.1297264E-1,8.4E-1,6.01E0,-2.44E0,1.491E1,9.9004166E1,3.255106E-1,3.6470833E1,1.0438333E2,1.514E1,7.62E0,-5.0110918E-2,-4.9150527E-2,-2.9645706E-2,-1.2317076E-2,2.6156094E-3,-1.8851513E-2,-5.9337627E-2,-8.11589E-3,2.3944242E-2,-6.4615875E-2,4.1120555E-3,-2.276399E-2,-9.8626696E-2,3.2474708E-2,5.091509E-2,2.0270634E-1],"split_indices":[14,0,14,10,28,1,14,14,19,27,10,8,27,0,14,0,0,0,0,0,0,0,0,0,0,0,0,0,0,0,0],"split_type":[0,0,0,0,0,0,0,0,0,0,0,0,0,0,0,0,0,0,0,0,0,0,0,0,0,0,0,0,0,0,0],"sum_hessian":[3.267E3,2.23E2,3.044E3,1.04E2,1.19E2,6.94E2,2.35E3,7.8E1,2.6E1,8.7E1,3.2E1,1E1,6.84E2,2.76E2,2.074E3,2E1,5.8E1,2E0,2.4E1,6.5E1,2.2E1,1.8E1,1.4E1,4E0,6E0,6E2,8.4E1,3E0,2.73E2,2.38E2,1.836E3],"tree_param":{"num_deleted":"0","num_feature":"36","num_nodes":"31","size_leaf_vector":"1"}},{"base_weights":[5.3710032E-2,-3.7682927E-1,6.493631E-2,-1.3181818E-1,-4.5901638E-1,-4.0763047E-2,8.482785E-2,-4.125E-1,2.666667E-2,-5.466666E-1,-1.9999999E-1,-2.4687499E-1,-2.6552457E-2,5.0077762E-2,9.595203E-2,3.7500001E-3,-3.6E-2,4.6428572E-3,-2.2499999E-2,-2.9642856E-2,3.7500001E-3,4.5000003E-3,-2.6874999E-2,1.9444445E-3,-2.8666666E-2,-1.12499995E-2,-6.9318165E-4,2.7194358E-3,-2.0833334E-2,3.8842976E-3,4.9969493E-3],"categories":[],"categories_nodes":[],"categories_segments":[],"categories_sizes":[],"default_left":[0,0,0,0,0,0,0,0,0,0,0,0,0,0,0,0,0,0,0,0,0,0,0,0,0,0,0,0,0,0,0],"id":28,"left_children":[1,3,5,7,9,11,13,15,17,19,21,23,25,27,29,-1,-1,-1,-1,-1,-1,-1,-1,-1,-1,-1,-1,-1,-1,-1,-1],"loss_changes":[1.5592703E1,1.5907068E0,6.605379E0,9.8964393E-1,1.2755413E0,1.4520729E0,1.0168896E0,1.2532499E0,5.150476E-1,1.3366423E0,1.7122501E0,3.0075762E0,1.1728176E0,1.3164511E0,1.3796234E-1,0E0,0E0,0E0,0E0,0E0,0E0,0E0,0E0,0E0,0E0,0E0,0E0,0E0,0E0,0E0,0E0],"parents":[2147483647,0,0,1,1,2,2,3,3,4,4,5,5,6,6,7,7,8,8,9,9,10,10,11,11,12,12,13,13,14,14],"right_children":[2,4,6,8,10,12,14,16,18,20,22,24,26,28,30,-1,-1,-1,-1,-1,-1,-1,-1,-1,-1,-1,-1,-1,-1,-1,-1],"split_conditions":[-1.73E0,-2.7E0,2.11E0,3.3791666E0,1.4504167E1,2.0354201E-1,6.32E0,1.531E1,1.6E1,5.18E0,4.1564283E0,5.051429E0,8.4E-1,1.232E1,9.02E0,2.1930253E-2,-4.2531967E-2,4.490938E-3,-2.5264656E-2,-5.2177656E-2,3.6374554E-2,1.9282365E-2,-4.1293483E-2,6.2567624E-3,-3.983983E-2,-3.4017097E-2,-5.961495E-3,1.9367939E-2,-8.636708E-2,4.7379144E-2,2.3622306E-1],"split_indices":[17,17,20,7,25,28,17,35,22,12,34,34,1,21,17,0,0,0,0,0,0,0,0,0,0,0,0,0,0,0,0],"split_type":[0,0,0,0,0,0,0,0,0,0,0,0,0,0,0,0,0,0,0,0,0,0,0,0,0,0,0,0,0,0,0],"sum_hessian":[3.22E3,8.1E1,3.139E3,2.1E1,6E1,4.97E2,2.642E3,7E0,1.4E1,4.4E1,1.6E1,3.1E1,4.66E2,6.42E2,2E3,3E0,4E0,1.3E1,1E0,4.1E1,3E0,9E0,7E0,1.7E1,1.4E1,2.7E1,4.39E2,6.37E2,5E0,3.62E2,1.638E3],"tree_param":{"num_deleted":"0","num_feature":"36","num_nodes":"31","size_leaf_vector":"1"}},{"base_weights":[5.33126E-2,-4.3561643E-1,6.465161E-2,-6.64E-1,-3.1020406E-1,-3.152709E-2,8.7731756E-2,-3.1E-1,-4.21875E-2,-1.8461537E-1,-7.272727E-1,-2.4958398E-2,-4.6666664E-1,4.96994E-2,9.7005405E-2,-2.8571428E-3,-3.3749998E-2,-3.142857E-2,-4.242424E-3,-4.05E-2,2.5000002E-3,1.5744682E-3,-3.0517709E-3,-3.142857E-2,3.3333336E-3,-1.7142856E-2,2.758621E-3,4.0895524E-3,4.9970644E-3],"categories":[],"categories_nodes":[],"categories_segments":[],"categories_sizes":[],"default_left":[0,0,0,0,0,0,0,0,0,0,0,0,0,0,0,0,0,0,0,0,0,0,0,0,0,0,0,0,0],"id":29,"left_children":[1,3,5,7,9,11,13,15,-1,17,19,21,23,25,27,-1,-1,-1,-1,-1,-1,-1,-1,-1,-1,-1,-1,-1,-1],"loss_changes":[1.7852028E1,1.8848991E0,6.979656E0,1.3292236E0,2.4323106E0,1.7290559E0,8.892708E-1,8.843571E-1,0E0,1.6740593E0,7.47818E-1,1.2258385E0,8.190476E-1,1.0910017E0,8.2811356E-2,0E0,0E0,0E0,0E0,0E0,0E0,0E0,0E0,0E0,0E0,0E0,0E0,0E0,0E0],"parents":[2147483647,0,0,1,1,2,2,3,3,4,4,5,5,6,6,7,7,9,9,10,10,11,11,12,12,13,13,14,14],"right_children":[2,4,6,8,10,12,14,16,-1,18,20,22,24,26,28,-1,-1,-1,-1,-1,-1,-1,-1,-1,-1,-1,-1,-1,-1],"split_conditions":[-1.93E0,3.43E1,3.01E0,5.275E1,5.03E0,8.97E0,6.1E0,2.05E1,-3.9588712E-2,1.536E1,1.1816667E1,5.3779167E1,6.21E0,1.514E1,8.37E0,-2.2493435E-2,-3.1031286E-2,-8.85387E-2,-2.5491595E-2,-4.824659E-2,4.282832E-3,3.154786E-3,-1.2731214E-2,-2.98186E-2,4.983684E-2,-9.466376E-2,1.9673554E-2,4.7263063E-2,2.2104502E-1],"split_indices":[14,9,14,5,18,21,14,9,0,0,6,27,1,0,14,0,0,0,0,0,0,0,0,0,0,0,0,0,0],"split_type":[0,0,0,0,0,0,0,0,0,0,0,0,0,0,0,0,0,0,0,0,0,0,0,0,0,0,0,0,0],"sum_hessian":[3.214E3,7.2E1,3.142E3,2.4E1,4.8E1,6.08E2,2.534E3,9E0,1.5E1,3.8E1,1E1,6E2,8E0,4.98E2,2.036E3,6E0,3E0,6E0,3.2E1,9E0,1E0,2.34E2,3.66E2,6E0,2E0,6E0,4.92E2,3.34E2,1.702E3],"tree_param":{"num_deleted":"0","num_feature":"36","num_nodes":"29","size_leaf_vector":"1"}},{"base_weights":[5.727887E-2,-8.59287E-2,8.5279E-2,-3.0985916E-1,-5.1403884E-2,4.969605E-2,9.6565075E-2,-5.241379E-1,-1.5813953E-1,-4.1E-1,-4.3392066E-2,-3.582089E-2,5.9290543E-2,-4.999996E-3,9.7509764E-2,-3.525E-2,-5.4999995E-3,-3.472222E-3,-2.6874999E-2,3.3333336E-3,-2.6874999E-2,-3.839869E-3,1.275168E-3,1.5873034E-4,-2.5999999E-2,3.6268346E-3,2.1551743E-4,-3E-2,4.722222E-3,4.2543863E-3,4.997071E-3],"categories":[],"categories_nodes":[],"categories_segments":[],"categories_sizes":[],"default_left":[0,0,0,0,0,0,0,0,0,0,0,0,0,0,0,0,0,0,0,0,0,0,0,0,0,0,0,0,0,0,0],"id":30,"left_children":[1,3,5,7,9,11,13,15,17,19,21,23,25,27,29,-1,-1,-1,-1,-1,-1,-1,-1,-1,-1,-1,-1,-1,-1,-1,-1],"loss_changes":[1.3063335E1,4.1047797E0,1.0891361E0,2.2253437E0,1.3124113E0,5.420072E-1,1.9881248E-1,2.094603E0,1.4095124E0,6.435833E-1,1.0468276E0,1.2666647E0,4.3082643E-1,1.2400556E0,5.3359985E-2,0E0,0E0,0E0,0E0,0E0,0E0,0E0,0E0,0E0,0E0,0E0,0E0,0E0,0E0,0E0,0E0],"parents":[2147483647,0,0,1,1,2,2,3,3,4,4,5,5,6,6,7,7,8,8,9,9,10,10,11,11,12,12,13,13,14,14],"right_children":[2,4,6,8,10,12,14,16,18,20,22,24,26,28,30,-1,-1,-1,-1,-1,-1,-1,-1,-1,-1,-1,-1,-1,-1,-1,-1],"split_conditions":[1.73E0,-1.93E0,6.1E0,4.26E1,-2.06E0,-1.4541667E0,-7.5958333E0,9.854167E0,5.1E0,1.48E0,1.592E1,7.98E0,2.3883333E1,1.581E1,8.59E0,-3.706484E-2,-3.1617176E-2,-2.399307E-2,-4.5802917E-2,2.2640824E-2,-4.9178082E-2,-1.279782E-2,2.4521824E-3,-5.033677E-4,-3.492687E-2,2.4783088E-2,-3.68428E-4,-1.2831855E-2,6.389841E-2,4.88232E-2,2.1707323E-1],"split_indices":[14,17,14,27,20,3,3,7,21,1,22,18,3,13,14,0,0,0,0,0,0,0,0,0,0,0,0,0,0,0,0],"split_type":[0,0,0,0,0,0,0,0,0,0,0,0,0,0,0,0,0,0,0,0,0,0,0,0,0,0,0,0,0,0,0],"sum_hessian":[3.255E3,5.32E2,2.723E3,7E1,4.62E2,6.57E2,2.066E3,2.8E1,4.2E1,9E0,4.53E2,6.6E1,5.91E2,1.9E1,2.047E3,1.9E1,9E0,3.5E1,7E0,2E0,7E0,3.05E2,1.48E2,6.2E1,4E0,4.76E2,1.15E2,2E0,1.7E1,3.41E2,1.706E3],"tree_param":{"num_deleted":"0","num_feature":"36","num_nodes":"31","size_leaf_vector":"1"}},{"base_weights":[5.416539E-2,-1.393586E-1,7.694951E-2,-3.641791E-1,-8.447653E-2,2.7283376E-2,9.7521864E-2,-5.159091E-1,-7.0833325E-2,-7.137546E-2,-4.6666664E-1,4.224966E-2,-5.9523806E-2,3.1250004E-2,9.799315E-2,-4.999998E-4,-3.2285716E-2,-2.5999999E-2,2.2500001E-3,-5.5214704E-4,-8.130841E-3,-3.142857E-2,3.3333336E-3,1.2112405E-3,4.2757015E-3,-2.0416668E-2,-1.1304346E-3,-2.2499999E-2,4.666667E-3,4.373089E-3,4.997088E-3],"categories":[],"categories_nodes":[],"categories_segments":[],"categories_sizes":[],"default_left":[0,0,0,0,0,0,0,0,0,0,0,0,0,0,0,0,0,0,0,0,0,0,0,0,0,0,0,0,0,0,0],"id":31,"left_children":[1,3,5,7,9,11,13,15,17,19,21,23,25,27,29,-1,-1,-1,-1,-1,-1,-1,-1,-1,-1,-1,-1,-1,-1,-1,-1],"loss_changes":[1.4354089E1,4.20138E0,2.971651E0,2.9455824E0,1.3536578E0,1.1120155E0,6.1214447E-2,2.883007E0,1.2720834E0,1.479001E0,8.190476E-1,5.664271E-1,1.6131873E0,5.2004164E-1,3.318405E-2,0E0,0E0,0E0,0E0,0E0,0E0,0E0,0E0,0E0,0E0,0E0,0E0,0E0,0E0,0E0,0E0],"parents":[2147483647,0,0,1,1,2,2,3,3,4,4,5,5,6,6,7,7,8,8,9,9,10,10,11,11,12,12,13,13,14,14],"right_children":[2,4,6,8,10,12,14,16,18,20,22,24,26,28,30,-1,-1,-1,-1,-1,-1,-1,-1,-1,-1,-1,-1,-1,-1,-1,-1],"split_conditions":[1.4E-1,-2.06E0,6.1E0,3.53375E1,2.9229166E1,1.0520417E2,-7.5958333E0,1.529E1,5.8416667E0,3.1925E1,4.233333E0,1.3845834E1,1.545E1,2.6123473E-1,8.37E0,-2.1721864E-2,-4.5468926E-2,-1.7872954E-2,1.7944932E-3,-3.2591317E-3,-2.8479805E-2,-1.8629698E-2,9.1534555E-3,4.441773E-3,1.8700115E-2,-8.697441E-2,-3.4801736E-3,-4.9512866E-3,5.0992787E-2,4.7067903E-2,1.9810264E-1],"split_indices":[14,14,14,8,3,9,3,35,6,8,30,6,24,10,14,0,0,0,0,0,0,0,0,0,0,0,0,0,0,0,0],"split_type":[0,0,0,0,0,0,0,0,0,0,0,0,0,0,0,0,0,0,0,0,0,0,0,0,0,0,0,0,0,0,0],"sum_hessian":[3.252E3,3.42E2,2.91E3,6.6E1,2.76E2,8.53E2,2.057E3,4.3E1,2.3E1,2.68E2,8E0,7.28E2,1.25E2,1.5E1,2.042E3,9E0,3.4E1,4E0,1.9E1,1.62E2,1.06E2,6E0,2E0,5.15E2,2.13E2,1.1E1,1.14E2,1E0,1.4E1,3.26E2,1.716E3],"tree_param":{"num_deleted":"0","num_feature":"36","num_nodes":"31","size_leaf_vector":"1"}},{"base_weights":[5.840571E-2,-8.545816E-2,8.4906355E-2,-2.8030303E-1,-5.5835236E-2,4.4873703E-2,9.800097E-2,-4.390244E-1,-1.9230764E-2,-4.4103768E-2,-4.0714285E-1,-3.645833E-2,5.83045E-2,5.2173916E-2,9.8472156E-2,-2.7419357E-2,-4.5454544E-3,4.722222E-3,-1.2222222E-2,1.8229168E-3,-3.37386E-3,-6.6666664E-3,-3.75E-2,8.720932E-4,-2.2727272E-2,3.3147116E-3,-2.2619045E-3,-2.2499999E-2,4.7727274E-3,4.555874E-3,4.9970257E-3],"categories":[],"categories_nodes":[],"categories_segments":[],"categories_sizes":[],"default_left":[0,0,0,0,0,0,0,0,0,0,0,0,0,0,0,0,0,0,0,0,0,0,0,0,0,0,0,0,0,0,0],"id":32,"left_children":[1,3,5,7,9,11,13,15,17,19,21,23,25,27,29,-1,-1,-1,-1,-1,-1,-1,-1,-1,-1,-1,-1,-1,-1,-1,-1],"loss_changes":[1.2298709E1,2.8818302E0,1.4230328E0,2.726448E0,1.783075E0,7.3728E-1,3.9150238E-2,1.5110502E0,6.887179E-1,8.008576E-1,1.2142856E0,2.1712856E0,4.811653E-1,5.4284585E-1,1.2804031E-2,0E0,0E0,0E0,0E0,0E0,0E0,0E0,0E0,0E0,0E0,0E0,0E0,0E0,0E0,0E0,0E0],"parents":[2147483647,0,0,1,1,2,2,3,3,4,4,5,5,6,6,7,7,8,8,9,9,10,10,11,11,12,12,13,13,14,14],"right_children":[2,4,6,8,10,12,14,16,18,20,22,24,26,28,30,-1,-1,-1,-1,-1,-1,-1,-1,-1,-1,-1,-1,-1,-1,-1,-1],"split_conditions":[1.55E0,-2.06E0,6.1E0,9.641666E0,8.84E1,7.1375E0,-7.5958333E0,3.53375E1,1.58E1,2.3688258E-1,2.2175E1,3.5295834E1,6.18E0,1.545E1,8.59E0,-4.440249E-2,-1.4671338E-2,2.5970554E-3,-2.7762866E-2,2.1967387E-3,-1.4700999E-2,-4.153807E-2,-4.624888E-2,9.405401E-3,-6.829826E-2,1.8141972E-2,-1.19221015E-2,-4.7037126E-3,3.6195524E-2,4.4479836E-2,1.9165406E-1],"split_indices":[14,14,14,7,8,6,3,8,24,10,3,25,17,16,14,0,0,0,0,0,0,0,0,0,0,0,0,0,0,0,0],"split_type":[0,0,0,0,0,0,0,0,0,0,0,0,0,0,0,0,0,0,0,0,0,0,0,0,0,0,0,0,0,0,0],"sum_hessian":[3.223E3,5.01E2,2.722E3,6.5E1,4.36E2,6.72E2,2.05E3,4E1,2.5E1,4.23E2,1.3E1,9.5E1,5.77E2,2.2E1,2.028E3,3E1,1E1,1.7E1,8E0,9.5E1,3.28E2,8E0,5E0,8.5E1,1E1,5.36E2,4.1E1,1E0,2.1E1,3.48E2,1.68E3],"tree_param":{"num_deleted":"0","num_feature":"36","num_nodes":"31","size_leaf_vector":"1"}},{"base_weights":[5.778941E-2,-1.202346E-1,7.864512E-2,-2.9605263E-1,-6.954887E-2,3.2974914E-2,9.705599E-2,-4.8E-1,-2.8124996E-2,-5.6031123E-2,-4.1E-1,-4.1666666E-1,3.617789E-2,8.2960896E-2,4.997085E-3,-2.6829267E-2,4E-3,1.2500001E-3,-1.6E-2,-2.470588E-3,-3E-2,-3.142857E-2,3.7500001E-3,-3.3749998E-2,3.3333336E-3,1.9179735E-3,-2.125E-2,4.2857146E-3,-2.2499999E-2],"categories":[],"categories_nodes":[],"categories_segments":[],"categories_sizes":[],"default_left":[0,0,0,0,0,0,0,0,0,0,0,0,0,0,0,0,0,0,0,0,0,0,0,0,0,0,0,0,0],"id":33,"left_children":[1,3,5,7,9,11,13,15,17,19,21,23,25,27,-1,-1,-1,-1,-1,-1,-1,-1,-1,-1,-1,-1,-1,-1,-1],"loss_changes":[1.2068686E1,3.0182195E0,2.4419289E0,3.7321277E0,1.2011942E0,1.2205133E0,7.5984955E-2,1.4688778E0,5.0418746E-1,8.9574E-1,1.1072142E0,7.9416656E-1,8.5337687E-1,5.639186E-1,0E0,0E0,0E0,0E0,0E0,0E0,0E0,0E0,0E0,0E0,0E0,0E0,0E0,0E0,0E0],"parents":[2147483647,0,0,1,1,2,2,3,3,4,4,5,5,6,6,7,7,8,8,9,9,10,10,11,11,12,12,13,13],"right_children":[2,4,6,8,10,12,14,16,18,20,22,24,26,28,-1,-1,-1,-1,-1,-1,-1,-1,-1,-1,-1,-1,-1,-1,-1],"split_conditions":[1.4E-1,-1.93E0,6.1E0,9.854167E0,2.9133333E1,1.514E1,8.59E0,5E0,1.4353334E2,8.27E0,4.07E0,1.0791667E0,1.232E1,4.0646157E-1,1.8329214E-1,-3.5103958E-2,4.784441E-3,-3.557233E-3,-1.1232686E-2,-1.3933897E-2,-2.395134E-2,-1.6963163E-2,9.430832E-3,-8.646379E-2,4.851931E-2,6.6898875E-3,-8.374706E-2,4.225272E-2,-1.6549706E-2],"split_indices":[14,14,14,7,3,0,14,12,27,21,12,3,21,10,0,0,0,0,0,0,0,0,0,0,0,0,0,0,0],"split_type":[0,0,0,0,0,0,0,0,0,0,0,0,0,0,0,0,0,0,0,0,0,0,0,0,0,0,0,0,0],"sum_hessian":[3.247E3,3.4E2,2.907E3,7.5E1,2.65E2,8.36E2,2.071E3,4.4E1,3.1E1,2.56E2,9E0,5E0,8.31E2,3.57E2,1.714E3,4E1,4E0,2.7E1,4E0,2.54E2,2E0,6E0,3E0,3E0,2E0,8.28E2,3E0,3.56E2,1E0],"tree_param":{"num_deleted":"0","num_feature":"36","num_nodes":"29","size_leaf_vector":"1"}},{"base_weights":[5.8522906E-2,-1.7965116E-1,7.198815E-2,-4.0249997E-1,-1.1127819E-1,7.1922583E-3,9.2184804E-2,-9.999996E-3,-5.16129E-1,-5.1E-1,-7.82258E-2,3.47561E-2,-5.1293097E-2,6.55242E-2,9.939594E-2,4.375E-3,-1.3333333E-2,-3.2708332E-2,-1.8749997E-3,3.3333336E-3,-3.3125E-2,-2.6694913E-3,-2.4285713E-2,-2.125E-2,1.9222907E-3,-2.34375E-2,-1.0138247E-3,3.9069266E-3,-5.142857E-3,4.3820227E-3,4.997115E-3],"categories":[],"categories_nodes":[],"categories_segments":[],"categories_sizes":[],"default_left":[0,0,0,0,0,0,0,0,0,0,0,0,0,0,0,0,0,0,0,0,0,0,0,0,0,0,0,0,0,0,0],"id":34,"left_children":[1,3,5,7,9,11,13,15,17,19,21,23,25,27,29,-1,-1,-1,-1,-1,-1,-1,-1,-1,-1,-1,-1,-1,-1,-1,-1],"loss_changes":[1.0304426E1,2.5759463E0,3.9750462E0,1.7788148E0,1.712873E0,1.1673174E0,4.387455E-1,2.7358335E-1,2.0236015E0,9.2358327E-1,1.2289941E0,8.5095185E-1,2.9944534E0,1.0615501E0,2.9354095E-3,0E0,0E0,0E0,0E0,0E0,0E0,0E0,0E0,0E0,0E0,0E0,0E0,0E0,0E0,0E0,0E0],"parents":[2147483647,0,0,1,1,2,2,3,3,4,4,5,5,6,6,7,7,8,8,9,9,10,10,11,11,12,12,13,13,14,14],"right_children":[2,4,6,8,10,12,14,16,18,20,22,24,26,28,30,-1,-1,-1,-1,-1,-1,-1,-1,-1,-1,-1,-1,-1,-1,-1,-1],"split_conditions":[-9E-1,1.546E1,4.5E0,-3.1E0,2.4708334E1,1.592E1,7.62E0,7.5958336E1,6E-1,5.275E1,5.5E0,-2.69E0,1.5816667E1,9.96E0,4.5916668E1,7.4532153E-3,-9.523666E-3,-6.1059725E-2,-1.7415488E-2,7.256377E-3,-5.2251797E-2,-4.2494056E-3,-4.323974E-2,-4.6540707E-2,4.804339E-3,-6.0625583E-2,-2.5238441E-3,3.2251757E-2,-2.6559342E-2,9.138038E-2,1.5222362E-1],"split_indices":[14,22,14,20,27,16,14,5,29,5,21,20,31,18,5,0,0,0,0,0,0,0,0,0,0,0,0,0,0,0,0],"split_type":[0,0,0,0,0,0,0,0,0,0,0,0,0,0,0,0,0,0,0,0,0,0,0,0,0,0,0,0,0,0,0],"sum_hessian":[3.208E3,1.71E2,3.037E3,3.9E1,1.32E2,7.22E2,2.315E3,9E0,3E1,9E0,1.23E2,4.91E2,2.31E2,4.95E2,1.82E3,7E0,2E0,2.3E1,7E0,2E0,7E0,1.17E2,6E0,3E0,4.88E2,1.5E1,2.16E2,4.61E2,3.4E1,8.8E1,1.732E3],"tree_param":{"num_deleted":"0","num_feature":"36","num_nodes":"31","size_leaf_vector":"1"}},{"base_weights":[5.867238E-2,-8.2903974E-2,7.991558E-2,-1.6855669E-1,-1.1538457E-2,1.8774707E-2,9.311377E-2,-6.285714E-1,-1.505319E-1,4.1666668E-2,-1.1645569E-1,-8.3116874E-2,3.6976747E-2,7.549468E-2,4.9970276E-3,2.5000002E-3,-3.75E-2,2.3255833E-4,-9.760274E-3,2.3870969E-3,-2.2499999E-2,-3.3125E-2,-2.7083333E-3,1.83211E-10,-1.8823529E-2,2.3950618E-3,-6.730769E-3,3.8490854E-3,-2.2499999E-2],"categories":[],"categories_nodes":[],"categories_segments":[],"categories_sizes":[],"default_left":[0,0,0,0,0,0,0,0,0,0,0,0,0,0,0,0,0,0,0,0,0,0,0,0,0,0,0,0,0],"id":35,"left_children":[1,3,5,7,9,11,13,15,17,19,21,23,25,27,-1,-1,-1,-1,-1,-1,-1,-1,-1,-1,-1,-1,-1,-1,-1],"loss_changes":[9.838261E0,2.608157E0,2.292408E0,1.5139637E0,1.3110719E0,9.4151855E-1,2.736721E-1,6.142857E-1,1.3042331E0,4.8745695E-1,2.6511075E0,1.8774637E0,8.125075E-1,5.4804087E-1,0E0,0E0,0E0,0E0,0E0,0E0,0E0,0E0,0E0,0E0,0E0,0E0,0E0,0E0,0E0],"parents":[2147483647,0,0,1,1,2,2,3,3,4,4,5,5,6,6,7,7,8,8,9,9,10,10,11,11,12,12,13,13],"right_children":[2,4,6,8,10,12,14,16,18,20,22,24,26,28,-1,-1,-1,-1,-1,-1,-1,-1,-1,-1,-1,-1,-1,-1,-1],"split_conditions":[8.3E-1,1.576E1,4.5E0,-3.15E0,1.596E1,7.1375E0,8.7E0,1.9291667E0,1.535E1,1.4353334E2,-1.73E0,8.53E1,1.244125E2,4.0646157E-1,1.7075075E-1,3.2677006E-2,-3.0631864E-2,-4.784906E-3,-3.0974824E-2,4.0121838E-3,-1.1948607E-2,-5.9948742E-2,-4.680189E-3,-4.8361646E-4,-5.43154E-2,7.74918E-3,-2.610979E-2,3.0382155E-2,-2.0291258E-2],"split_indices":[14,0,14,14,19,6,14,8,16,27,20,27,27,10,0,0,0,0,0,0,0,0,0,0,0,0,0,0,0],"split_type":[0,0,0,0,0,0,0,0,0,0,0,0,0,0,0,0,0,0,0,0,0,0,0,0,0,0,0,0,0],"sum_hessian":[3.268E3,4.26E2,2.842E3,1.93E2,2.33E2,5.05E2,2.337E3,6E0,1.87E2,1.55E2,7.8E1,7.6E1,4.29E2,6.56E2,1.681E3,1E0,5E0,4.2E1,1.45E2,1.54E2,1E0,7E0,7.1E1,6E1,1.6E1,4.04E2,2.5E1,6.55E2,1E0],"tree_param":{"num_deleted":"0","num_feature":"36","num_nodes":"29","size_leaf_vector":"1"}},{"base_weights":[5.8495823E-2,-7.003816E-2,8.3345644E-2,-2.2365591E-1,-3.680555E-2,5.243446E-2,9.6278824E-2,-3.9148936E-1,-5.1063824E-2,-3.2790694E-2,-3E-2,5.4818526E-2,-3E-2,2.758621E-2,9.728724E-2,-2.6833331E-2,-6.3888887E-3,4.814815E-3,-1.1904761E-2,-2.2801284E-4,-5.1209675E-3,-1.2499999E-2,2.852645E-3,-1.2499999E-2,4.7916668E-3,1.5625003E-3,4.8900805E-3],"categories":[],"categories_nodes":[],"categories_segments":[],"categories_sizes":[],"default_left":[0,0,0,0,0,0,0,0,0,0,0,0,0,0,0,0,0,0,0,0,0,0,0,0,0,0,0],"id":36,"left_children":[1,3,5,7,9,11,13,15,17,19,-1,21,-1,23,25,-1,-1,-1,-1,-1,-1,-1,-1,-1,-1,-1,-1],"loss_changes":[1.03258E1,2.66685E0,1.0775566E0,2.6739144E0,9.5714045E-1,1.2788041E0,1.2948227E-1,1.7308187E0,1.3182933E0,8.4476125E-1,0E0,5.5844474E-1,0E0,5.733477E-1,6.0804367E-2,0E0,0E0,0E0,0E0,0E0,0E0,0E0,0E0,0E0,0E0,0E0,0E0],"parents":[2147483647,0,0,1,1,2,2,3,3,4,4,5,5,6,6,7,7,8,8,9,9,11,11,13,13,14,14],"right_children":[2,4,6,8,10,12,14,16,18,20,-1,22,-1,24,26,-1,-1,-1,-1,-1,-1,-1,-1,-1,-1,-1,-1],"split_conditions":[1.73E0,1.55E1,6.97E0,-9E-1,1.134E1,1.316E1,3.25E0,1.544E1,1.536E1,1.596E1,-1.5836155E-2,4.125E0,-1.4113999E-2,1.569E1,3.5291668E1,-4.8090465E-2,-3.1932216E-2,1.5469077E-2,-5.2073993E-2,-1.1494582E-3,-1.7833566E-2,-4.1977722E-2,1.3541186E-2,-8.81803E-3,6.606287E-2,3.758565E-3,1.2551351E-1],"split_indices":[14,0,14,14,21,21,23,13,31,19,0,6,0,22,5,0,0,0,0,0,0,0,0,0,0,0,0],"split_type":[0,0,0,0,0,0,0,0,0,0,0,0,0,0,0,0,0,0,0,0,0,0,0,0,0,0,0],"sum_hessian":[3.23E3,5.23E2,2.707E3,9.2E1,4.31E2,8E2,1.907E3,4.6E1,4.6E1,4.29E2,2E0,7.98E2,2E0,2.8E1,1.879E3,2.9E1,1.7E1,2.6E1,2E1,3.06E2,1.23E2,5E0,7.93E2,5E0,2.3E1,1.5E1,1.864E3],"tree_param":{"num_deleted":"0","num_feature":"36","num_nodes":"27","size_leaf_vector":"1"}},{"base_weights":[5.601981E-2,-1.15624994E-1,7.279212E-2,-5.230769E-1,-9.6014485E-2,2.3241209E-2,9.1112144E-2,-6.363636E-1,3.3333336E-3,-2.4032257E-1,-5.3953484E-2,-3E-2,2.5566753E-2,6.673152E-2,9.8716386E-2,-8.75E-3,-3.9375E-2,4.545455E-3,-1.5288462E-2,-1.6785715E-2,-1.7079207E-3,2.9397593E-3,-5.394735E-4,3.6794357E-3,-5.789473E-3,-8.75E-3,4.96632E-3],"categories":[],"categories_nodes":[],"categories_segments":[],"categories_sizes":[],"default_left":[0,0,0,0,0,0,0,0,0,0,0,0,0,0,0,0,0,0,0,0,0,0,0,0,0,0,0],"id":37,"left_children":[1,3,5,7,9,11,13,15,-1,17,19,-1,21,23,25,-1,-1,-1,-1,-1,-1,-1,-1,-1,-1,-1,-1],"loss_changes":[9.31008E0,2.2509947E0,2.6703682E0,9.109554E-1,1.6622827E0,1.1690426E0,3.9182854E-1,6.2920475E-1,0E0,1.3718336E0,1.1876895E0,0E0,9.5983416E-1,6.518338E-1,2.905445E-1,0E0,0E0,0E0,0E0,0E0,0E0,0E0,0E0,0E0,0E0,0E0,0E0],"parents":[2147483647,0,0,1,1,2,2,3,3,4,4,5,5,6,6,7,7,9,9,10,10,12,12,13,13,14,14],"right_children":[2,4,6,8,10,12,14,16,-1,18,20,-1,22,24,26,-1,-1,-1,-1,-1,-1,-1,-1,-1,-1,-1,-1],"split_conditions":[-1.8E-1,-3.15E0,5.34E0,1.592E1,4.31E1,6E-1,9.02E0,1.509E1,2.4889207E-2,1.73E1,1.125E-1,-2.1904523E-2,6.44E1,1.058E1,2.31E0,-5.1113726E-3,-6.989812E-2,1.5168871E-3,-1.9941656E-2,-6.725239E-2,-4.394971E-3,7.911665E-3,-3.873792E-3,3.0284977E-2,-8.880241E-3,-1.0593319E-2,1.7175664E-1],"split_indices":[14,14,14,0,9,1,14,16,0,27,7,0,27,20,21,0,0,0,0,0,0,0,0,0,0,0,0],"split_type":[0,0,0,0,0,0,0,0,0,0,0,0,0,0,0,0,0,0,0,0,0,0,0,0,0,0,0],"sum_hessian":[3.23E3,2.87E2,2.943E3,1.2E1,2.75E2,7.95E2,2.148E3,1E1,2E0,6.1E1,2.14E2,2E0,7.93E2,5.13E2,1.635E3,3E0,7E0,1E1,5.1E1,1.3E1,2.01E2,4.14E2,3.79E2,4.95E2,1.8E1,3E0,1.632E3],"tree_param":{"num_deleted":"0","num_feature":"36","num_nodes":"27","size_leaf_vector":"1"}},{"base_weights":[5.692165E-2,-4.7864765E-2,7.897302E-2,-2.0394737E-1,-2.340862E-2,4.8695654E-2,9.8102815E-2,-2.6093748E-1,4.6153846E-3,-1.2499996E-2,-3.4375E-1,-3.1E-1,5.214425E-2,-1.75E-1,9.8712444E-2,-2.3055555E-2,-8.93617E-3,-1.7952126E-3,3.917526E-3,-3.3125E-2,-1.111111E-3,-2.8571428E-3,-3.3749998E-2,2.9614184E-3,-2.4264704E-3,3.3333336E-3,-2.2499999E-2,-4.999998E-4,4.9660914E-3],"categories":[],"categories_nodes":[],"categories_segments":[],"categories_sizes":[],"default_left":[0,0,0,0,0,0,0,0,0,0,0,0,0,0,0,0,0,0,0,0,0,0,0,0,0,0,0,0,0],"id":38,"left_children":[1,3,5,7,9,11,13,15,-1,17,19,21,23,25,27,-1,-1,-1,-1,-1,-1,-1,-1,-1,-1,-1,-1,-1,-1],"loss_changes":[7.4649763E0,2.14048E0,1.5405293E0,1.3072412E0,1.6975166E0,1.2964566E0,2.893219E-1,9.7084284E-1,0E0,1.0064213E0,1.6250693E0,8.843571E-1,7.3460054E-1,2.958333E-1,1.09041214E-1,0E0,0E0,0E0,0E0,0E0,0E0,0E0,0E0,0E0,0E0,0E0,0E0,0E0,0E0],"parents":[2147483647,0,0,1,1,2,2,3,3,4,4,5,5,6,6,7,7,9,9,10,10,11,11,12,12,13,13,14,14],"right_children":[2,4,6,8,10,12,14,16,-1,18,20,22,24,26,28,-1,-1,-1,-1,-1,-1,-1,-1,-1,-1,-1,-1,-1,-1],"split_conditions":[2.02E0,-1.9E0,9.1E0,1E0,8.84E1,-8.845834E0,2.45E0,1.539E1,1.985884E-3,5.09E0,1.2135833E2,3.7997153E-1,7.37875E1,1E-1,2.054492E-1,-3.2155853E-2,-1.5808802E-2,-6.647214E-3,8.591204E-3,-3.7712645E-2,-1.2001413E-2,-1.5285206E-2,-2.0978857E-2,1.9745337E-2,-6.044201E-3,1.5433083E-1,-7.9331165E-3,-1.6547915E-3,1.514393E-1],"split_indices":[17,20,17,11,26,3,23,13,0,1,9,10,26,2,28,0,0,0,0,0,0,0,0,0,0,0,0,0,0],"split_type":[0,0,0,0,0,0,0,0,0,0,0,0,0,0,0,0,0,0,0,0,0,0,0,0,0,0,0,0,0],"sum_hessian":[3.228E3,5.61E2,2.667E3,7.5E1,4.86E2,1.034E3,1.633E3,6.3E1,1.2E1,4.71E2,1.5E1,9E0,1.025E3,3E0,1.63E3,1.7E1,4.6E1,3.75E2,9.6E1,7E0,8E0,6E0,3E0,9.58E2,6.7E1,2E0,1E0,9E0,1.621E3],"tree_param":{"num_deleted":"0","num_feature":"36","num_nodes":"29","size_leaf_vector":"1"}},{"base_weights":[5.7224885E-2,-7.812499E-2,7.790441E-2,-2.3855421E-1,-3.802395E-2,4.9230773E-2,9.746287E-2,-3.4237286E-1,1.6000003E-2,-2.7639747E-2,-2.9230767E-1,8.681672E-2,3.4465414E-2,-1.75E-1,9.807812E-2,-2.1145834E-2,4.1666682E-4,2.7083333E-3,-2.2499999E-2,-9.21875E-3,-5.154637E-4,-2.3333332E-2,4E-3,-4.1666664E-3,4.4934643E-3,-2.4180326E-3,2.4703266E-3,3.3333336E-3,-2.2499999E-2,4.9347016E-3,-4.1666664E-3],"categories":[],"categories_nodes":[],"categories_segments":[],"categories_sizes":[],"default_left":[0,0,0,0,0,0,0,0,0,0,0,0,0,0,0,0,0,0,0,0,0,0,0,0,0,0,0,0,0,0,0],"id":39,"left_children":[1,3,5,7,9,11,13,15,17,19,21,23,25,27,29,-1,-1,-1,-1,-1,-1,-1,-1,-1,-1,-1,-1,-1,-1,-1,-1],"loss_changes":[8.780864E0,2.667215E0,1.5206108E0,2.1989584E0,8.738588E-1,6.102495E-1,2.8805637E-1,1.6701097E0,4.6901667E-1,8.7274647E-1,8.812307E-1,1.6902065E-1,9.8621297E-1,2.958333E-1,1.8845272E-1,0E0,0E0,0E0,0E0,0E0,0E0,0E0,0E0,0E0,0E0,0E0,0E0,0E0,0E0,0E0,0E0],"parents":[2147483647,0,0,1,1,2,2,3,3,4,4,5,5,6,6,7,7,8,8,9,9,10,10,11,11,12,12,13,13,14,14],"right_children":[2,4,6,8,10,12,14,16,18,20,22,24,26,28,30,-1,-1,-1,-1,-1,-1,-1,-1,-1,-1,-1,-1,-1,-1,-1,-1],"split_conditions":[8.3E-1,-1.73E0,9.02E0,3.6391666E1,2.94625E1,4.765E1,2.32E0,1.592E1,8.4625E1,8.4E-1,4.17E0,3.5291668E1,7.3125E0,1.589E1,2.58125E1,-3.42629E-2,-9.915783E-3,2.9813887E-3,-1.3474161E-2,-2.564097E-2,-3.0658895E-3,-1.5972305E-2,1.0403088E-2,-2.1159232E-3,2.2162791E-2,-1.0496453E-2,1.4624352E-2,1.2127061E-1,-9.666991E-3,1.5996735E-1,-6.5917014E-3],"split_indices":[14,20,14,8,3,9,23,0,5,1,12,5,6,0,6,0,0,0,0,0,0,0,0,0,0,0,0,0,0,0,0],"split_type":[0,0,0,0,0,0,0,0,0,0,0,0,0,0,0,0,0,0,0,0,0,0,0,0,0,0,0,0,0,0,0],"sum_hessian":[3.134E3,4.15E2,2.719E3,8.2E1,3.33E2,1.104E3,1.615E3,5.8E1,2.4E1,3.21E2,1.2E1,3.1E2,7.94E2,3E0,1.612E3,4.7E1,1.1E1,2.3E1,1E0,3.1E1,2.9E2,8E0,4E0,5E0,3.05E2,1.21E2,6.73E2,2E0,1E0,1.607E3,5E0],"tree_param":{"num_deleted":"0","num_feature":"36","num_nodes":"31","size_leaf_vector":"1"}},{"base_weights":[5.2453894E-2,-4.7543347E-2,8.002392E-2,-3.4418604E-1,-2.784615E-2,5.015873E-2,9.80179E-2,-4.4571427E-1,4.4444446E-3,-4.9045797E-2,5.9842523E-2,-2.8181814E-2,6.04067E-2,-1.75E-1,9.865471E-2,-1.6607143E-2,-3.9375E-2,-3.9423076E-3,9.3167723E-4,3.3730161E-3,-2.2499999E-2,9.708756E-5,-2.0625E-2,-9.090909E-3,3.1779662E-3,-2.2499999E-2,3.3333336E-3,1.0714288E-3,4.9644704E-3],"categories":[],"categories_nodes":[],"categories_segments":[],"categories_sizes":[],"default_left":[0,0,0,0,0,0,0,0,0,0,0,0,0,0,0,0,0,0,0,0,0,0,0,0,0,0,0,0,0],"id":40,"left_children":[1,3,5,7,9,11,13,15,-1,17,19,21,23,25,27,-1,-1,-1,-1,-1,-1,-1,-1,-1,-1,-1,-1,-1,-1],"loss_changes":[8.8232155E0,4.033792E0,1.3428669E0,1.9303007E0,1.2112648E0,7.603781E-1,2.8918076E-1,1.0970359E0,0E0,1.0583081E0,5.236095E-1,1.2742747E0,6.499624E-1,2.958333E-1,7.438564E-2,0E0,0E0,0E0,0E0,0E0,0E0,0E0,0E0,0E0,0E0,0E0,0E0,0E0,0E0],"parents":[2147483647,0,0,1,1,2,2,3,3,4,4,5,5,6,6,7,7,9,9,10,10,11,11,12,12,13,13,14,14],"right_children":[2,4,6,8,10,12,14,16,-1,18,20,22,24,26,28,-1,-1,-1,-1,-1,-1,-1,-1,-1,-1,-1,-1,-1,-1],"split_conditions":[3.01E0,-2.44E0,9.36E0,1.592E1,3.3978838E-1,6.6583333E0,2.31E0,1.569E1,4.2982223E-3,7E-1,3.22E0,1.611E1,1.514E1,1.595E1,1.503E1,-2.3649435E-2,-6.389963E-2,-1.0932723E-2,1.4533371E-3,7.786538E-3,-9.96033E-3,3.1248116E-4,-4.0566057E-2,-8.322151E-2,1.9634662E-2,-9.183645E-3,1.9631043E-1,1.2216897E-1,1.587267E-1],"split_indices":[14,14,14,0,28,6,21,19,0,29,4,22,0,0,24,0,0,0,0,0,0,0,0,0,0,0,0,0,0],"split_type":[0,0,0,0,0,0,0,0,0,0,0,0,0,0,0,0,0,0,0,0,0,0,0,0,0,0,0,0,0],"sum_hessian":[3.198E3,6.91E2,2.507E3,4.2E1,6.49E2,9.44E2,1.563E3,3.4E1,8E0,5.23E2,1.26E2,1.09E2,8.35E2,3E0,1.56E3,2.7E1,7E0,3.63E2,1.6E2,1.25E2,1E0,1.02E2,7E0,1E1,8.25E2,1E0,2E0,1.3E1,1.547E3],"tree_param":{"num_deleted":"0","num_feature":"36","num_nodes":"29","size_leaf_vector":"1"}},{"base_weights":[5.2291024E-2,-5.1659446E-2,8.065406E-2,-2.4999999E-1,-3.0732479E-2,5.7091884E-2,9.922426E-2,-3.775E-1,-5.1851846E-2,-2.6559995E-2,-3.3749998E-2,-8.205128E-2,6.2049862E-2,-8.333333E-2,4.9964613E-3,-1.0434783E-2,-2.8611112E-2,8.0000015E-4,-3E-2,-2.5360824E-3,2.8368796E-3,-3.3749998E-2,-6.944443E-4,3.1864566E-3,-1.2499999E-2,4E-3,-2.2499999E-2],"categories":[],"categories_nodes":[],"categories_segments":[],"categories_sizes":[],"default_left":[0,0,0,0,0,0,0,0,0,0,0,0,0,0,0,0,0,0,0,0,0,0,0,0,0,0,0],"id":41,"left_children":[1,3,5,7,9,11,13,15,17,19,-1,21,23,25,-1,-1,-1,-1,-1,-1,-1,-1,-1,-1,-1,-1,-1],"loss_changes":[9.527341E0,2.8687282E0,1.104847E0,1.6478429E0,1.670259E0,7.784345E-1,1.9082165E-1,1.1953778E0,1.0138073E0,1.2607574E0,0E0,1.5668802E0,5.834403E-1,3.9533332E-1,0E0,0E0,0E0,0E0,0E0,0E0,0E0,0E0,0E0,0E0,0E0,0E0,0E0],"parents":[2147483647,0,0,1,1,2,2,3,3,4,4,5,5,6,6,7,7,8,8,9,9,11,11,12,12,13,13],"right_children":[2,4,6,8,10,12,14,16,18,20,-1,22,24,26,-1,-1,-1,-1,-1,-1,-1,-1,-1,-1,-1,-1,-1],"split_conditions":[3.01E0,-2.06E0,1.073E1,3.2566666E1,1.134E1,5.375E0,1.491E1,1.41E1,5.36E0,3.3221546E-1,-2.6706738E-2,3.65E0,1.697E1,2.5758333E1,2.0643266E-1,-1.6295174E-2,-6.172811E-2,-3.3213196E-3,-9.605474E-3,-9.117881E-3,7.151121E-3,-6.501772E-2,-4.424428E-3,2.0616103E-2,-1.43394945E-2,3.327704E-1,-6.8745617E-4],"split_indices":[14,14,14,8,21,6,13,26,21,10,0,23,23,3,0,0,0,0,0,0,0,0,0,0,0,0,0],"split_type":[0,0,0,0,0,0,0,0,0,0,0,0,0,0,0,0,0,0,0,0,0,0,0,0,0,0,0],"sum_hessian":[3.229E3,6.92E2,2.537E3,6.5E1,6.27E2,1.12E3,1.417E3,3.9E1,2.6E1,6.24E2,3E0,3.8E1,1.082E3,5E0,1.412E3,2.2E1,1.7E1,2.4E1,2E0,4.84E2,1.4E2,3E0,3.5E1,1.077E3,5E0,4E0,1E0],"tree_param":{"num_deleted":"0","num_feature":"36","num_nodes":"27","size_leaf_vector":"1"}},{"base_weights":[5.6626134E-2,-2.1597296E-2,8.6589046E-2,-2.742857E-1,-1.1228066E-2,6.666667E-2,9.922371E-2,4.545455E-3,-4.24E-1,-7.612612E-2,1.1514199E-2,6.773836E-2,-2.2499999E-2,-5.7142854E-2,4.9964567E-3,-3.6363635E-2,-8.666667E-3,-2.716346E-3,-1.8666668E-2,1.0313534E-3,-8.965517E-3,4.9795085E-3,2.7921095E-3,-2.2499999E-2,4.166667E-3],"categories":[],"categories_nodes":[],"categories_segments":[],"categories_sizes":[],"default_left":[0,0,0,0,0,0,0,0,0,0,0,0,0,0,0,0,0,0,0,0,0,0,0,0,0],"id":42,"left_children":[1,3,5,7,9,11,13,-1,15,17,19,21,-1,23,-1,-1,-1,-1,-1,-1,-1,-1,-1,-1,-1],"loss_changes":[7.518442E0,2.326264E0,5.771084E-1,1.9521658E0,1.2627956E0,5.304799E-1,1.6200829E-1,0E0,1.7744484E0,1.4180294E0,1.1061984E0,3.362198E-1,0E0,4.238095E-1,0E0,0E0,0E0,0E0,0E0,0E0,0E0,0E0,0E0,0E0,0E0],"parents":[2147483647,0,0,1,1,2,2,3,3,4,4,5,5,6,6,8,8,9,9,10,10,11,11,13,13],"right_children":[2,4,6,8,10,12,14,-1,16,18,20,22,-1,24,-1,-1,-1,-1,-1,-1,-1,-1,-1,-1,-1],"split_conditions":[4.5E0,-2.44E0,1.073E1,1.535E1,2.72E0,1.876E1,1.491E1,6.605411E-4,1.54E1,4.075E0,8.84E1,4.9808334E1,-1.3622522E-2,4.5416668E1,1.9911616E-1,-2.3229934E-2,-2.0582069E-2,-1.1557211E-2,-3.4590654E-2,1.5925147E-3,-1.1335152E-2,2.9282918E-2,1.9329296E-2,-6.5307616E-4,3.161319E-1],"split_indices":[14,14,14,19,1,23,13,0,13,34,8,9,0,5,0,0,0,0,0,0,0,0,0,0,0],"split_type":[0,0,0,0,0,0,0,0,0,0,0,0,0,0,0,0,0,0,0,0,0,0,0,0,0],"sum_hessian":[3.206E3,8.88E2,2.318E3,3.4E1,8.54E2,9.02E2,1.416E3,1E1,2.4E1,2.21E2,6.33E2,9.01E2,1E0,6E0,1.41E3,1E1,1.4E1,2.07E2,1.4E1,6.05E2,2.8E1,2.43E2,6.58E2,1E0,5E0],"tree_param":{"num_deleted":"0","num_feature":"36","num_nodes":"25","size_leaf_vector":"1"}},{"base_weights":[5.826331E-2,-1.4831977E-2,8.5070185E-2,-3.1764704E-1,-8.736714E-3,6.47363E-2,9.920578E-2,-9.999996E-3,-6.6249996E-1,1.4449921E-2,-6.7782424E-2,-8.602147E-3,7.245714E-2,8.472222E-2,4.996195E-3,-2.2499999E-2,4.4444446E-3,2.5000002E-3,-3.857143E-2,-6.9117644E-3,1.1718752E-3,-2.9166667E-2,-2.7136751E-3,-1.5500001E-2,1.3690478E-3,1.1742426E-3,4.0524197E-3,-2.2499999E-2,4.9295775E-3],"categories":[],"categories_nodes":[],"categories_segments":[],"categories_sizes":[],"default_left":[0,0,0,0,0,0,0,0,0,0,0,0,0,0,0,0,0,0,0,0,0,0,0,0,0,0,0,0,0],"id":43,"left_children":[1,3,5,7,9,11,13,15,17,19,21,23,25,27,-1,-1,-1,-1,-1,-1,-1,-1,-1,-1,-1,-1,-1,-1,-1],"loss_changes":[6.296994E0,1.5900964E0,6.693306E-1,1.7969557E0,1.1605829E0,5.481725E-1,5.9404373E-3,4.751111E-1,6.594641E-1,8.389528E-1,1.6328647E0,1.0170945E0,3.6623764E-1,5.783352E-1,0E0,0E0,0E0,0E0,0E0,0E0,0E0,0E0,0E0,0E0,0E0,0E0,0E0,0E0,0E0],"parents":[2147483647,0,0,1,1,2,2,3,3,4,4,5,5,6,6,7,7,8,8,9,9,10,10,11,11,12,12,13,13],"right_children":[2,4,6,8,10,12,14,16,18,20,22,24,26,28,-1,-1,-1,-1,-1,-1,-1,-1,-1,-1,-1,-1,-1,-1,-1],"split_conditions":[4.27E0,1.514E1,1.107E1,1.5319285E1,1.593E1,-6.875E-1,3.7083334E-1,1.03E0,-4.1916666E0,2.0354201E-1,-2.06E0,1.552E1,2.3964114E-1,1.553E1,1.8886735E-1,-3.871894E-3,1.543572E-2,3.030225E-2,-6.215769E-2,-1.9668164E-2,2.399006E-3,-2.4223853E-2,-1.0056341E-2,-5.350231E-2,1.5548172E-2,6.1550583E-3,2.739354E-2,-1.2941408E-2,1.0801134E-1],"split_indices":[17,0,17,35,19,3,7,12,3,10,17,0,10,33,0,0,0,0,0,0,0,0,0,0,0,0,0,0,0],"split_type":[0,0,0,0,0,0,0,0,0,0,0,0,0,0,0,0,0,0,0,0,0,0,0,0,0,0,0,0,0],"sum_hessian":[3.212E3,8.62E2,2.35E3,1.6E1,8.46E2,9.66E2,1.384E3,9E0,7E0,6.08E2,2.38E2,9.2E1,8.74E2,7.1E1,1.313E3,1E0,8E0,1E0,6E0,3.3E1,5.75E2,5E0,2.33E2,9E0,8.3E1,1.31E2,7.43E2,1E0,7E1],"tree_param":{"num_deleted":"0","num_feature":"36","num_nodes":"29","size_leaf_vector":"1"}},{"base_weights":[5.536223E-2,-4.5471694E-2,7.56459E-2,-1.6860464E-1,-2.157303E-2,4.7758766E-2,4.996444E-3,-8.799999E-2,-6.583333E-1,-1.760722E-2,-3E-2,5.0534982E-2,-2.153846E-1,-2.4583332E-2,-5.468748E-4,-4E-2,-8.75E-3,-8.064516E-3,-3.3898288E-4,-2.244898E-3,2.724936E-3,-3.6E-2,4.4444446E-3],"categories":[],"categories_nodes":[],"categories_segments":[],"categories_sizes":[],"default_left":[0,0,0,0,0,0,0,0,0,0,0,0,0,0,0,0,0,0,0,0,0,0,0],"id":44,"left_children":[1,3,5,7,9,11,-1,13,15,17,-1,19,21,-1,-1,-1,-1,-1,-1,-1,-1,-1,-1],"loss_changes":[6.4685764E0,1.5560007E0,1.7775717E0,3.3368657E0,1.0102351E0,9.0726113E-1,0E0,2.3276896E0,6.8166685E-1,6.880983E-1,0E0,4.620459E-1,2.060034E0,0E0,0E0,0E0,0E0,0E0,0E0,0E0,0E0,0E0,0E0],"parents":[2147483647,0,0,1,1,2,2,3,3,4,4,5,5,7,7,8,8,9,9,11,11,12,12],"right_children":[2,4,6,8,10,12,-1,14,16,18,-1,20,22,-1,-1,-1,-1,-1,-1,-1,-1,-1,-1],"split_conditions":[1.73E0,-1.73E0,1.073E1,1.592E1,8.17E0,1.248E1,1.7310224E-1,1.525E1,3.3266666E1,8.4E-1,-1.4536894E-2,2.51E0,6.0891666E1,-2.1455381E-2,-4.52847E-3,-5.2330494E-2,-9.554023E-3,-2.3298463E-2,-1.5201179E-3,-1.5783738E-2,1.47109525E-2,-1.229434E-2,1.5391993E-2],"split_indices":[14,20,14,19,21,20,0,0,8,1,0,1,27,0,0,0,0,0,0,0,0,0,0],"split_type":[0,0,0,0,0,0,0,0,0,0,0,0,0,0,0,0,0,0,0,0,0,0,0],"sum_hessian":[3.16E3,5.29E2,2.631E3,8.5E1,4.44E2,1.226E3,1.405E3,7.4E1,1.1E1,4.42E2,2E0,1.214E3,1.2E1,1.1E1,6.3E1,8E0,3E0,3E1,4.12E2,4.8E1,1.166E3,4E0,8E0],"tree_param":{"num_deleted":"0","num_feature":"36","num_nodes":"23","size_leaf_vector":"1"}},{"base_weights":[5.124922E-2,-2.621681E-2,8.168769E-2,-1.7187499E-1,-8.899872E-3,5.6687247E-2,4.996235E-3,-1.1294117E-1,-5.75E-1,4.9575106E-3,-1.0288461E-1,-4.756097E-2,6.6217735E-2,-2.3928571E-2,-2.0138887E-3,3.3333336E-3,-3.55E-2,-8.123789E-4,3.1315794E-3,-2.9473682E-3,-2.55E-2,1.357143E-3,-2.2307692E-2,-3.0263157E-3,3.588993E-3],"categories":[],"categories_nodes":[],"categories_segments":[],"categories_sizes":[],"default_left":[0,0,0,0,0,0,0,0,0,0,0,0,0,0,0,0,0,0,0,0,0,0,0,0,0],"id":45,"left_children":[1,3,5,7,9,11,-1,13,15,17,19,21,23,-1,-1,-1,-1,-1,-1,-1,-1,-1,-1,-1,-1],"loss_changes":[7.552288E0,2.278678E0,1.0425282E0,2.2157977E0,1.0541375E0,9.688668E-1,0E0,2.2389987E0,1.086833E0,8.6444414E-1,1.8302399E0,2.453776E0,6.3246965E-1,0E0,0E0,0E0,0E0,0E0,0E0,0E0,0E0,0E0,0E0,0E0,0E0],"parents":[2147483647,0,0,1,1,2,2,3,3,4,4,5,5,7,7,8,8,9,9,10,10,11,11,12,12],"right_children":[2,4,6,8,10,12,-1,14,16,18,20,22,24,-1,-1,-1,-1,-1,-1,-1,-1,-1,-1,-1,-1],"split_conditions":[4.5E0,-1.73E0,1.142E1,1.592E1,1.04808334E2,3.7083334E-1,2.1146129E-1,1.526E1,3.2E-1,1.9566668E1,5.15E0,2.385E1,1.529E1,-1.592809E-2,-6.586008E-3,3.2253873E-2,-4.971397E-2,-1.5072938E-3,1.4143265E-2,-1.0496843E-2,-6.33053E-2,1.3963117E-2,-6.840598E-2,-8.303394E-3,2.548793E-2],"split_indices":[14,20,14,19,27,7,0,0,1,7,20,8,19,0,0,0,0,0,0,0,0,0,0,0,0],"split_type":[0,0,0,0,0,0,0,0,0,0,0,0,0,0,0,0,0,0,0,0,0,0,0,0,0],"sum_hessian":[3.201E3,9.03E2,2.298E3,9.5E1,8.08E2,9.71E2,1.327E3,8.4E1,1.1E1,7.05E2,1.03E2,8.1E1,8.9E2,1.3E1,7.1E1,2E0,9E0,5.16E2,1.89E2,9.4E1,9E0,6.9E1,1.2E1,3.7E1,8.53E2],"tree_param":{"num_deleted":"0","num_feature":"36","num_nodes":"25","size_leaf_vector":"1"}},{"base_weights":[5.5682875E-2,-1.5795324E-2,8.3226085E-2,-2.6153845E-1,-4.645757E-3,6.072165E-2,9.9192366E-2,-5.75E-1,-1.17857136E-1,-5.910128E-4,-2.1874999E-1,-3E-2,6.270661E-2,8.035714E-2,4.9961745E-3,-3.857143E-2,-1.2499999E-2,4.666667E-3,-1.6785715E-2,-1.3706138E-3,1.534527E-3,-2.4285713E-2,-4.999998E-4,3.2331608E-3,-2.125E-2,-1.3333333E-2,4.907408E-3],"categories":[],"categories_nodes":[],"categories_segments":[],"categories_sizes":[],"default_left":[0,0,0,0,0,0,0,0,0,0,0,0,0,0,0,0,0,0,0,0,0,0,0,0,0,0,0],"id":46,"left_children":[1,3,5,7,9,11,13,15,17,19,21,-1,23,25,-1,-1,-1,-1,-1,-1,-1,-1,-1,-1,-1,-1,-1],"loss_changes":[6.3583717E0,2.4619818E0,8.3153343E-1,1.688736E0,7.4733746E-1,1.3097861E0,1.0727882E-2,5.7321405E-1,1.3195952E0,7.1064436E-1,8.8680357E-1,0E0,9.5119286E-1,3.7191135E-1,0E0,0E0,0E0,0E0,0E0,0E0,0E0,0E0,0E0,0E0,0E0,0E0,0E0],"parents":[2147483647,0,0,1,1,2,2,3,3,4,4,5,5,6,6,7,7,8,8,9,9,10,10,12,12,13,13],"right_children":[2,4,6,8,10,12,14,16,18,20,22,-1,24,26,-1,-1,-1,-1,-1,-1,-1,-1,-1,-1,-1,-1,-1],"split_conditions":[4.5E0,1.524E1,1.142E1,-2.06E0,2.59E0,1.499E1,2.2083333E-1,3.7333333E0,1.5075E1,4.75E0,6.4E0,-1.8303752E-2,1.537E1,1.5615714E1,2.0688367E-1,-5.8898438E-2,-2.0206798E-2,4.5573534E-3,-5.9616473E-2,-5.16705E-3,3.3842623E-3,-5.615337E-2,-8.113085E-3,2.242346E-2,-7.5510265E-3,-2.5735856E-3,2.0352642E-1],"split_indices":[14,0,14,14,4,31,7,7,26,1,2,0,20,33,0,0,0,0,0,0,0,0,0,0,0,0,0],"split_type":[0,0,0,0,0,0,0,0,0,0,0,0,0,0,0,0,0,0,0,0,0,0,0,0,0,0,0],"sum_hessian":[3.228E3,8.98E2,2.33E3,3.8E1,8.6E2,9.69E2,1.361E3,1.1E1,2.7E1,8.45E2,1.5E1,2E0,9.67E2,5.5E1,1.306E3,6E0,5E0,1.4E1,1.3E1,4.55E2,3.9E2,6E0,9E0,9.64E2,3E0,2E0,5.3E1],"tree_param":{"num_deleted":"0","num_feature":"36","num_nodes":"27","size_leaf_vector":"1"}},{"base_weights":[5.437345E-2,-8.2162125E-3,7.952174E-2,-3.6923075E-1,-3.066809E-3,5.257202E-2,9.917231E-2,-5.7142854E-2,-6.285714E-1,4.3081764E-2,-2.768456E-2,5.7053294E-2,-2.1874999E-1,7.884616E-2,4.996088E-3,-2.2499999E-2,4.166667E-3,-3.75E-2,2.5000002E-3,-1E-2,2.831126E-3,-1.3611111E-2,-1.6574566E-4,-8.720928E-4,3.2167432E-3,-2.9166667E-2,1.6933138E-10,-2.2499999E-2,4.901961E-3],"categories":[],"categories_nodes":[],"categories_segments":[],"categories_sizes":[],"default_left":[0,0,0,0,0,0,0,0,0,0,0,0,0,0,0,0,0,0,0,0,0,0,0,0,0,0,0,0,0],"id":47,"left_children":[1,3,5,7,9,11,13,15,17,19,21,23,25,27,-1,-1,-1,-1,-1,-1,-1,-1,-1,-1,-1,-1,-1,-1,-1],"loss_changes":[5.075302E0,1.7184515E0,1.2128143E0,1.0162637E0,1.0384283E0,1.1943047E0,1.2366295E-2,4.238095E-1,6.142857E-1,1.0580249E0,3.550838E0,5.202389E-1,1.2760415E0,5.7192683E-1,0E0,0E0,0E0,0E0,0E0,0E0,0E0,0E0,0E0,0E0,0E0,0E0,0E0,0E0,0E0],"parents":[2147483647,0,0,1,1,2,2,3,3,4,4,5,5,6,6,7,7,8,8,9,9,10,10,11,11,12,12,13,13],"right_children":[2,4,6,8,10,12,14,16,18,20,22,24,26,28,-1,-1,-1,-1,-1,-1,-1,-1,-1,-1,-1,-1,-1,-1,-1],"split_conditions":[4.5E0,-3.15E0,1.142E1,1.526E1,1.563E1,1.363E1,2.2083333E-1,1.516E1,1.592E1,1.514E1,1.5681429E1,3.7083334E-1,2.2408333E1,1.5615714E1,1.9146767E-1,-7.3498725E-3,1.1234641E-3,-5.3345706E-2,8.892941E-3,-5.2581936E-2,9.817721E-3,-3.0316148E-2,-7.674744E-4,-4.44252E-3,2.1975348E-2,-1.7388558E-2,-3.2364454E-3,-2.4448873E-3,1.571543E-1],"split_indices":[14,14,14,16,16,20,7,0,0,0,33,7,26,33,0,0,0,0,0,0,0,0,0,0,0,0,0,0,0],"split_type":[0,0,0,0,0,0,0,0,0,0,0,0,0,0,0,0,0,0,0,0,0,0,0,0,0,0,0,0,0],"sum_hessian":[3.223E3,9.24E2,2.299E3,1.2E1,9.12E2,9.71E2,1.328E3,6E0,6E0,3.17E2,5.95E2,9.56E2,1.5E1,5.1E1,1.277E3,1E0,5E0,5E0,1E0,1.6E1,3.01E2,5.3E1,5.42E2,8.5E1,8.71E2,5E0,1E1,1E0,5E1],"tree_param":{"num_deleted":"0","num_feature":"36","num_nodes":"29","size_leaf_vector":"1"}},{"base_weights":[5.6932066E-2,2.039474E-2,9.551201E-2,-1.9375E-1,2.6707696E-2,-2.6666665E-1,9.6139245E-2,-4.4615382E-1,-9.722222E-2,2.8862797E-2,-4.125E-1,-2.2499999E-2,2.5000002E-3,9.6761905E-2,-8.333333E-2,-2.8571428E-3,-3.857143E-2,4.736842E-3,-1.4722222E-2,-1.3449366E-3,2.118189E-3,-3.6E-2,3.7500001E-3,3.291667E-3,4.9622254E-3,-2.2499999E-2,4E-3],"categories":[],"categories_nodes":[],"categories_segments":[],"categories_sizes":[],"default_left":[0,0,0,0,0,0,0,0,0,0,0,0,0,0,0,0,0,0,0,0,0,0,0,0,0,0,0],"id":48,"left_children":[1,3,5,7,9,11,13,15,17,19,21,-1,-1,23,25,-1,-1,-1,-1,-1,-1,-1,-1,-1,-1,-1,-1],"loss_changes":[4.5835085E0,2.2655282E0,3.850193E-1,1.1260952E0,1.5500286E0,1.9666664E-1,1.846304E-1,1.6008787E0,1.390804E0,1.2192272E0,1.2532499E0,0E0,0E0,1.1439896E-1,3.9533332E-1,0E0,0E0,0E0,0E0,0E0,0E0,0E0,0E0,0E0,0E0,0E0,0E0],"parents":[2147483647,0,0,1,1,2,2,3,3,4,4,5,5,6,6,7,7,8,8,9,9,10,10,13,13,14,14],"right_children":[2,4,6,8,10,12,14,16,18,20,22,-1,-1,24,26,-1,-1,-1,-1,-1,-1,-1,-1,-1,-1,-1,-1],"split_conditions":[9.76E0,1.524E1,2.31E0,2.3E0,1.235E1,1.595E1,2.58125E1,3.5E0,3.4979168E1,1.4E-1,1.1306429E1,-2.4394989E-2,2.3131676E-1,8.125E-1,1.543E1,-2.0925999E-4,-5.3324413E-2,1.7151797E-2,-6.3805714E-2,-3.375689E-3,9.4058635E-3,-7.959318E-3,2.784586E-3,6.39859E-2,1.2829751E-1,-1.7750477E-2,2.0943499E-1],"split_indices":[14,0,21,7,20,0,6,8,26,14,34,0,0,7,0,0,0,0,0,0,0,0,0,0,0,0,0],"split_type":[0,0,0,0,0,0,0,0,0,0,0,0,0,0,0,0,0,0,0,0,0,0,0,0,0,0,0],"sum_hessian":[3.252E3,1.671E3,1.581E3,4.7E1,1.624E3,2E0,1.579E3,1.2E1,3.5E1,1.617E3,7E0,1E0,1E0,1.574E3,5E0,6E0,6E0,1.8E1,1.7E1,3.15E2,1.302E3,4E0,3E0,1.19E2,1.455E3,1E0,4E0],"tree_param":{"num_deleted":"0","num_feature":"36","num_nodes":"27","size_leaf_vector":"1"}},{"base_weights":[5.220339E-2,1.4733373E-2,4.9964963E-3,-6.1206892E-2,3.2676633E-2,-8.552188E-2,7.884616E-2,3.49076E-2,-2.4166666E-1,-3.8605442E-3,-3.3749998E-2,-2.2499999E-2,4.901961E-3,2.9985756E-3,5.855265E-4,-2.9166667E-2,4.2857146E-3],"categories":[],"categories_nodes":[],"categories_segments":[],"categories_sizes":[],"default_left":[0,0,0,0,0,0,0,0,0,0,0,0,0,0,0,0,0],"id":49,"left_children":[1,3,-1,5,7,9,11,13,15,-1,-1,-1,-1,-1,-1,-1,-1],"loss_changes":[5.801606E0,2.4805982E0,0E0,1.1918182E0,9.0937495E-1,1.4029312E0,5.7192683E-1,8.4873664E-1,1.3922617E0,0E0,0E0,0E0,0E0,0E0,0E0,0E0,0E0],"parents":[2147483647,0,0,1,1,3,3,4,4,5,5,6,6,7,7,8,8],"right_children":[2,4,-1,6,8,10,12,14,16,-1,-1,-1,-1,-1,-1,-1,-1],"split_conditions":[1.073E1,1.4E-1,1.3710329E-1,5.14E0,1.284E1,8.69E1,3.6E0,6.54E1,6.44E1,-8.997652E-3,-2.8006984E-2,-2.972287E-3,1.2763669E-2,1.2798703E-2,2.2481324E-3,-1.241796E-2,7.472515E-3],"split_indices":[14,14,0,1,20,8,15,27,27,0,0,0,0,0,0,0,0],"split_type":[0,0,0,0,0,0,0,0,0,0,0,0,0,0,0,0,0],"sum_hessian":[3.244E3,1.818E3,1.426E3,3.47E2,1.471E3,2.96E2,5.1E1,1.46E3,1.1E1,2.93E2,3E0,1E0,5E1,7.01E2,7.59E2,5E0,6E0],"tree_param":{"num_deleted":"0","num_feature":"36","num_nodes":"17","size_leaf_vector":"1"}},{"base_weights":[5.1933877E-2,-2.5906364E-4,8.1405565E-2,2.6909758E-3,-4.8571426E-1,5.3030305E-2,9.6903324E-2,-1.650831E-2,5.466238E-2,-3.6E-2,3.3333336E-3,-1.9999999E-1,5.541667E-2,-4.0909085E-2,9.91558E-2,-6.6860463E-3,-1.5852028E-4,-2.2499999E-2,2.887097E-3,4E-3,-3E-2,3.536822E-3,8.292684E-4,-2.0833334E-2,4.7058826E-3,4.1666682E-4,4.9961302E-3],"categories":[],"categories_nodes":[],"categories_segments":[],"categories_sizes":[],"default_left":[0,0,0,0,0,0,0,0,0,0,0,0,0,0,0,0,0,0,0,0,0,0,0,0,0,0,0],"id":50,"left_children":[1,3,5,7,9,11,13,15,17,-1,-1,19,21,23,25,-1,-1,-1,-1,-1,-1,-1,-1,-1,-1,-1,-1],"loss_changes":[4.9315357E0,1.6596928E0,8.9591503E-1,1.150384E0,9.539046E-1,4.4945836E-1,4.150505E-1,1.3159341E0,5.093202E-1,0E0,0E0,8.319999E-1,4.2714524E-1,1.1554368E0,8.9912415E-2,0E0,0E0,0E0,0E0,0E0,0E0,0E0,0E0,0E0,0E0,0E0,0E0],"parents":[2147483647,0,0,1,1,2,2,3,3,4,4,5,5,6,6,7,7,8,8,11,11,12,12,13,13,14,14],"right_children":[2,4,6,8,10,12,14,16,18,-1,-1,20,22,24,26,-1,-1,-1,-1,-1,-1,-1,-1,-1,-1,-1,-1],"split_conditions":[6.07E0,9.587143E0,9.56E0,7E-1,1.578E1,1.491E1,2.1208334E0,-1.9333333E0,1.509E1,-2.4042597E-2,3.5328493E-3,2.94625E1,8.81E0,1.553E1,3.12E0,-2.6829178E-2,-3.7638386E-4,-3.8662672E-3,6.606273E-3,1.0130918E-1,-2.9789163E-2,2.0452334E-2,1.8544913E-3,-1.0405135E-2,5.944344E-2,3.5271612E-3,1.5131782E-1],"split_indices":[1,34,1,29,13,13,26,3,13,0,0,3,15,13,20,0,0,0,0,0,0,0,0,0,0,0,0],"split_type":[0,0,0,0,0,0,0,0,0,0,0,0,0,0,0,0,0,0,0,0,0,0,0,0,0,0,0],"sum_hessian":[3.205E3,1.157E3,2.048E3,1.151E3,6E0,7.25E2,1.323E3,8.41E2,3.1E2,4E0,2E0,6E0,7.19E2,2.1E1,1.302E3,8.5E1,7.56E2,1E0,3.09E2,4E0,2E0,5.15E2,2.04E2,5E0,1.6E1,1.1E1,1.291E3],"tree_param":{"num_deleted":"0","num_feature":"36","num_nodes":"27","size_leaf_vector":"1"}},{"base_weights":[5.03743E-2,-1.7434206E-2,7.729848E-2,-2.0465115E-1,-8.160915E-3,4.7963344E-2,9.916286E-2,-3.3214286E-1,3.1250004E-2,2.30315E-2,-5.179063E-2,5.2376036E-2,-2.4E-1,8.513514E-2,4.9959715E-3,7.6923094E-4,-2.96875E-2,4.666667E-3,-2.2499999E-2,-1.6E-2,1.3194446E-3,-3.3749998E-2,-2.2361109E-3,3.3375795E-3,-4.6195634E-4,-3.6E-2,1.6933138E-10,4.9305554E-3,-1.3333333E-2],"categories":[],"categories_nodes":[],"categories_segments":[],"categories_sizes":[],"default_left":[0,0,0,0,0,0,0,0,0,0,0,0,0,0,0,0,0,0,0,0,0,0,0,0,0,0,0,0,0],"id":51,"left_children":[1,3,5,7,9,11,13,15,17,19,21,23,25,27,-1,-1,-1,-1,-1,-1,-1,-1,-1,-1,-1,-1,-1,-1,-1],"loss_changes":[5.8545046E0,1.5816689E0,1.4672432E0,1.3036233E0,1.1851898E0,1.2603915E0,5.4388046E-3,2.554773E0,5.2004164E-1,5.9350365E-1,1.5688636E0,8.580251E-1,1.7279998E0,3.771208E-1,0E0,0E0,0E0,0E0,0E0,0E0,0E0,0E0,0E0,0E0,0E0,0E0,0E0,0E0,0E0],"parents":[2147483647,0,0,1,1,2,2,3,3,4,4,5,5,6,6,7,7,8,8,9,9,10,10,11,11,12,12,13,13],"right_children":[2,4,6,8,10,12,14,16,18,20,22,24,26,28,-1,-1,-1,-1,-1,-1,-1,-1,-1,-1,-1,-1,-1,-1,-1],"split_conditions":[4.5E0,-2.44E0,1.155E1,3.1508333E1,3.0975E1,1.363E1,1.54E1,-3.12E0,1.2234167E2,-3.1E0,4.22125E1,9.5E0,2.2408333E1,1.539E1,1.7172344E-1,3.973283E-6,-1.3600687E-2,3.3600628E-3,-6.399441E-3,-3.5843372E-3,4.595124E-3,-3.2803137E-2,-6.296718E-3,2.3406053E-2,-1.9977472E-3,-2.8299714E-2,-8.657784E-3,1.10641055E-1,-1.2469816E-2],"split_indices":[14,14,14,8,26,20,0,17,9,20,9,18,26,0,0,0,0,0,0,0,0,0,0,0,0,0,0,0,0],"split_type":[0,0,0,0,0,0,0,0,0,0,0,0,0,0,0,0,0,0,0,0,0,0,0,0,0,0,0,0,0],"sum_hessian":[3.205E3,9.11E2,2.294E3,4.2E1,8.69E2,9.81E2,1.313E3,2.7E1,1.5E1,5.07E2,3.62E2,9.67E2,1.4E1,7.3E1,1.24E3,1.2E1,1.5E1,1.4E1,1E0,4E0,5.03E2,3E0,3.59E2,7.84E2,1.83E2,4E0,1E1,7.1E1,2E0],"tree_param":{"num_deleted":"0","num_feature":"36","num_nodes":"29","size_leaf_vector":"1"}},{"base_weights":[4.741886E-2,-2.4559466E-2,7.547251E-2,-3.7333333E-1,-1.8680084E-2,4.716797E-2,9.7624525E-2,4E-3,-5.454545E-1,-3.5636853E-2,6.1146498E-2,4.9901962E-2,-5.2E-1,3.3866276E-9,9.837838E-2,-1.2499999E-2,-3.75E-2,-1.0466987E-3,-5.635593E-3,-2.125E-2,3.6688314E-3,-5.2752276E-4,3.3125782E-3,2.5000002E-3,-3.3749998E-2,-2.2499999E-2,4.5000003E-3,3.4558827E-3,4.9959286E-3],"categories":[],"categories_nodes":[],"categories_segments":[],"categories_sizes":[],"default_left":[0,0,0,0,0,0,0,0,0,0,0,0,0,0,0,0,0,0,0,0,0,0,0,0,0,0,0,0,0],"id":52,"left_children":[1,3,5,7,9,11,13,-1,15,17,19,21,23,25,27,-1,-1,-1,-1,-1,-1,-1,-1,-1,-1,-1,-1,-1,-1],"loss_changes":[6.534144E0,1.8549478E0,1.4550571E0,1.2140605E0,1.2122982E0,1.613797E0,9.604168E-2,0E0,4.7727275E-1,8.339602E-1,9.646495E-1,1.0088389E0,4.7549987E-1,4.8599997E-1,5.1454544E-2,0E0,0E0,0E0,0E0,0E0,0E0,0E0,0E0,0E0,0E0,0E0,0E0,0E0,0E0],"parents":[2147483647,0,0,1,1,2,2,3,3,4,4,5,5,6,6,8,8,9,9,10,10,11,11,12,12,13,13,14,14],"right_children":[2,4,6,8,10,12,14,-1,16,18,20,22,24,26,28,-1,-1,-1,-1,-1,-1,-1,-1,-1,-1,-1,-1,-1,-1],"split_conditions":[4.5E0,-3.15E0,1.194E1,-3.1E0,1E0,1.537E1,2.5125E0,1.3554454E-3,